{"learner":{"attributes":{"best_iteration":"188","best_score":"0.00899198093102314","scikit_learn":"{\"_estimator_type\": \"regressor\"}"},"feature_names":["cybint_score","socint_score","geoint_score","domain_max","domain_min","domain_std","domain_range","mean_score","all_domains_elevated","cyber_leads","soc_leads","geo_leads","n_high_domains","n_active_scenarios","cyber_geo_interaction","hour_sin","hour_cos","month_sin","month_cos","region_code","escalation_pattern_int"],"feature_types":["float","float","float","float","float","float","float","float","int","int","int","int","int","int","float","float","float","float","float","int","int"],"gradient_booster":{"model":{"gbtree_model_param":{"num_parallel_tree":"1","num_trees":"229"},"iteration_indptr":[0,1,2,3,4,5,6,7,8,9,10,11,12,13,14,15,16,17,18,19,20,21,22,23,24,25,26,27,28,29,30,31,32,33,34,35,36,37,38,39,40,41,42,43,44,45,46,47,48,49,50,51,52,53,54,55,56,57,58,59,60,61,62,63,64,65,66,67,68,69,70,71,72,73,74,75,76,77,78,79,80,81,82,83,84,85,86,87,88,89,90,91,92,93,94,95,96,97,98,99,100,101,102,103,104,105,106,107,108,109,110,111,112,113,114,115,116,117,118,119,120,121,122,123,124,125,126,127,128,129,130,131,132,133,134,135,136,137,138,139,140,141,142,143,144,145,146,147,148,149,150,151,152,153,154,155,156,157,158,159,160,161,162,163,164,165,166,167,168,169,170,171,172,173,174,175,176,177,178,179,180,181,182,183,184,185,186,187,188,189,190,191,192,193,194,195,196,197,198,199,200,201,202,203,204,205,206,207,208,209,210,211,212,213,214,215,216,217,218,219,220,221,222,223,224,225,226,227,228,229],"tree_info":[0,0,0,0,0,0,0,0,0,0,0,0,0,0,0,0,0,0,0,0,0,0,0,0,0,0,0,0,0,0,0,0,0,0,0,0,0,0,0,0,0,0,0,0,0,0,0,0,0,0,0,0,0,0,0,0,0,0,0,0,0,0,0,0,0,0,0,0,0,0,0,0,0,0,0,0,0,0,0,0,0,0,0,0,0,0,0,0,0,0,0,0,0,0,0,0,0,0,0,0,0,0,0,0,0,0,0,0,0,0,0,0,0,0,0,0,0,0,0,0,0,0,0,0,0,0,0,0,0,0,0,0,0,0,0,0,0,0,0,0,0,0,0,0,0,0,0,0,0,0,0,0,0,0,0,0,0,0,0,0,0,0,0,0,0,0,0,0,0,0,0,0,0,0,0,0,0,0,0,0,0,0,0,0,0,0,0,0,0,0,0,0,0,0,0,0,0,0,0,0,0,0,0,0,0,0,0,0,0,0,0,0,0,0,0,0,0,0,0,0,0,0,0,0,0,0,0,0,0],"trees":[{"base_weights":[4.1832434E-5,-1.916462E-1,3.3776504E-1,-2.5942525E-1,-1.4191435E-1,1.9056988E-1,6.104095E-1,-2.6470757E-1,-8.745881E-3,-1.6726643E-1,-1.2937456E-1,1.4099039E-1,2.3189569E-1,2.2088366E-2,2.488367E-2,-1.0841957E-2,-1.0277148E-2,-7.3822183E-3,-6.241353E-3,-1.335951E-1,-5.5650514E-2,1.16168365E-1,1.6471766E-1,2.121665E-1,2.561678E-1,-5.55163E-3,-4.8007364E-3,-3.178025E-3,-8.8863826E-4,3.8665128E-3,5.023565E-3,5.881512E-3,7.457721E-3,7.7587096E-3,8.838189E-3,9.820725E-3,1.0901158E-2],"categories":[],"categories_nodes":[],"categories_segments":[],"categories_sizes":[],"default_left":[0,0,0,0,0,0,0,0,0,0,0,0,0,0,0,0,0,0,0,0,0,0,0,0,0,0,0,0,0,0,0,0,0,0,0,0,0],"id":0,"left_children":[1,3,5,7,9,11,13,15,-1,17,19,21,23,-1,-1,-1,-1,-1,-1,25,27,29,31,33,35,-1,-1,-1,-1,-1,-1,-1,-1,-1,-1,-1,-1],"loss_changes":[1.6561705E3,5.4952637E1,3.7156018E2,1.396698E0,2.9623718E0,1.2279434E1,1.6873779E0,1.9644165E-1,0E0,5.6108093E-1,1.9451523E0,1.585228E0,1.4889221E0,0E0,0E0,0E0,0E0,0E0,0E0,3.9497375E-1,2.7131927E-1,2.2821045E-1,5.519371E-1,2.2576904E-1,1.5467072E-1,0E0,0E0,0E0,0E0,0E0,0E0,0E0,0E0,0E0,0E0,0E0,0E0],"parents":[2147483647,0,0,1,1,2,2,3,3,4,4,5,5,6,6,7,7,9,9,10,10,11,11,12,12,19,19,20,20,21,21,22,22,23,23,24,24],"right_children":[2,4,6,8,10,12,14,16,-1,18,20,22,24,-1,-1,-1,-1,-1,-1,26,28,30,32,34,36,-1,-1,-1,-1,-1,-1,-1,-1,-1,-1,-1,-1],"split_conditions":[4.711E-1,2.171E-1,5.7514226E-1,1.344E-1,3.2826668E-1,6.5853333E-1,8.7093335E-1,8.78E-2,-8.745881E-3,2.8363332E-1,3.9766666E-1,6.436E-1,6.7623335E-1,2.2088366E-2,2.488367E-2,-1.0841957E-2,-1.0277148E-2,-7.3822183E-3,-6.241353E-3,3.6676666E-1,4.1743332E-1,6.271E-1,6.543E-1,6.641333E-1,6.898E-1,-5.55163E-3,-4.8007364E-3,-3.178025E-3,-8.8863826E-4,3.8665128E-3,5.023565E-3,5.881512E-3,7.457721E-3,7.7587096E-3,8.838189E-3,9.820725E-3,1.0901158E-2],"split_indices":[4,7,14,7,7,7,7,7,0,7,7,7,7,0,0,0,0,0,0,7,7,7,0,7,7,0,0,0,0,0,0,0,0,0,0,0,0],"split_type":[0,0,0,0,0,0,0,0,0,0,0,0,0,0,0,0,0,0,0,0,0,0,0,0,0,0,0,0,0,0,0,0,0,0,0,0,0],"sum_hessian":[2.5578E4,1.6317E4,9.261E3,6.902E3,9.415E3,6.016E3,3.245E3,6.101E3,8.01E2,3.107E3,6.308E3,2.739E3,3.277E3,5.56E2,2.689E3,3.326E3,2.775E3,1.211E3,1.896E3,5.964E3,3.44E2,1.345E3,1.394E3,1.818E3,1.459E3,4.298E3,1.666E3,1.98E2,1.46E2,4.47E2,8.98E2,8.14E2,5.8E2,6.07E2,1.211E3,9.02E2,5.57E2],"tree_param":{"num_deleted":"0","num_feature":"21","num_nodes":"37","size_leaf_vector":"1"}},{"base_weights":[-1.362737E-3,-1.8285668E-1,3.2679668E-1,-2.480818E-1,-1.3425282E-1,1.8353017E-1,5.8718187E-1,-2.5364706E-1,-8.1911655E-3,-1.3797745E-1,-2.074752E-2,1.3690612E-1,2.22372E-1,2.1543795E-2,2.3936657E-2,-1.0369271E-2,-9.784134E-3,-1.647918E-1,-1.2947343E-1,-4.6907183E-2,2.8788E-3,1.1341809E-1,1.5852721E-1,1.9706362E-1,2.4143964E-1,-7.136199E-3,-6.2144827E-3,-5.394291E-3,-4.5088045E-3,-2.6853434E-3,-1.2692244E-3,3.8259043E-3,4.8434637E-3,5.698013E-3,7.185562E-3,7.368599E-3,8.375279E-3,9.188434E-3,1.0302456E-2],"categories":[],"categories_nodes":[],"categories_segments":[],"categories_sizes":[],"default_left":[0,0,0,0,0,0,0,0,0,0,0,0,0,0,0,0,0,0,0,0,0,0,0,0,0,0,0,0,0,0,0,0,0,0,0,0,0,0,0],"id":1,"left_children":[1,3,5,7,9,11,13,15,-1,17,19,21,23,-1,-1,-1,-1,25,27,29,-1,31,33,35,37,-1,-1,-1,-1,-1,-1,-1,-1,-1,-1,-1,-1,-1,-1],"loss_changes":[1.5331943E3,5.2496216E1,3.4180164E2,1.62323E0,4.0016174E0,1.066629E1,1.2880859E0,2.2073364E-1,0E0,2.0673523E0,7.643788E-1,1.340702E0,1.4836121E0,0E0,0E0,0E0,0E0,2.420845E-1,6.068573E-1,7.082844E-2,0E0,1.5856743E-1,5.008011E-1,1.6296387E-1,2.5762177E-1,0E0,0E0,0E0,0E0,0E0,0E0,0E0,0E0,0E0,0E0,0E0,0E0,0E0,0E0],"parents":[2147483647,0,0,1,1,2,2,3,3,4,4,5,5,6,6,7,7,9,9,10,10,11,11,12,12,17,17,18,18,19,19,21,21,22,22,23,23,24,24],"right_children":[2,4,6,8,10,12,14,16,-1,18,20,22,24,-1,-1,-1,-1,26,28,30,-1,32,34,36,38,-1,-1,-1,-1,-1,-1,-1,-1,-1,-1,-1,-1,-1,-1],"split_conditions":[6.049E-1,2.2453333E-1,5.7514226E-1,1.4646667E-1,4.0436667E-1,6.5853333E-1,8.735667E-1,9.2033334E-2,-8.1911655E-3,3.174E-1,6.488E-1,6.436E-1,6.7216665E-1,2.1543795E-2,2.3936657E-2,-1.0369271E-2,-9.784134E-3,2.736E-1,3.6786667E-1,4.1743332E-1,2.8788E-3,6.271E-1,6.576E-1,6.429E-1,6.859667E-1,-7.136199E-3,-6.2144827E-3,-5.394291E-3,-4.5088045E-3,-2.6853434E-3,-1.2692244E-3,3.8259043E-3,4.8434637E-3,5.698013E-3,7.185562E-3,7.368599E-3,8.375279E-3,9.188434E-3,1.0302456E-2],"split_indices":[7,7,14,7,7,7,7,7,0,7,3,7,7,0,0,0,0,7,7,7,0,7,0,0,7,0,0,0,0,0,0,0,0,0,0,0,0,0,0],"split_type":[0,0,0,0,0,0,0,0,0,0,0,0,0,0,0,0,0,0,0,0,0,0,0,0,0,0,0,0,0,0,0,0,0,0,0,0,0,0,0],"sum_hessian":[2.5738E4,1.6573E4,9.165E3,7.073E3,9.5E3,5.914E3,3.251E3,6.259E3,8.14E2,9.197E3,3.03E2,2.692E3,3.222E3,6.26E2,2.625E3,3.837E3,2.422E3,2.205E3,6.992E3,2.38E2,6.5E1,1.297E3,1.395E3,1.394E3,1.828E3,8.87E2,1.318E3,5.279E3,1.713E3,9.7E1,1.41E2,4.01E2,8.96E2,8.48E2,5.47E2,6.98E2,6.96E2,1.075E3,7.53E2],"tree_param":{"num_deleted":"0","num_feature":"21","num_nodes":"39","size_leaf_vector":"1"}},{"base_weights":[2.48038E-4,-1.7569432E-1,3.1254673E-1,-2.3838878E-1,-1.289559E-1,1.7829978E-1,5.648491E-1,-2.439321E-1,-7.971682E-3,-1.3318871E-1,-3.60513E-2,1.3699919E-1,2.220591E-1,2.1316344E-2,2.3155848E-2,-1.0037922E-2,-9.513E-3,-1.5841287E-1,-1.24875516E-1,-5.4986082E-2,2.7370483E-3,1.121525E-1,1.6040766E-1,2.1893574E-1,1.4862977E-2,-6.8035703E-3,-5.932979E-3,-5.246538E-3,-4.529827E-3,-2.8514313E-3,-1.149274E-3,4.1533797E-3,5.3108814E-3,5.876782E-3,7.1811657E-3,8.126504E-3,9.640323E-3],"categories":[],"categories_nodes":[],"categories_segments":[],"categories_sizes":[],"default_left":[0,0,0,0,0,0,0,0,0,0,0,0,0,0,0,0,0,0,0,0,0,0,0,0,0,0,0,0,0,0,0,0,0,0,0,0,0],"id":2,"left_children":[1,3,5,7,9,11,13,15,-1,17,19,21,23,-1,-1,-1,-1,25,27,29,-1,31,33,35,-1,-1,-1,-1,-1,-1,-1,-1,-1,-1,-1,-1,-1],"loss_changes":[1.4082819E3,4.798944E1,3.1267474E2,1.4404297E0,3.678711E0,1.0853455E1,9.741211E-1,1.7285156E-1,0E0,1.8559723E0,8.47653E-1,1.7802696E0,1.6202698E0,0E0,0E0,0E0,0E0,2.2365189E-1,4.720993E-1,1.4635181E-1,0E0,2.4031067E-1,4.5432663E-1,9.31427E-1,0E0,0E0,0E0,0E0,0E0,0E0,0E0,0E0,0E0,0E0,0E0,0E0,0E0],"parents":[2147483647,0,0,1,1,2,2,3,3,4,4,5,5,6,6,7,7,9,9,10,10,11,11,12,12,17,17,18,18,19,19,21,21,22,22,23,23],"right_children":[2,4,6,8,10,12,14,16,-1,18,20,22,24,-1,-1,-1,-1,26,28,30,-1,32,34,36,-1,-1,-1,-1,-1,-1,-1,-1,-1,-1,-1,-1,-1],"split_conditions":[6.049E-1,2.2453333E-1,8.4026664E-1,1.344E-1,3.9766666E-1,6.622667E-1,8.821E-1,8.393333E-2,-7.971682E-3,3.174E-1,6.488E-1,6.461E-1,9.218E-1,2.1316344E-2,2.3155848E-2,-1.0037922E-2,-9.513E-3,2.7903333E-1,3.6023334E-1,4.1743332E-1,2.7370483E-3,7.386E-1,6.69E-1,6.798667E-1,1.4862977E-2,-6.8035703E-3,-5.932979E-3,-5.246538E-3,-4.529827E-3,-2.8514313E-3,-1.149274E-3,4.1533797E-3,5.3108814E-3,5.876782E-3,7.1811657E-3,8.126504E-3,9.640323E-3],"split_indices":[7,7,7,7,7,7,7,7,0,7,3,7,3,0,0,0,0,7,7,7,0,0,0,7,0,0,0,0,0,0,0,0,0,0,0,0,0],"split_type":[0,0,0,0,0,0,0,0,0,0,0,0,0,0,0,0,0,0,0,0,0,0,0,0,0,0,0,0,0,0,0,0,0,0,0,0,0],"sum_hessian":[2.5625E4,1.6391E4,9.234E3,6.997E3,9.394E3,6.029E3,3.205E3,6.119E3,8.78E2,8.983E3,4.11E2,3.106E3,2.923E3,9.99E2,2.206E3,2.812E3,3.307E3,2.217E3,6.766E3,3.5E2,6.1E1,1.513E3,1.593E3,2.883E3,4E1,1.012E3,1.205E3,4.376E3,2.39E3,2.12E2,1.38E2,1.088E3,4.25E2,1.022E3,5.71E2,1.693E3,1.19E3],"tree_param":{"num_deleted":"0","num_feature":"21","num_nodes":"37","size_leaf_vector":"1"}},{"base_weights":[-9.27357E-4,-1.6922964E-1,2.9928252E-1,-2.2907312E-1,-1.262614E-1,1.6914213E-1,5.415699E-1,-9.343053E-3,-7.458806E-3,-1.5359862E-1,-1.1786081E-1,1.4759561E-1,2.0472406E-1,5.143396E-1,2.2191018E-2,-1.6558732E-1,-1.4181356E-1,-1.2056852E-1,-5.226234E-2,1.1930417E-1,1.6503197E-1,1.8026485E-1,2.2052422E-1,1.421424E-2,2.0632079E-2,-7.10669E-3,-6.3710297E-3,-6.1480175E-3,-5.4291883E-3,-4.9792496E-3,-4.2822165E-3,-2.4612332E-3,2.6010575E-3,4.195127E-3,5.528831E-3,5.6867227E-3,7.046393E-3,7.046393E-3,8.015782E-3,8.388715E-3,9.321773E-3],"categories":[],"categories_nodes":[],"categories_segments":[],"categories_sizes":[],"default_left":[0,0,0,0,0,0,0,0,0,0,0,0,0,0,0,0,0,0,0,0,0,0,0,0,0,0,0,0,0,0,0,0,0,0,0,0,0,0,0,0,0],"id":3,"left_children":[1,3,5,7,9,11,13,-1,-1,15,17,19,21,23,-1,25,27,29,31,33,35,37,39,-1,-1,-1,-1,-1,-1,-1,-1,-1,-1,-1,-1,-1,-1,-1,-1,-1,-1],"loss_changes":[1.2951633E3,4.2191772E1,2.901991E2,1.2471619E0,2.1712036E0,4.5503235E0,7.270508E-1,0E0,0E0,2.81353E-1,1.2854309E0,1.8140717E0,8.107681E-1,5.4870605E-2,0E0,5.862236E-2,6.7840576E-2,3.508911E-1,3.4077126E-1,3.6989594E-1,7.377968E-1,2.6312256E-1,1.109314E-1,0E0,0E0,0E0,0E0,0E0,0E0,0E0,0E0,0E0,0E0,0E0,0E0,0E0,0E0,0E0,0E0,0E0,0E0],"parents":[2147483647,0,0,1,1,2,2,3,3,4,4,5,5,6,6,9,9,10,10,11,11,12,12,13,13,15,15,16,16,17,17,18,18,19,19,20,20,21,21,22,22],"right_children":[2,4,6,8,10,12,14,-1,-1,16,18,20,22,24,-1,26,28,30,32,34,36,38,40,-1,-1,-1,-1,-1,-1,-1,-1,-1,-1,-1,-1,-1,-1,-1,-1,-1,-1],"split_conditions":[4.711E-1,3.206E-1,5.7514226E-1,1.799736E-2,1.98E-1,4.469567E-1,8.039E-1,-9.343053E-3,-7.458806E-3,4.301E-1,1.6839962E-1,5.572E-1,6.212E-1,9.145E-1,2.2191018E-2,3.09063E-2,5.065884E-2,1.350501E-1,2E0,7.841E-1,6.71E-1,4.817015E-1,4.717662E-1,1.421424E-2,2.0632079E-2,-7.10669E-3,-6.3710297E-3,-6.1480175E-3,-5.4291883E-3,-4.9792496E-3,-4.2822165E-3,-2.4612332E-3,2.6010575E-3,4.195127E-3,5.528831E-3,5.6867227E-3,7.046393E-3,7.046393E-3,8.015782E-3,8.388715E-3,9.321773E-3],"split_indices":[4,3,14,14,4,14,4,0,0,3,14,4,1,3,0,14,14,14,12,3,1,14,14,0,0,0,0,0,0,0,0,0,0,0,0,0,0,0,0,0,0],"split_type":[0,0,0,0,0,0,0,0,0,0,0,0,0,0,0,0,0,0,0,0,0,0,0,0,0,0,0,0,0,0,0,0,0,0,0,0,0,0,0,0,0],"sum_hessian":[2.5629E4,1.6423E4,9.206E3,6.86E3,9.563E3,5.991E3,3.215E3,6.196E3,6.64E2,2.239E3,7.324E3,3.738E3,2.253E3,1.072E3,2.143E3,1.096E3,1.143E3,7.031E3,2.93E2,1.432E3,2.306E3,8.94E2,1.359E3,1E1,1.062E3,3.07E2,7.89E2,3.75E2,7.68E2,5.437E3,1.594E3,2.73E2,2E1,8.21E2,6.11E2,8.6E2,1.446E3,5.58E2,3.36E2,7.48E2,6.11E2],"tree_param":{"num_deleted":"0","num_feature":"21","num_nodes":"41","size_leaf_vector":"1"}},{"base_weights":[-5.6301273E-5,-1.6207165E-1,2.8794745E-1,-2.2035727E-1,-1.1945426E-1,1.6282374E-1,5.195859E-1,-2.2511655E-1,-7.5370637E-3,-1.2272075E-1,-1.7060433E-2,1.2054987E-1,1.9763452E-1,1.8161995E-2,5.2661794E-1,-9.278625E-3,-8.793175E-3,-1.4520039E-1,-1.13776974E-1,-4.0119965E-2,2.1327308E-3,9.886493E-2,1.400236E-1,1.748992E-1,2.1445201E-1,2.0488594E-2,2.166784E-2,-6.3653635E-3,-5.450843E-3,-4.7027264E-3,-3.790728E-3,-2.2541648E-3,-1.0139708E-3,3.5491176E-3,4.449279E-3,5.0194357E-3,6.3636876E-3,6.584457E-3,7.626936E-3,8.15766E-3,9.172345E-3],"categories":[],"categories_nodes":[],"categories_segments":[],"categories_sizes":[],"default_left":[0,0,0,0,0,0,0,0,0,0,0,0,0,0,0,0,0,0,0,0,0,0,0,0,0,0,0,0,0,0,0,0,0,0,0,0,0,0,0,0,0],"id":4,"left_children":[1,3,5,7,9,11,13,15,-1,17,19,21,23,-1,25,-1,-1,27,29,31,-1,33,35,37,39,-1,-1,-1,-1,-1,-1,-1,-1,-1,-1,-1,-1,-1,-1,-1,-1],"loss_changes":[1.1950194E3,4.067328E1,2.6709686E2,9.85199E-1,3.1548615E0,8.776123E0,1.1251221E0,1.4138794E-1,0E0,1.8217316E0,4.967314E-1,1.1232033E0,1.1974487E0,0E0,2.1557617E-1,0E0,0E0,2.91893E-1,4.5563507E-1,5.1836252E-2,0E0,1.470766E-1,4.34412E-1,1.8155289E-1,2.2329712E-1,0E0,0E0,0E0,0E0,0E0,0E0,0E0,0E0,0E0,0E0,0E0,0E0,0E0,0E0,0E0,0E0],"parents":[2147483647,0,0,1,1,2,2,3,3,4,4,5,5,6,6,7,7,9,9,10,10,11,11,12,12,14,14,17,17,18,18,19,19,21,21,22,22,23,23,24,24],"right_children":[2,4,6,8,10,12,14,16,-1,18,20,22,24,-1,26,-1,-1,28,30,32,-1,34,36,38,40,-1,-1,-1,-1,-1,-1,-1,-1,-1,-1,-1,-1,-1,-1,-1,-1],"split_conditions":[6.049E-1,2.171E-1,5.7514226E-1,1.271E-1,4.0436667E-1,6.5853333E-1,8.6466664E-1,8.2266666E-2,-7.5370637E-3,3.2186666E-1,2.496266E-1,6.436E-1,6.7216665E-1,1.8161995E-2,8.9673334E-1,-9.278625E-3,-8.793175E-3,2.736E-1,3.7463334E-1,4.1743332E-1,2.1327308E-3,6.504E-1,1E0,6.649E-1,6.859667E-1,2.0488594E-2,2.166784E-2,-6.3653635E-3,-5.450843E-3,-4.7027264E-3,-3.790728E-3,-2.2541648E-3,-1.0139708E-3,3.5491176E-3,4.449279E-3,5.0194357E-3,6.3636876E-3,6.584457E-3,7.626936E-3,8.15766E-3,9.172345E-3],"split_indices":[7,7,14,7,7,7,7,7,0,7,14,7,7,0,7,0,0,7,7,7,0,0,9,0,7,0,0,0,0,0,0,0,0,0,0,0,0,0,0,0,0],"split_type":[0,0,0,0,0,0,0,0,0,0,0,0,0,0,0,0,0,0,0,0,0,0,0,0,0,0,0,0,0,0,0,0,0,0,0,0,0,0,0,0,0],"sum_hessian":[2.5606E4,1.6388E4,9.218E3,6.918E3,9.47E3,5.987E3,3.231E3,6.01E3,9.08E2,9.176E3,2.94E2,2.708E3,3.279E3,3.24E2,2.907E3,2.582E3,3.428E3,2.602E3,6.574E3,2.23E2,7.1E1,1.288E3,1.42E3,1.404E3,1.875E3,1.517E3,1.39E3,1.002E3,1.6E3,5.47E3,1.104E3,1.01E2,1.22E2,7.19E2,5.69E2,8.77E2,5.43E2,8.64E2,5.4E2,1.115E3,7.6E2],"tree_param":{"num_deleted":"0","num_feature":"21","num_nodes":"41","size_leaf_vector":"1"}},{"base_weights":[-3.2151007E-4,-1.564351E-1,2.7459025E-1,-2.1145985E-1,-1.1651154E-1,1.55122E-1,4.9842378E-1,-8.620948E-3,-6.8927947E-3,-1.394117E-1,-1.0804518E-1,1.2848194E-1,1.7947176E-1,4.644821E-1,2.0332145E-2,-6.183884E-3,-1.313129E-1,-1.1041841E-1,-4.8182495E-2,1.125389E-1,1.5308172E-1,1.6033955E-1,1.9741243E-1,1.3070916E-2,1.8653449E-2,-5.68876E-3,-4.9517597E-3,-4.5587053E-3,-3.920872E-3,-2.9676645E-3,-5.095383E-4,3.58096E-3,4.9241995E-3,5.358807E-3,6.159074E-3,6.159074E-3,7.1550393E-3,7.512157E-3,8.498191E-3],"categories":[],"categories_nodes":[],"categories_segments":[],"categories_sizes":[],"default_left":[0,0,0,0,0,0,0,0,0,0,0,0,0,0,0,0,0,0,0,0,0,0,0,0,0,0,0,0,0,0,0,0,0,0,0,0,0,0,0],"id":5,"left_children":[1,3,5,7,9,11,13,-1,-1,15,17,19,21,23,-1,-1,25,27,29,31,33,35,37,-1,-1,-1,-1,-1,-1,-1,-1,-1,-1,-1,-1,-1,-1,-1,-1],"loss_changes":[1.1041691E3,3.6010437E1,2.4905371E2,1.0377808E0,1.8233337E0,3.9075623E0,7.304077E-1,0E0,0E0,2.85038E-1,9.7439575E-1,1.1161232E0,1.0402908E0,5.0720215E-2,0E0,0E0,1.1197662E-1,2.7661896E-1,2.460823E-1,4.1349983E-1,2.0046043E-1,4.4992828E-1,1.7578125E-1,0E0,0E0,0E0,0E0,0E0,0E0,0E0,0E0,0E0,0E0,0E0,0E0,0E0,0E0,0E0,0E0],"parents":[2147483647,0,0,1,1,2,2,3,3,4,4,5,5,6,6,9,9,10,10,11,11,12,12,13,13,16,16,17,17,18,18,19,19,20,20,21,21,22,22],"right_children":[2,4,6,8,10,12,14,-1,-1,16,18,20,22,24,-1,-1,26,28,30,32,34,36,38,-1,-1,-1,-1,-1,-1,-1,-1,-1,-1,-1,-1,-1,-1,-1,-1],"split_conditions":[4.711E-1,3.206E-1,5.7514226E-1,1.799736E-2,2.102E-1,5.809E-1,7.897E-1,-8.620948E-3,-6.8927947E-3,4.760264E-2,1.6839962E-1,4.2852643E-1,4.469567E-1,9.145E-1,2.0332145E-2,-6.183884E-3,4.319E-1,1.3612305E-1,3.614E-1,6.185E-1,5.978E-1,7.775E-1,4.788126E-1,1.3070916E-2,1.8653449E-2,-5.68876E-3,-4.9517597E-3,-4.5587053E-3,-3.920872E-3,-2.9676645E-3,-5.095383E-4,3.58096E-3,4.9241995E-3,5.358807E-3,6.159074E-3,6.159074E-3,7.1550393E-3,7.512157E-3,8.498191E-3],"split_indices":[4,3,14,14,4,4,4,0,0,14,14,14,14,3,0,0,3,14,1,1,1,3,14,0,0,0,0,0,0,0,0,0,0,0,0,0,0,0,0],"split_type":[0,0,0,0,0,0,0,0,0,0,0,0,0,0,0,0,0,0,0,0,0,0,0,0,0,0,0,0,0,0,0,0,0,0,0,0,0,0,0],"sum_hessian":[2.5723E4,1.6407E4,9.316E3,6.895E3,9.512E3,6.076E3,3.24E3,6.238E3,6.57E2,2.558E3,6.954E3,2.908E3,3.168E3,7.49E2,2.491E3,8.76E2,1.682E3,6.686E3,2.68E2,1.772E3,1.136E3,1.543E3,1.625E3,9E0,7.4E2,6.7E2,1.012E3,5.182E3,1.504E3,1.52E2,1.16E2,5.65E2,1.207E3,6E2,5.36E2,1.161E3,3.82E2,1.008E3,6.17E2],"tree_param":{"num_deleted":"0","num_feature":"21","num_nodes":"39","size_leaf_vector":"1"}},{"base_weights":[2.92051E-4,-1.4948003E-1,2.6640755E-1,-2.017641E-1,-1.0898722E-1,1.5031141E-1,4.788786E-1,-2.0700179E-1,-6.6533387E-3,-1.1263917E-1,-2.8538724E-2,1.1074859E-1,1.8296823E-1,1.7302884E-2,4.8742795E-1,-8.46474E-3,-7.937158E-3,-1.2855452E-1,-1.0367022E-1,-1.9365689E-3,3.091423E-2,9.097594E-2,1.2881935E-1,1.614164E-1,1.9873397E-1,1.8983407E-2,2.0031026E-2,-5.667188E-3,-4.8584477E-3,-4.3017804E-3,-3.6706117E-3,-0E0,2.3104341E-3,3.3497598E-3,4.348027E-3,4.6016173E-3,5.874336E-3,5.874336E-3,6.8304935E-3,7.674774E-3,8.761712E-3],"categories":[],"categories_nodes":[],"categories_segments":[],"categories_sizes":[],"default_left":[0,0,0,0,0,0,0,0,0,0,0,0,0,0,0,0,0,0,0,0,0,0,0,0,0,0,0,0,0,0,0,0,0,0,0,0,0,0,0,0,0],"id":6,"left_children":[1,3,5,7,9,11,13,15,-1,17,19,21,23,-1,25,-1,-1,27,29,-1,31,33,35,37,39,-1,-1,-1,-1,-1,-1,-1,-1,-1,-1,-1,-1,-1,-1,-1,-1],"loss_changes":[1.0160014E3,3.4497528E1,2.2633295E2,1.2657776E0,2.6890793E0,7.6414185E0,9.637451E-1,1.8164062E-1,0E0,1.2360687E0,4.8977E-1,9.4358826E-1,1.0554199E0,0E0,1.1047363E-1,0E0,0E0,2.6893997E-1,2.443695E-1,0E0,8.781545E-2,1.530714E-1,3.8367653E-1,1.9370651E-1,1.9865417E-1,0E0,0E0,0E0,0E0,0E0,0E0,0E0,0E0,0E0,0E0,0E0,0E0,0E0,0E0,0E0,0E0],"parents":[2147483647,0,0,1,1,2,2,3,3,4,4,5,5,6,6,7,7,9,9,10,10,11,11,12,12,14,14,17,17,18,18,20,20,21,21,22,22,23,23,24,24],"right_children":[2,4,6,8,10,12,14,16,-1,18,20,22,24,-1,26,-1,-1,28,30,-1,32,34,36,38,40,-1,-1,-1,-1,-1,-1,-1,-1,-1,-1,-1,-1,-1,-1,-1,-1],"split_conditions":[6.049E-1,2.307E-1,5.7514226E-1,1.4646667E-1,3.9766666E-1,6.5853333E-1,8.7093335E-1,9.37E-2,-6.6533387E-3,3.3173335E-1,4.4863334E-1,6.436E-1,6.7216665E-1,1.7302884E-2,8.986667E-1,-8.46474E-3,-7.937158E-3,2.8836668E-1,3.6996666E-1,-1.9365689E-3,3.078586E-1,7.386E-1,6.612E-1,6.106E-1,6.923E-1,1.8983407E-2,2.0031026E-2,-5.667188E-3,-4.8584477E-3,-4.3017804E-3,-3.6706117E-3,-0E0,2.3104341E-3,3.3497598E-3,4.348027E-3,4.6016173E-3,5.874336E-3,5.874336E-3,6.8304935E-3,7.674774E-3,8.761712E-3],"split_indices":[7,7,14,7,7,7,7,7,0,7,7,7,7,0,7,0,0,7,7,0,14,0,0,0,7,0,0,0,0,0,0,0,0,0,0,0,0,0,0,0,0],"split_type":[0,0,0,0,0,0,0,0,0,0,0,0,0,0,0,0,0,0,0,0,0,0,0,0,0,0,0,0,0,0,0,0,0,0,0,0,0,0,0,0,0],"sum_hessian":[2.5486E4,1.6308E4,9.178E3,7.114E3,9.194E3,5.937E3,3.241E3,6.189E3,9.25E2,8.793E3,4.01E2,2.689E3,3.248E3,5.19E2,2.722E3,3.992E3,2.197E3,3.158E3,5.635E3,3.02E2,9.9E1,1.291E3,1.398E3,1.382E3,1.866E3,1.419E3,1.303E3,1.093E3,2.065E3,4.236E3,1.399E3,4.7E1,5.2E1,9.27E2,3.64E2,8.62E2,5.36E2,4.78E2,9.04E2,1.41E3,4.56E2],"tree_param":{"num_deleted":"0","num_feature":"21","num_nodes":"41","size_leaf_vector":"1"}},{"base_weights":[2.9811423E-4,-1.4368752E-1,2.539764E-1,-1.9465952E-1,-1.07127376E-1,1.434316E-1,4.5979765E-1,-1.9815251E-1,-6.192719E-3,-1.3339676E-1,-1.0046232E-1,1.1251001E-1,1.6205032E-1,1.7159155E-2,1.8747091E-2,-8.006933E-3,-7.4844025E-3,-5.694079E-3,-4.8893904E-3,-1.031841E-1,-4.9084928E-2,9.4265476E-2,1.3103497E-1,1.438062E-1,1.8048225E-1,-4.4061616E-3,-3.883443E-3,-2.2690627E-3,2.2057777E-3,3.3751668E-3,4.5060087E-3,4.5060087E-3,5.4912064E-3,5.4912064E-3,6.485769E-3,6.818197E-3,7.7557187E-3],"categories":[],"categories_nodes":[],"categories_segments":[],"categories_sizes":[],"default_left":[0,0,0,0,0,0,0,0,0,0,0,0,0,0,0,0,0,0,0,0,0,0,0,0,0,0,0,0,0,0,0,0,0,0,0,0,0],"id":7,"left_children":[1,3,5,7,9,11,13,15,-1,17,19,21,23,-1,-1,-1,-1,-1,-1,25,27,29,31,33,35,-1,-1,-1,-1,-1,-1,-1,-1,-1,-1,-1,-1],"loss_changes":[9.364718E2,3.044571E1,2.1111029E2,9.005127E-1,1.6499863E0,3.4496384E0,5.836792E-1,8.280945E-2,0E0,1.6565323E-1,1.0515137E0,7.512531E-1,1.2273102E0,0E0,0E0,0E0,0E0,0E0,0E0,2.9102325E-1,3.4902173E-1,2.274313E-1,2.6186943E-1,4.6328735E-1,2.0150375E-1,0E0,0E0,0E0,0E0,0E0,0E0,0E0,0E0,0E0,0E0,0E0,0E0],"parents":[2147483647,0,0,1,1,2,2,3,3,4,4,5,5,6,6,7,7,9,9,10,10,11,11,12,12,19,19,20,20,21,21,22,22,23,23,24,24],"right_children":[2,4,6,8,10,12,14,16,-1,18,20,22,24,-1,-1,-1,-1,-1,-1,26,28,30,32,34,36,-1,-1,-1,-1,-1,-1,-1,-1,-1,-1,-1,-1],"split_conditions":[6.488E-1,3.206E-1,5.7514226E-1,2.184012E-2,1.83E-1,5.679E-1,7.897E-1,9.47415E-3,-6.192719E-3,4.338E-1,1.638704E-1,7.841E-1,4.469567E-1,1.7159155E-2,1.8747091E-2,-8.006933E-3,-7.4844025E-3,-5.694079E-3,-4.8893904E-3,2.672E-1,4.956E-1,7.447E-1,5.501E-1,7.841E-1,4.763429E-1,-4.4061616E-3,-3.883443E-3,-2.2690627E-3,2.2057777E-3,3.3751668E-3,4.5060087E-3,4.5060087E-3,5.4912064E-3,5.4912064E-3,6.485769E-3,6.818197E-3,7.7557187E-3],"split_indices":[3,3,14,14,4,4,4,14,0,3,14,3,14,0,0,0,0,0,0,4,4,0,0,3,14,0,0,0,0,0,0,0,0,0,0,0,0],"split_type":[0,0,0,0,0,0,0,0,0,0,0,0,0,0,0,0,0,0,0,0,0,0,0,0,0,0,0,0,0,0,0,0,0,0,0,0,0],"sum_hessian":[2.5633E4,1.6352E4,9.281E3,6.826E3,9.526E3,6.04E3,3.241E3,6.268E3,5.58E2,1.919E3,7.607E3,2.276E3,3.764E3,7.44E2,2.497E3,5.269E3,9.99E2,1.05E3,8.69E2,7.221E3,3.86E2,1.154E3,1.122E3,1.901E3,1.863E3,3.35E3,3.871E3,3.63E2,2.3E1,7.98E2,3.56E2,3.69E2,7.53E2,1.464E3,4.37E2,1.082E3,7.81E2],"tree_param":{"num_deleted":"0","num_feature":"21","num_nodes":"37","size_leaf_vector":"1"}},{"base_weights":[-2.681566E-4,-1.374456E-1,2.4533132E-1,-1.8613131E-1,-1.0018433E-1,1.4013246E-1,4.4280142E-1,-1.908244E-1,-6.134349E-3,-1.0413584E-1,-3.223951E-2,1.0385279E-1,1.736531E-1,1.6661264E-2,1.8175282E-2,-7.8431405E-3,-7.3560053E-3,-1.2021064E-1,-9.668228E-2,-4.908368E-2,3.2200787E-2,8.53536E-2,1.2340153E-1,1.5872113E-1,1.9668557E-1,-5.2329516E-3,-4.5255143E-3,-4.094462E-3,-3.5931957E-3,-2.272312E-3,-1.0463893E-3,-0E0,2.097598E-3,3.1183984E-3,4.169652E-3,4.497348E-3,5.550117E-3,5.864753E-3,6.754068E-3,7.670524E-3,1.1658678E-2],"categories":[],"categories_nodes":[],"categories_segments":[],"categories_sizes":[],"default_left":[0,0,0,0,0,0,0,0,0,0,0,0,0,0,0,0,0,0,0,0,0,0,0,0,0,0,0,0,0,0,0,0,0,0,0,0,0,0,0,0,0],"id":8,"left_children":[1,3,5,7,9,11,13,15,-1,17,19,21,23,-1,-1,-1,-1,25,27,29,31,33,35,37,39,-1,-1,-1,-1,-1,-1,-1,-1,-1,-1,-1,-1,-1,-1,-1,-1],"loss_changes":[8.630532E2,2.9788727E1,1.9060767E2,1.0487518E0,2.489357E0,7.259056E0,6.849365E-1,1.7208862E-1,0E0,1.0378647E0,5.734142E-1,1.0267239E0,1.023735E0,0E0,0E0,0E0,0E0,1.8664551E-1,2.2053528E-1,6.893712E-2,7.649054E-2,1.9682693E-1,2.6521873E-1,1.9530869E-1,6.565361E-1,0E0,0E0,0E0,0E0,0E0,0E0,0E0,0E0,0E0,0E0,0E0,0E0,0E0,0E0,0E0,0E0],"parents":[2147483647,0,0,1,1,2,2,3,3,4,4,5,5,6,6,7,7,9,9,10,10,11,11,12,12,17,17,18,18,19,19,20,20,21,21,22,22,23,23,24,24],"right_children":[2,4,6,8,10,12,14,16,-1,18,20,22,24,-1,-1,-1,-1,26,28,30,32,34,36,38,40,-1,-1,-1,-1,-1,-1,-1,-1,-1,-1,-1,-1,-1,-1,-1,-1],"split_conditions":[6.049E-1,2.307E-1,8.4026664E-1,1.4646667E-1,3.928E-1,6.604667E-1,8.821E-1,8.946667E-2,-6.134349E-3,3.2713333E-1,4.4863334E-1,6.461E-1,6.798667E-1,1.6661264E-2,1.8175282E-2,-7.8431405E-3,-7.3560053E-3,2.8836668E-1,3.57E-1,4.1743332E-1,6.488E-1,7.386E-1,6.69E-1,6.429E-1,9.061E-1,-5.2329516E-3,-4.5255143E-3,-4.094462E-3,-3.5931957E-3,-2.272312E-3,-1.0463893E-3,-0E0,2.097598E-3,3.1183984E-3,4.169652E-3,4.497348E-3,5.550117E-3,5.864753E-3,6.754068E-3,7.670524E-3,1.1658678E-2],"split_indices":[7,7,7,7,7,7,7,7,0,7,7,7,7,0,0,0,0,7,7,7,3,0,0,0,3,0,0,0,0,0,0,0,0,0,0,0,0,0,0,0,0],"split_type":[0,0,0,0,0,0,0,0,0,0,0,0,0,0,0,0,0,0,0,0,0,0,0,0,0,0,0,0,0,0,0,0,0,0,0,0,0,0,0,0,0],"sum_hessian":[2.5612E4,1.6434E4,9.178E3,7.121E3,9.313E3,5.99E3,3.188E3,6.22E3,9.01E2,8.799E3,5.14E2,2.881E3,3.109E3,9.95E2,2.193E3,3.505E3,2.715E3,2.776E3,6.023E3,4.09E2,1.05E2,1.487E3,1.394E3,1.896E3,1.213E3,1.094E3,1.682E3,3.274E3,2.749E3,3.01E2,1.08E2,4E1,6.5E1,1.078E3,4.09E2,9.01E2,4.93E2,8.79E2,1.017E3,1.175E3,3.8E1],"tree_param":{"num_deleted":"0","num_feature":"21","num_nodes":"41","size_leaf_vector":"1"}},{"base_weights":[-8.4582134E-4,-1.3220376E-1,2.3445573E-1,-1.7989972E-1,-9.738781E-2,1.328781E-1,4.233801E-1,-1.84014E-1,-6.2015615E-3,-1.009664E-1,-3.282889E-2,1.03628054E-1,1.6903313E-1,1.470939E-2,4.298876E-1,-7.656815E-3,-7.2054532E-3,-1.221394E-1,-9.4826624E-2,-4.4489548E-2,2.009826E-3,8.250342E-2,1.2136363E-1,1.5876907E-1,7.452247E-3,1.6778652E-2,1.7841665E-2,-5.2848235E-3,-4.609203E-3,-4.049039E-3,-3.4999703E-3,-2.2280833E-3,-7.7363773E-4,2.858556E-3,3.8206626E-3,4.1781315E-3,5.3599877E-3,5.7686255E-3,6.548293E-3],"categories":[],"categories_nodes":[],"categories_segments":[],"categories_sizes":[],"default_left":[0,0,0,0,0,0,0,0,0,0,0,0,0,0,0,0,0,0,0,0,0,0,0,0,0,0,0,0,0,0,0,0,0,0,0,0,0,0,0],"id":9,"left_children":[1,3,5,7,9,11,13,15,-1,17,19,21,23,-1,25,-1,-1,27,29,31,-1,33,35,37,-1,-1,-1,-1,-1,-1,-1,-1,-1,-1,-1,-1,-1,-1,-1],"loss_changes":[7.910174E2,2.724582E1,1.7585315E2,6.6362E-1,2.183136E0,6.282089E0,9.18396E-1,1.1895752E-1,0E0,1.1536484E0,5.0193256E-1,1.2219429E0,4.285431E-1,0E0,2.0117188E-1,0E0,0E0,1.16327286E-1,3.1412506E-1,1.2176633E-1,0E0,2.0753098E-1,3.609619E-1,8.4682465E-2,0E0,0E0,0E0,0E0,0E0,0E0,0E0,0E0,0E0,0E0,0E0,0E0,0E0,0E0,0E0],"parents":[2147483647,0,0,1,1,2,2,3,3,4,4,5,5,6,6,7,7,9,9,10,10,11,11,12,12,14,14,17,17,18,18,19,19,21,21,22,22,23,23],"right_children":[2,4,6,8,10,12,14,16,-1,18,20,22,24,-1,26,-1,-1,28,30,32,-1,34,36,38,-1,-1,-1,-1,-1,-1,-1,-1,-1,-1,-1,-1,-1,-1,-1],"split_conditions":[6.049E-1,2.171E-1,5.7514226E-1,1.2213334E-1,3.928E-1,6.641333E-1,8.6466664E-1,7.76E-2,-6.2015615E-3,3.1086665E-1,6.488E-1,6.461E-1,6.827667E-1,1.470939E-2,9.02E-1,-7.656815E-3,-7.2054532E-3,2.6353332E-1,3.5243332E-1,4.1743332E-1,2.009826E-3,6.504E-1,6.177E-1,5.992E-1,7.452247E-3,1.6778652E-2,1.7841665E-2,-5.2848235E-3,-4.609203E-3,-4.049039E-3,-3.4999703E-3,-2.2280833E-3,-7.7363773E-4,2.858556E-3,3.8206626E-3,4.1781315E-3,5.3599877E-3,5.7686255E-3,6.548293E-3],"split_indices":[7,7,14,7,7,7,7,7,0,7,3,7,7,0,7,0,0,7,7,7,0,0,0,0,0,0,0,0,0,0,0,0,0,0,0,0,0,0,0],"split_type":[0,0,0,0,0,0,0,0,0,0,0,0,0,0,0,0,0,0,0,0,0,0,0,0,0,0,0,0,0,0,0,0,0,0,0,0,0,0,0],"sum_hessian":[2.5587E4,1.6421E4,9.166E3,6.925E3,9.496E3,5.963E3,3.203E3,5.93E3,9.95E2,8.995E3,5.01E2,3.301E3,2.662E3,3.46E2,2.857E3,2.004E3,3.926E3,2.012E3,6.983E3,4.41E2,6E1,1.513E3,1.788E3,1.683E3,9.79E2,1.765E3,1.092E3,8.06E2,1.206E3,3.71E3,3.273E3,3.01E2,1.4E2,8.28E2,6.85E2,7.74E2,1.014E3,4.43E2,1.24E3],"tree_param":{"num_deleted":"0","num_feature":"21","num_nodes":"39","size_leaf_vector":"1"}},{"base_weights":[-2.1195561E-5,-1.2681484E-1,2.2504544E-1,-1.7328049E-1,-9.3885176E-2,1.285124E-1,4.0824562E-1,-1.7737362E-1,-1.5410537E-1,-9.732101E-2,-3.229289E-2,9.861725E-2,1.6345611E-1,3.8859612E-1,1.6853776E-2,-7.3757386E-3,-6.955603E-3,-6.409087E-3,-5.6282836E-3,-1.186304E-1,-9.125967E-2,-4.7071245E-2,2.7410356E-2,7.9773396E-2,1.1764635E-1,1.6015239E-1,2.5154436E-1,1.4144175E-2,1.5783437E-2,-5.13917E-3,-4.4737966E-3,-3.924453E-3,-3.3947357E-3,-2.1702908E-3,-9.744769E-4,-0E0,1.9135934E-3,2.811177E-3,3.656232E-3,4.270944E-3,5.241467E-3,5.9877825E-3,6.9810995E-3,8.233935E-3,1.073516E-2],"categories":[],"categories_nodes":[],"categories_segments":[],"categories_sizes":[],"default_left":[0,0,0,0,0,0,0,0,0,0,0,0,0,0,0,0,0,0,0,0,0,0,0,0,0,0,0,0,0,0,0,0,0,0,0,0,0,0,0,0,0,0,0,0,0],"id":10,"left_children":[1,3,5,7,9,11,13,15,17,19,21,23,25,27,-1,-1,-1,-1,-1,29,31,33,35,37,39,41,43,-1,-1,-1,-1,-1,-1,-1,-1,-1,-1,-1,-1,-1,-1,-1,-1,-1,-1],"loss_changes":[7.278972E2,2.4939728E1,1.624627E2,4.8831177E-1,2.0109787E0,6.266655E0,5.698242E-1,8.822632E-2,6.433296E-2,1.1536331E0,4.6099675E-1,1.1515121E0,7.548981E-1,5.8303833E-2,0E0,0E0,0E0,0E0,0E0,1.1204147E-1,2.9639053E-1,6.329113E-2,6.475214E-2,1.7174816E-1,2.8801155E-1,3.6371613E-1,7.930851E-2,0E0,0E0,0E0,0E0,0E0,0E0,0E0,0E0,0E0,0E0,0E0,0E0,0E0,0E0,0E0,0E0,0E0,0E0],"parents":[2147483647,0,0,1,1,2,2,3,3,4,4,5,5,6,6,7,7,8,8,9,9,10,10,11,11,12,12,13,13,19,19,20,20,21,21,22,22,23,23,24,24,25,25,26,26],"right_children":[2,4,6,8,10,12,14,16,18,20,22,24,26,28,-1,-1,-1,-1,-1,30,32,34,36,38,40,42,44,-1,-1,-1,-1,-1,-1,-1,-1,-1,-1,-1,-1,-1,-1,-1,-1,-1,-1],"split_conditions":[6.049E-1,2.102E-1,8.4026664E-1,1.135E-1,3.928E-1,6.6326666E-1,8.879E-1,7.5833336E-2,1.7556667E-1,3.086E-1,4.4863334E-1,6.474E-1,7.113E-1,8.604E-1,1.6853776E-2,-7.3757386E-3,-6.955603E-3,-6.409087E-3,-5.6282836E-3,2.577E-1,3.4896666E-1,4.1743332E-1,6.488E-1,1E0,1E0,6.798667E-1,8.854E-1,1.4144175E-2,1.5783437E-2,-5.13917E-3,-4.4737966E-3,-3.924453E-3,-3.3947357E-3,-2.1702908E-3,-9.744769E-4,-0E0,1.9135934E-3,2.811177E-3,3.656232E-3,4.270944E-3,5.241467E-3,5.9877825E-3,6.9810995E-3,8.233935E-3,1.073516E-2],"split_indices":[7,7,7,7,7,7,7,7,7,7,7,7,7,7,0,0,0,0,0,7,7,7,3,9,9,7,3,0,0,0,0,0,0,0,0,0,0,0,0,0,0,0,0,0,0],"split_type":[0,0,0,0,0,0,0,0,0,0,0,0,0,0,0,0,0,0,0,0,0,0,0,0,0,0,0,0,0,0,0,0,0,0,0,0,0,0,0,0,0,0,0,0,0],"sum_hessian":[2.5502E4,1.6313E4,9.189E3,6.762E3,9.551E3,6.02E3,3.169E3,5.558E3,1.204E3,9.044E3,5.07E2,3.249E3,2.771E3,1.289E3,1.88E3,1.808E3,3.75E3,8.1E2,3.94E2,1.993E3,7.051E3,4.08E2,9.9E1,1.639E3,1.61E3,2.676E3,9.5E1,2.04E2,1.085E3,7.96E2,1.197E3,3.385E3,3.666E3,3.05E2,1.03E2,4.1E1,5.8E1,9.13E2,7.26E2,1.026E3,5.84E2,1.563E3,1.113E3,4.9E1,4.6E1],"tree_param":{"num_deleted":"0","num_feature":"21","num_nodes":"45","size_leaf_vector":"1"}},{"base_weights":[3.3488264E-4,-1.2215841E-1,2.1592616E-1,-1.6607046E-1,-9.13279E-2,1.21870495E-1,3.9048627E-1,-6.745031E-3,-5.396287E-3,-1.1316864E-1,-8.562917E-2,1.06827125E-1,1.4854239E-1,1.5796639E-2,1.3948958E-2,-4.874816E-3,-4.130627E-3,-8.917346E-2,-6.25331E-2,8.171938E-2,1.18056946E-1,1.3291287E-1,1.6201095E-1,-3.9471067E-3,-3.420081E-3,-2.834111E-3,-4.6872377E-4,2.5358554E-3,3.7318151E-3,3.995526E-3,5.10739E-3,5.10739E-3,5.8984766E-3,6.1078602E-3,6.8167937E-3],"categories":[],"categories_nodes":[],"categories_segments":[],"categories_sizes":[],"default_left":[0,0,0,0,0,0,0,0,0,0,0,0,0,0,0,0,0,0,0,0,0,0,0,0,0,0,0,0,0,0,0,0,0,0,0],"id":11,"left_children":[1,3,5,7,9,11,13,-1,-1,15,17,19,21,-1,-1,-1,-1,23,25,27,29,31,33,-1,-1,-1,-1,-1,-1,-1,-1,-1,-1,-1,-1],"loss_changes":[6.7212E2,2.194783E1,1.5132217E2,4.9578857E-1,1.1742783E0,2.382553E0,3.868103E-1,0E0,0E0,1.5037537E-1,6.097183E-1,1.0669861E0,4.2124176E-1,0E0,0E0,0E0,0E0,2.1682358E-1,4.2424536E-1,2.4381542E-1,8.351784E-1,1.9107437E-1,5.075264E-2,0E0,0E0,0E0,0E0,0E0,0E0,0E0,0E0,0E0,0E0,0E0,0E0],"parents":[2147483647,0,0,1,1,2,2,3,3,4,4,5,5,6,6,9,9,10,10,11,11,12,12,17,17,18,18,19,19,20,20,21,21,22,22],"right_children":[2,4,6,8,10,12,14,-1,-1,16,18,20,22,-1,-1,-1,-1,24,26,28,30,32,34,-1,-1,-1,-1,-1,-1,-1,-1,-1,-1,-1,-1],"split_conditions":[6.488E-1,3.115E-1,5.7514226E-1,1.9782E-2,7.440519E-2,4.4854897E-1,9.707904E-2,-6.745031E-3,-5.396287E-3,3.998E-1,1.491048E-1,6.29E-1,6.29E-1,1.5796639E-2,1.3948958E-2,-4.874816E-3,-4.130627E-3,2.938E-1,3.998E-1,4.14736E-1,3.573869E-1,4.84823E-1,4.69459E-1,-3.9471067E-3,-3.420081E-3,-2.834111E-3,-4.6872377E-4,2.5358554E-3,3.7318151E-3,3.995526E-3,5.10739E-3,5.10739E-3,5.8984766E-3,6.1078602E-3,6.8167937E-3],"split_indices":[3,3,14,14,14,14,5,0,0,1,14,1,1,0,0,0,0,1,1,14,14,14,14,0,0,0,0,0,0,0,0,0,0,0,0],"split_type":[0,0,0,0,0,0,0,0,0,0,0,0,0,0,0,0,0,0,0,0,0,0,0,0,0,0,0,0,0,0,0,0,0,0,0],"sum_hessian":[2.5445E4,1.6226E4,9.219E3,6.689E3,9.537E3,5.993E3,3.226E3,6.173E3,5.16E2,1.964E3,7.573E3,3.839E3,2.154E3,2.903E3,3.23E2,1.031E3,9.33E2,6.558E3,1.015E3,1.193E3,2.646E3,1.008E3,1.146E3,1.809E3,4.749E3,8.7E2,1.45E2,4.69E2,7.24E2,6.73E2,1.973E3,6.69E2,3.39E2,5.63E2,5.83E2],"tree_param":{"num_deleted":"0","num_feature":"21","num_nodes":"35","size_leaf_vector":"1"}},{"base_weights":[-5.52484E-5,-1.1714081E-1,2.0817137E-1,-1.5766478E-1,-8.506803E-2,1.1866338E-1,3.759907E-1,-1.6183089E-1,-5.10864E-3,-8.916203E-2,-4.1125476E-2,8.5333735E-2,1.4585641E-1,3.5818005E-1,1.5585993E-2,-6.630547E-3,-6.1524743E-3,-1.0071406E-1,-8.259413E-2,-5.0356455E-2,1.0445644E-3,6.44206E-2,9.7712606E-2,1.33387E-1,1.6751231E-1,1.2827986E-2,1.4557989E-2,-4.3805456E-3,-3.8123233E-3,-3.4776994E-3,-3.1260916E-3,-2.3405605E-3,-1.2153785E-3,2.2720909E-3,2.8923242E-3,3.3673893E-3,4.623803E-3,4.948834E-3,5.749822E-3,6.476888E-3,8.986464E-3],"categories":[],"categories_nodes":[],"categories_segments":[],"categories_sizes":[],"default_left":[0,0,0,0,0,0,0,0,0,0,0,0,0,0,0,0,0,0,0,0,0,0,0,0,0,0,0,0,0,0,0,0,0,0,0,0,0,0,0,0,0],"id":12,"left_children":[1,3,5,7,9,11,13,15,-1,17,19,21,23,25,-1,-1,-1,27,29,31,-1,33,35,37,39,-1,-1,-1,-1,-1,-1,-1,-1,-1,-1,-1,-1,-1,-1,-1,-1],"loss_changes":[6.247288E2,2.1296692E1,1.3845862E2,8.700409E-1,1.6383209E0,5.4336853E0,5.70282E-1,1.616211E-1,0E0,6.23497E-1,4.9901557E-1,6.9088745E-1,8.6107635E-1,1.2747192E-1,0E0,0E0,0E0,1.2851334E-1,9.319687E-2,1.0897577E-1,0E0,5.4826736E-2,4.0835E-1,1.8471527E-1,3.3411407E-1,0E0,0E0,0E0,0E0,0E0,0E0,0E0,0E0,0E0,0E0,0E0,0E0,0E0,0E0,0E0,0E0],"parents":[2147483647,0,0,1,1,2,2,3,3,4,4,5,5,6,6,7,7,9,9,10,10,11,11,12,12,13,13,17,17,18,18,19,19,21,21,22,22,23,23,24,24],"right_children":[2,4,6,8,10,12,14,16,-1,18,20,22,24,26,-1,-1,-1,28,30,32,-1,34,36,38,40,-1,-1,-1,-1,-1,-1,-1,-1,-1,-1,-1,-1,-1,-1,-1,-1],"split_conditions":[6.049E-1,2.3683333E-1,8.4026664E-1,1.6283333E-1,3.8453335E-1,6.5853333E-1,8.8963336E-1,9.57E-2,-5.10864E-3,3.3076668E-1,4.4863334E-1,6.396E-1,6.798667E-1,8.604E-1,1.5585993E-2,-6.630547E-3,-6.1524743E-3,2.9286668E-1,3.5483333E-1,4.0436667E-1,1.0445644E-3,6.429E-1,6.504E-1,6.691E-1,7.113E-1,1.2827986E-2,1.4557989E-2,-4.3805456E-3,-3.8123233E-3,-3.4776994E-3,-3.1260916E-3,-2.3405605E-3,-1.2153785E-3,2.2720909E-3,2.8923242E-3,3.3673893E-3,4.623803E-3,4.948834E-3,5.749822E-3,6.476888E-3,8.986464E-3],"split_indices":[7,7,7,7,7,7,7,7,0,7,7,7,7,7,0,0,0,7,7,7,0,0,0,7,7,0,0,0,0,0,0,0,0,0,0,0,0,0,0,0,0],"split_type":[0,0,0,0,0,0,0,0,0,0,0,0,0,0,0,0,0,0,0,0,0,0,0,0,0,0,0,0,0,0,0,0,0,0,0,0,0,0,0,0,0],"sum_hessian":[2.5619E4,1.6399E4,9.22E3,7.241E3,9.158E3,6.015E3,3.205E3,6.348E3,8.93E2,8.374E3,7.84E2,2.707E3,3.308E3,1.412E3,1.793E3,4.231E3,2.117E3,3.022E3,5.352E3,6.91E2,9.3E1,1.013E3,1.694E3,2.109E3,1.199E3,2.02E2,1.21E3,1.132E3,1.89E3,2.679E3,2.673E3,4.85E2,2.06E2,5.28E2,4.85E2,9.85E2,7.09E2,1.106E3,1.003E3,1.099E3,1E2],"tree_param":{"num_deleted":"0","num_feature":"21","num_nodes":"41","size_leaf_vector":"1"}},{"base_weights":[2.9317389E-4,-1.1256067E-1,1.994237E-1,-1.525124E-1,-8.382555E-2,1.1328907E-1,3.6024392E-1,-1.5477143E-1,-4.8303627E-3,-1.00923635E-1,-7.758652E-2,9.075E-2,1.322262E-1,1.3790782E-2,1.4889403E-2,-6.2548076E-3,-5.7518613E-3,-4.370405E-3,-3.7296843E-3,-7.872164E-2,-1.5906153E-3,7.918346E-2,1.1108113E-1,1.3021049E-1,9.470659E-3,-3.3541697E-3,-2.9299776E-3,-7.2125805E-4,1.7372606E-3,2.7778447E-3,3.8052916E-3,3.8052916E-3,4.459524E-3,4.459524E-3,5.4241163E-3],"categories":[],"categories_nodes":[],"categories_segments":[],"categories_sizes":[],"default_left":[0,0,0,0,0,0,0,0,0,0,0,0,0,0,0,0,0,0,0,0,0,0,0,0,0,0,0,0,0,0,0,0,0,0,0],"id":13,"left_children":[1,3,5,7,9,11,13,15,-1,17,19,21,23,-1,-1,-1,-1,-1,-1,25,27,29,31,33,-1,-1,-1,-1,-1,-1,-1,-1,-1,-1,-1],"loss_changes":[5.753032E2,1.8737686E1,1.2821063E2,4.590912E-1,1.0035629E0,2.5564575E0,4.0618896E-1,7.7056885E-2,0E0,1.469593E-1,5.94162E-1,6.3707924E-1,8.538132E-1,0E0,0E0,0E0,0E0,0E0,0E0,1.8377304E-1,9.827099E-2,3.3659363E-1,1.8822956E-1,4.0871048E-1,0E0,0E0,0E0,0E0,0E0,0E0,0E0,0E0,0E0,0E0,0E0],"parents":[2147483647,0,0,1,1,2,2,3,3,4,4,5,5,6,6,7,7,9,9,10,10,11,11,12,12,19,19,20,20,21,21,22,22,23,23],"right_children":[2,4,6,8,10,12,14,16,-1,18,20,22,24,-1,-1,-1,-1,-1,-1,26,28,30,32,34,-1,-1,-1,-1,-1,-1,-1,-1,-1,-1,-1],"split_conditions":[6.488E-1,3.206E-1,7.279E-1,1.044E-1,2.102E-1,5.792E-1,8.177E-1,2.463E-1,-4.8303627E-3,4.319E-1,3.846E-1,7.973E-1,8.854E-1,1.3790782E-2,1.4889403E-2,-6.2548076E-3,-5.7518613E-3,-4.370405E-3,-3.7296843E-3,2.796E-1,5.497E-1,7.447E-1,5.501E-1,6.851E-1,9.470659E-3,-3.3541697E-3,-2.9299776E-3,-7.2125805E-4,1.7372606E-3,2.7778447E-3,3.8052916E-3,3.8052916E-3,4.459524E-3,4.459524E-3,5.4241163E-3],"split_indices":[3,3,4,4,4,4,4,3,0,3,4,3,3,0,0,0,0,0,0,4,1,0,0,3,0,0,0,0,0,0,0,0,0,0,0],"split_type":[0,0,0,0,0,0,0,0,0,0,0,0,0,0,0,0,0,0,0,0,0,0,0,0,0,0,0,0,0,0,0,0,0,0,0],"sum_hessian":[2.5594E4,1.6336E4,9.258E3,6.83E3,9.506E3,6.031E3,3.227E3,6.368E3,4.62E2,2.531E3,6.975E3,2.76E3,3.271E3,1.432E3,1.795E3,5.533E3,8.35E2,1.198E3,1.333E3,6.871E3,1.04E2,1.767E3,9.93E2,3.231E3,4E1,3.525E3,3.346E3,8.1E1,2.3E1,1.214E3,5.53E2,2.91E2,7.02E2,5.51E2,2.68E3],"tree_param":{"num_deleted":"0","num_feature":"21","num_nodes":"35","size_leaf_vector":"1"}},{"base_weights":[1.7420035E-4,-1.0683261E-1,1.9268754E-1,-1.4529929E-1,-7.698135E-2,1.09188184E-1,3.4544095E-1,-1.49492E-1,-4.77707E-3,-8.008975E-2,1.6006686E-2,8.015922E-2,1.3444613E-1,3.043786E-1,3.5177046E-1,-6.2458413E-3,-5.816988E-3,-9.023307E-2,-7.1630195E-2,-5.28535E-4,1.6489447E-3,6.6587865E-2,9.465785E-2,1.182253E-1,1.4568079E-1,1.0893487E-2,1.2701821E-2,1.3753984E-2,1.4715558E-2,-3.992286E-3,-3.4256715E-3,-2.9996734E-3,-2.173327E-3,2.2746413E-3,3.1754025E-3,3.3622815E-3,4.2921067E-3,4.439239E-3,5.2002096E-3,5.597547E-3,6.503997E-3],"categories":[],"categories_nodes":[],"categories_segments":[],"categories_sizes":[],"default_left":[0,0,0,0,0,0,0,0,0,0,0,0,0,0,0,0,0,0,0,0,0,0,0,0,0,0,0,0,0,0,0,0,0,0,0,0,0,0,0,0,0],"id":14,"left_children":[1,3,5,7,9,11,13,15,-1,17,19,21,23,25,27,-1,-1,29,31,-1,-1,33,35,37,39,-1,-1,-1,-1,-1,-1,-1,-1,-1,-1,-1,-1,-1,-1,-1,-1],"loss_changes":[5.2825854E2,1.890712E1,1.1679083E2,7.5183105E-1,2.6954994E0,4.3281097E0,6.77063E-1,1.3357544E-1,0E0,7.614136E-1,2.327247E-1,5.342045E-1,5.5034256E-1,5.634308E-2,1.6763306E-1,0E0,0E0,1.6678238E-1,2.780819E-1,0E0,0E0,1.7213011E-1,2.0669556E-1,9.030342E-2,1.4764786E-1,0E0,0E0,0E0,0E0,0E0,0E0,0E0,0E0,0E0,0E0,0E0,0E0,0E0,0E0,0E0,0E0],"parents":[2147483647,0,0,1,1,2,2,3,3,4,4,5,5,6,6,7,7,9,9,10,10,11,11,12,12,13,13,14,14,17,17,18,18,21,21,22,22,23,23,24,24],"right_children":[2,4,6,8,10,12,14,16,-1,18,20,22,24,26,28,-1,-1,30,32,-1,-1,34,36,38,40,-1,-1,-1,-1,-1,-1,-1,-1,-1,-1,-1,-1,-1,-1,-1,-1],"split_conditions":[6.142333E-1,2.3683333E-1,5.7514226E-1,1.4646667E-1,4.1743332E-1,6.595333E-1,8.674667E-1,8.003333E-2,-4.77707E-3,3.413E-1,6.488E-1,6.461E-1,6.7216665E-1,8.5393333E-1,9.056E-1,-6.2458413E-3,-5.816988E-3,3.0046666E-1,3.806E-1,-5.28535E-4,1.6489447E-3,6.504E-1,6.612E-1,6.649E-1,6.923E-1,1.0893487E-2,1.2701821E-2,1.3753984E-2,1.4715558E-2,-3.992286E-3,-3.4256715E-3,-2.9996734E-3,-2.173327E-3,2.2746413E-3,3.1754025E-3,3.3622815E-3,4.2921067E-3,4.439239E-3,5.2002096E-3,5.597547E-3,6.503997E-3],"split_indices":[7,7,14,7,7,7,7,7,0,7,3,7,7,7,7,0,0,7,7,0,0,0,0,0,7,0,0,0,0,0,0,0,0,0,0,0,0,0,0,0,0],"split_type":[0,0,0,0,0,0,0,0,0,0,0,0,0,0,0,0,0,0,0,0,0,0,0,0,0,0,0,0,0,0,0,0,0,0,0,0,0,0,0,0,0],"sum_hessian":[2.5637E4,1.6478E4,9.159E3,7.196E3,9.282E3,5.924E3,3.235E3,6.183E3,1.013E3,8.983E3,2.99E2,2.761E3,3.163E3,4.44E2,2.791E3,2.315E3,3.868E3,4.073E3,4.91E3,1.37E2,1.62E2,1.434E3,1.327E3,1.305E3,1.858E3,1.41E2,3.03E2,1.898E3,8.93E2,1.303E3,2.77E3,4.102E3,8.08E2,8.24E2,6.1E2,8.1E2,5.17E2,8.23E2,4.82E2,1.402E3,4.56E2],"tree_param":{"num_deleted":"0","num_feature":"21","num_nodes":"41","size_leaf_vector":"1"}},{"base_weights":[1.5252826E-4,-1.0272803E-1,1.8566851E-1,-1.3958524E-1,-7.384977E-2,1.04664676E-1,3.317473E-1,-1.4327234E-1,-4.5141033E-3,-7.733061E-2,4.1898643E-3,7.9837605E-2,1.3244794E-1,2.9083264E-1,3.3786738E-1,-5.8715376E-3,-5.4236357E-3,-8.69304E-2,-6.9559865E-2,-8.0998335E-4,1.5661229E-3,6.472886E-2,9.393175E-2,1.2422566E-1,6.0090283E-3,1.0306969E-2,1.2162641E-2,1.3233773E-2,1.4173819E-2,-3.855966E-3,-3.3053765E-3,-2.89057E-3,-2.1963818E-3,3.041155E-3,2.2837173E-3,4.245711E-3,3.4472882E-3,4.496054E-3,5.170935E-3],"categories":[],"categories_nodes":[],"categories_segments":[],"categories_sizes":[],"default_left":[0,0,0,0,0,0,0,0,0,0,0,0,0,0,0,0,0,0,0,0,0,0,0,0,0,0,0,0,0,0,0,0,0,0,0,0,0,0,0],"id":15,"left_children":[1,3,5,7,9,11,13,15,-1,17,19,21,23,25,27,-1,-1,29,31,-1,-1,33,35,37,-1,-1,-1,-1,-1,-1,-1,-1,-1,-1,-1,-1,-1,-1,-1],"loss_changes":[4.8849545E2,1.750647E1,1.0798331E2,6.8592834E-1,2.51783E0,4.037239E0,6.642761E-1,1.4108276E-1,0E0,6.5066147E-1,3.5121512E-1,6.527157E-1,3.7763977E-1,7.2013855E-2,1.5151978E-1,0E0,0E0,1.489811E-1,1.8697166E-1,0E0,0E0,1.2401867E-1,2.063179E-1,9.1259E-2,0E0,0E0,0E0,0E0,0E0,0E0,0E0,0E0,0E0,0E0,0E0,0E0,0E0,0E0,0E0],"parents":[2147483647,0,0,1,1,2,2,3,3,4,4,5,5,6,6,7,7,9,9,10,10,11,11,12,12,13,13,14,14,17,17,18,18,21,21,22,22,23,23],"right_children":[2,4,6,8,10,12,14,16,-1,18,20,22,24,26,28,-1,-1,30,32,-1,-1,34,36,38,-1,-1,-1,-1,-1,-1,-1,-1,-1,-1,-1,-1,-1,-1,-1],"split_conditions":[6.142333E-1,2.3683333E-1,5.7514226E-1,1.6283333E-1,4.0436667E-1,6.6326666E-1,8.674667E-1,9.6666664E-2,-4.5141033E-3,3.4043333E-1,6.488E-1,6.474E-1,6.842667E-1,8.5393333E-1,9.0776664E-1,-5.8715376E-3,-5.4236357E-3,2.966E-1,3.7896666E-1,-8.0998335E-4,1.5661229E-3,1E0,1E0,6.691E-1,6.0090283E-3,1.0306969E-2,1.2162641E-2,1.3233773E-2,1.4173819E-2,-3.855966E-3,-3.3053765E-3,-2.89057E-3,-2.1963818E-3,3.041155E-3,2.2837173E-3,4.245711E-3,3.4472882E-3,4.496054E-3,5.170935E-3],"split_indices":[7,7,14,7,7,7,7,7,0,7,3,7,7,7,7,0,0,7,7,0,0,20,20,7,0,0,0,0,0,0,0,0,0,0,0,0,0,0,0],"split_type":[0,0,0,0,0,0,0,0,0,0,0,0,0,0,0,0,0,0,0,0,0,0,0,0,0,0,0,0,0,0,0,0,0,0,0,0,0,0,0],"sum_hessian":[2.5588E4,1.646E4,9.128E3,7.227E3,9.233E3,5.874E3,3.254E3,6.342E3,8.85E2,8.84E3,3.93E2,3.107E3,2.767E3,4.35E2,2.819E3,4.323E3,2.019E3,3.942E3,4.898E3,2.3E2,1.63E2,1.507E3,1.6E3,1.904E3,8.63E2,1.35E2,3E2,2.003E3,8.16E2,1.213E3,2.729E3,4.124E3,7.74E2,5.97E2,9.1E2,4.38E2,1.162E3,5.86E2,1.318E3],"tree_param":{"num_deleted":"0","num_feature":"21","num_nodes":"39","size_leaf_vector":"1"}},{"base_weights":[6.0060003E-4,-9.941155E-2,1.7647947E-1,-1.3487236E-1,-7.3888704E-2,1.0008845E-1,3.1847823E-1,-1.3728608E-1,-4.301692E-3,-8.235328E-2,-6.46356E-2,8.633133E-2,1.2245803E-1,9.763202E-3,3.20573E-1,-5.563787E-3,-5.1536676E-3,-3.9630416E-3,-7.8103974E-2,-6.690445E-2,-2.4033705E-2,6.6544265E-2,9.5158E-2,1.05017744E-1,1.3100125E-1,1.3134859E-2,1.2330403E-2,-3.5145155E-3,-3.0204752E-3,-2.8166028E-3,-2.2705316E-3,-1.4083093E-3,1.3927668E-3,2.3350115E-3,3.2340453E-3,3.2340453E-3,4.1757873E-3,4.1757873E-3,4.7203796E-3,5.0474084E-3,5.7933214E-3],"categories":[],"categories_nodes":[],"categories_segments":[],"categories_sizes":[],"default_left":[0,0,0,0,0,0,0,0,0,0,0,0,0,0,0,0,0,0,0,0,0,0,0,0,0,0,0,0,0,0,0,0,0,0,0,0,0,0,0,0,0],"id":16,"left_children":[1,3,5,7,9,11,13,15,-1,17,19,21,23,-1,25,-1,-1,-1,27,29,31,33,35,37,39,-1,-1,-1,-1,-1,-1,-1,-1,-1,-1,-1,-1,-1,-1,-1,-1],"loss_changes":[4.5056085E2,1.4762512E1,1.0067172E2,4.2588806E-1,7.3589706E-1,1.843605E0,3.8137817E-1,6.814575E-2,0E0,3.4134674E-1,4.129486E-1,6.439209E-1,3.2019806E-1,0E0,1.5032959E-1,0E0,0E0,0E0,9.090233E-2,1.4665794E-1,1.72523E-1,1.7277384E-1,5.7513237E-1,8.8866234E-2,7.53746E-2,0E0,0E0,0E0,0E0,0E0,0E0,0E0,0E0,0E0,0E0,0E0,0E0,0E0,0E0,0E0,0E0],"parents":[2147483647,0,0,1,1,2,2,3,3,4,4,5,5,6,6,7,7,9,9,10,10,11,11,12,12,14,14,18,18,19,19,20,20,21,21,22,22,23,23,24,24],"right_children":[2,4,6,8,10,12,14,16,-1,18,20,22,24,-1,26,-1,-1,-1,28,30,32,34,36,38,40,-1,-1,-1,-1,-1,-1,-1,-1,-1,-1,-1,-1,-1,-1,-1,-1],"split_conditions":[6.488E-1,2.807542E-2,5.7514226E-1,2.945E-1,1.130178E-1,4.469567E-1,6.4632744E-1,9.0972E-3,-4.301692E-3,2.459E-1,4.326E-1,6.29E-1,6.121E-1,9.763202E-3,7.797539E-2,-5.563787E-3,-5.1536676E-3,-3.9630416E-3,6.437886E-2,1.464192E-1,2.04864E-1,7.553E-1,3.573869E-1,4.817015E-1,4.84823E-1,1.3134859E-2,1.2330403E-2,-3.5145155E-3,-3.0204752E-3,-2.8166028E-3,-2.2705316E-3,-1.4083093E-3,1.3927668E-3,2.3350115E-3,3.2340453E-3,3.2340453E-3,4.1757873E-3,4.1757873E-3,4.7203796E-3,5.0474084E-3,5.7933214E-3],"split_indices":[3,14,14,3,14,14,14,14,0,1,1,1,1,0,5,0,0,0,14,14,14,0,14,14,14,0,0,0,0,0,0,0,0,0,0,0,0,0,0,0,0],"split_type":[0,0,0,0,0,0,0,0,0,0,0,0,0,0,0,0,0,0,0,0,0,0,0,0,0,0,0,0,0,0,0,0,0,0,0,0,0,0,0,0,0],"sum_hessian":[2.5608E4,1.6325E4,9.283E3,6.828E3,9.497E3,6.038E3,3.245E3,6.265E3,5.63E2,4.948E3,4.549E3,3.746E3,2.292E3,9.5E1,3.15E3,5.131E3,1.134E3,9.91E2,3.957E3,4.305E3,2.44E2,1.163E3,2.583E3,7.64E2,1.528E3,1.9E3,1.25E3,8.12E2,3.145E3,3.184E3,1.121E3,2.07E2,3.7E1,8.35E2,3.28E2,6.74E2,1.909E3,4.68E2,2.96E2,1.15E3,3.78E2],"tree_param":{"num_deleted":"0","num_feature":"21","num_nodes":"41","size_leaf_vector":"1"}},{"base_weights":[3.7070632E-4,-9.525908E-2,1.6966134E-1,-1.2947774E-1,-7.051884E-2,9.627446E-2,3.058413E-1,-1.3182186E-1,-4.148101E-3,-7.180332E-2,1.1240699E-2,7.42731E-2,1.0878294E-1,2.930263E-1,1.2698446E-2,-5.3326124E-3,-4.8909313E-3,-8.3172396E-2,-6.5968625E-2,-5.819488E-4,1.4880453E-3,6.684173E-2,3.6611208E-3,9.507526E-2,1.2043029E-1,9.404004E-3,1.1850904E-2,-3.81939E-3,-3.0999433E-3,-2.7397885E-3,-2.0412803E-3,2.3970786E-3,3.167395E-3,3.6611208E-3,4.3101106E-3,4.333238E-3,5.119692E-3],"categories":[],"categories_nodes":[],"categories_segments":[],"categories_sizes":[],"default_left":[0,0,0,0,0,0,0,0,0,0,0,0,0,0,0,0,0,0,0,0,0,0,0,0,0,0,0,0,0,0,0,0,0,0,0,0,0],"id":17,"left_children":[1,3,5,7,9,11,13,15,-1,17,19,21,23,25,-1,-1,-1,27,29,-1,-1,31,-1,33,35,-1,-1,-1,-1,-1,-1,-1,-1,-1,-1,-1,-1],"loss_changes":[4.130313E2,1.3786926E1,9.1990234E1,3.90213E-1,1.0038261E0,1.6344223E0,3.4033203E-1,6.397247E-2,0E0,6.105919E-1,1.1156983E-1,3.9710045E-1,5.909958E-1,1.8275452E-1,0E0,0E0,0E0,2.0958138E-1,2.2641373E-1,0E0,0E0,1.7958498E-1,0E0,2.880392E-1,1.6636086E-1,0E0,0E0,0E0,0E0,0E0,0E0,0E0,0E0,0E0,0E0,0E0,0E0],"parents":[2147483647,0,0,1,1,2,2,3,3,4,4,5,5,6,6,7,7,9,9,10,10,11,11,12,12,13,13,17,17,18,18,21,21,23,23,24,24],"right_children":[2,4,6,8,10,12,14,16,-1,18,20,22,24,26,-1,-1,-1,28,30,-1,-1,32,-1,34,36,-1,-1,-1,-1,-1,-1,-1,-1,-1,-1,-1,-1],"split_conditions":[3.078586E-1,2.807542E-2,5.7514226E-1,2.945E-1,3.846E-1,5.679E-1,8.21E-1,1.036E-2,-4.148101E-3,2.286E-1,2.496266E-1,7.715E-1,4.4184455E-1,6.4632744E-1,1.2698446E-2,-5.3326124E-3,-4.8909313E-3,3.965E-1,1.464192E-1,-5.819488E-4,1.4880453E-3,8.02E-1,3.6611208E-3,7.85E-1,6.321E-1,9.404004E-3,1.1850904E-2,-3.81939E-3,-3.0999433E-3,-2.7397885E-3,-2.0412803E-3,2.3970786E-3,3.167395E-3,3.6611208E-3,4.3101106E-3,4.333238E-3,5.119692E-3],"split_indices":[14,14,14,3,4,4,4,14,0,4,14,0,14,14,0,0,0,3,14,0,0,3,0,1,1,0,0,0,0,0,0,0,0,0,0,0,0],"split_type":[0,0,0,0,0,0,0,0,0,0,0,0,0,0,0,0,0,0,0,0,0,0,0,0,0,0,0,0,0,0,0,0,0,0,0,0,0],"sum_hessian":[2.5506E4,1.6299E4,9.207E3,6.835E3,9.464E3,5.985E3,3.222E3,6.256E3,5.79E2,9.319E3,1.45E2,2.176E3,3.809E3,1.555E3,1.667E3,5.384E3,8.72E2,3.148E3,6.171E3,7.2E1,7.3E1,1.737E3,4.39E2,1.76E3,2.049E3,9E1,1.465E3,9.8E2,2.168E3,5.268E3,9.03E2,1.226E3,5.11E2,1.314E3,4.46E2,8.02E2,1.247E3],"tree_param":{"num_deleted":"0","num_feature":"21","num_nodes":"37","size_leaf_vector":"1"}},{"base_weights":[3.898967E-4,-9.1801316E-2,1.6286525E-1,-1.24291174E-1,-6.8333164E-2,9.187593E-2,2.935881E-1,-1.2657799E-1,-4.0501603E-3,-7.974422E-2,-6.2552944E-2,7.0464075E-2,1.0430359E-1,2.7765635E-1,1.2073139E-2,-5.123032E-3,-4.7199735E-3,-3.7220025E-3,-2.9957343E-3,-6.37495E-2,-3.027038E-4,5.8285188E-2,8.635457E-2,9.199956E-2,1.1699738E-1,9.090232E-3,1.1258203E-2,-2.6603218E-3,-2.170137E-3,1.646621E-3,2.5120121E-3,2.8927953E-3,3.4953533E-3,3.4953533E-3,4.179939E-3,4.232192E-3,4.9555716E-3],"categories":[],"categories_nodes":[],"categories_segments":[],"categories_sizes":[],"default_left":[0,0,0,0,0,0,0,0,0,0,0,0,0,0,0,0,0,0,0,0,0,0,0,0,0,0,0,0,0,0,0,0,0,0,0,0,0],"id":18,"left_children":[1,3,5,7,9,11,13,15,-1,17,19,21,23,25,-1,-1,-1,-1,-1,27,-1,29,31,33,35,-1,-1,-1,-1,-1,-1,-1,-1,-1,-1,-1,-1],"loss_changes":[3.8528268E2,1.2498489E1,8.63663E1,3.4101868E-1,6.2176514E-1,1.5943794E0,3.034668E-1,5.6892395E-2,0E0,1.9651794E-1,4.1099358E-1,4.233265E-1,5.7950974E-1,1.1756134E-1,0E0,0E0,0E0,0E0,0E0,1.5638924E-1,0E0,9.28359E-2,1.12733364E-1,2.4801254E-1,1.239624E-1,0E0,0E0,0E0,0E0,0E0,0E0,0E0,0E0,0E0,0E0,0E0,0E0],"parents":[2147483647,0,0,1,1,2,2,3,3,4,4,5,5,6,6,7,7,9,9,10,10,11,11,12,12,13,13,19,19,21,21,22,22,23,23,24,24],"right_children":[2,4,6,8,10,12,14,16,-1,18,20,22,24,26,-1,-1,-1,-1,-1,28,-1,30,32,34,36,-1,-1,-1,-1,-1,-1,-1,-1,-1,-1,-1,-1],"split_conditions":[4.711E-1,2.807542E-2,5.7514226E-1,2.856E-1,2.286E-1,5.679E-1,8.039E-1,9.90654E-3,-4.0501603E-3,3.835E-1,1.8423279E-1,4.2069456E-1,4.469567E-1,6.4632744E-1,1.2073139E-2,-5.123032E-3,-4.7199735E-3,-3.7220025E-3,-2.9957343E-3,1.3799164E-1,-3.027038E-4,5.944E-1,5.884E-1,7.8E-1,6.29E-1,9.090232E-3,1.1258203E-2,-2.6603218E-3,-2.170137E-3,1.646621E-3,2.5120121E-3,2.8927953E-3,3.4953533E-3,3.4953533E-3,4.179939E-3,4.232192E-3,4.9555716E-3],"split_indices":[4,14,14,3,4,4,4,14,0,3,14,14,14,14,0,0,0,0,0,14,0,1,1,3,1,0,0,0,0,0,0,0,0,0,0,0,0],"split_type":[0,0,0,0,0,0,0,0,0,0,0,0,0,0,0,0,0,0,0,0,0,0,0,0,0,0,0,0,0,0,0,0,0,0,0,0,0],"sum_hessian":[2.5715E4,1.6406E4,9.309E3,6.876E3,9.53E3,6.035E3,3.274E3,6.245E3,6.31E2,3.192E3,6.338E3,2.223E3,3.812E3,1.138E3,2.136E3,5.289E3,9.56E2,8.4E2,2.352E3,6.201E3,1.37E2,1.266E3,9.57E2,1.946E3,1.866E3,8.8E1,1.05E3,4.79E3,1.411E3,2.72E2,9.94E2,4.44E2,5.13E2,1.454E3,4.92E2,7.26E2,1.14E3],"tree_param":{"num_deleted":"0","num_feature":"21","num_nodes":"37","size_leaf_vector":"1"}},{"base_weights":[7.180951E-5,-8.7139435E-2,1.576579E-1,-1.1821246E-1,-6.2351085E-2,8.945894E-2,2.8194633E-1,-1.2275254E-1,-1.0071713E-1,-6.5414205E-2,3.3383372E-3,6.321978E-2,1.101327E-1,2.5033188E-1,2.8794926E-1,-5.1650708E-3,-4.7927084E-3,-4.310019E-3,-3.6957446E-3,-7.294018E-2,-5.8128636E-2,-5.896108E-4,1.2248233E-3,4.7680795E-2,7.153451E-2,9.588126E-2,1.2066243E-1,8.764903E-3,1.041796E-2,1.1280616E-2,1.2161085E-2,-3.2198532E-3,-2.783433E-3,-2.4208832E-3,-1.8100138E-3,1.646912E-3,2.3703205E-3,2.4085462E-3,3.4670494E-3,3.477892E-3,4.176803E-3,4.6491288E-3,5.5326363E-3],"categories":[],"categories_nodes":[],"categories_segments":[],"categories_sizes":[],"default_left":[0,0,0,0,0,0,0,0,0,0,0,0,0,0,0,0,0,0,0,0,0,0,0,0,0,0,0,0,0,0,0,0,0,0,0,0,0,0,0,0,0,0,0],"id":19,"left_children":[1,3,5,7,9,11,13,15,17,19,21,23,25,27,29,-1,-1,-1,-1,31,33,-1,-1,35,37,39,41,-1,-1,-1,-1,-1,-1,-1,-1,-1,-1,-1,-1,-1,-1,-1,-1],"loss_changes":[3.5180148E2,1.267981E1,7.725929E1,5.6056976E-1,1.8528519E0,3.1843758E0,5.0219727E-1,8.547974E-2,7.3833466E-2,4.741249E-1,2.1215197E-1,3.302822E-1,4.7605133E-1,7.94754E-2,1.3014221E-1,0E0,0E0,0E0,0E0,1.0094261E-1,1.3251495E-1,0E0,0E0,6.5825224E-2,3.253994E-1,9.386921E-2,1.2456894E-1,0E0,0E0,0E0,0E0,0E0,0E0,0E0,0E0,0E0,0E0,0E0,0E0,0E0,0E0,0E0,0E0],"parents":[2147483647,0,0,1,1,2,2,3,3,4,4,5,5,6,6,7,7,8,8,9,9,10,10,11,11,12,12,13,13,14,14,19,19,20,20,23,23,24,24,25,25,26,26],"right_children":[2,4,6,8,10,12,14,16,18,20,22,24,26,28,30,-1,-1,-1,-1,32,34,-1,-1,36,38,40,42,-1,-1,-1,-1,-1,-1,-1,-1,-1,-1,-1,-1,-1,-1,-1,-1],"split_conditions":[6.142333E-1,2.4236667E-1,5.7514226E-1,1.1856667E-1,4.0436667E-1,6.5853333E-1,8.7093335E-1,7.5833336E-2,1.9373333E-1,3.44E-1,6.488E-1,6.396E-1,6.7216665E-1,8.5393333E-1,9.097667E-1,-5.1650708E-3,-4.7927084E-3,-4.310019E-3,-3.6957446E-3,3.0346668E-1,3.806E-1,-5.896108E-4,1.2248233E-3,7.258E-1,6.576E-1,6.429E-1,6.9483334E-1,8.764903E-3,1.041796E-2,1.1280616E-2,1.2161085E-2,-3.2198532E-3,-2.783433E-3,-2.4208832E-3,-1.8100138E-3,1.646912E-3,2.3703205E-3,2.4085462E-3,3.4670494E-3,3.477892E-3,4.176803E-3,4.6491288E-3,5.5326363E-3],"split_indices":[7,7,14,7,7,7,7,7,7,7,3,7,7,7,7,0,0,0,0,7,7,0,0,0,0,0,7,0,0,0,0,0,0,0,0,0,0,0,0,0,0,0,0],"split_type":[0,0,0,0,0,0,0,0,0,0,0,0,0,0,0,0,0,0,0,0,0,0,0,0,0,0,0,0,0,0,0,0,0,0,0,0,0,0,0,0,0,0,0],"sum_hessian":[2.5591E4,1.6474E4,9.117E3,7.306E3,9.168E3,5.889E3,3.228E3,5.789E3,1.517E3,8.761E3,4.07E2,2.6E3,3.289E3,5.28E2,2.7E3,1.794E3,3.995E3,8.06E2,7.11E2,4.296E3,4.465E3,2.43E2,1.64E2,9.14E2,1.686E3,1.408E3,1.881E3,1.4E2,3.88E2,1.997E3,7.03E2,1.301E3,2.995E3,3.754E3,7.11E2,5.95E2,3.19E2,1.035E3,6.51E2,7.02E2,7.06E2,1.517E3,3.64E2],"tree_param":{"num_deleted":"0","num_feature":"21","num_nodes":"43","size_leaf_vector":"1"}},{"base_weights":[2.7692522E-4,-8.2861334E-2,1.530278E-1,-1.13396645E-1,-5.897996E-2,8.813508E-2,2.7169505E-1,-1.1783827E-1,-9.674576E-2,-6.2314283E-2,1.7089263E-2,6.727944E-2,1.1178678E-1,2.5840482E-1,1.131493E-2,-4.9945735E-3,-4.612855E-3,-4.1386303E-3,-3.5525549E-3,-6.937349E-2,-5.4442417E-2,-2.7796492E-4,1.2287349E-3,5.3338815E-2,7.865591E-2,1.0737327E-1,1.447352E-1,9.253777E-3,1.0495067E-2,-3.1007957E-3,-2.659272E-3,-2.285637E-3,-1.5191765E-3,1.7533335E-3,2.6398944E-3,2.758075E-3,3.5813244E-3,3.8596764E-3,4.5105824E-3,5.425415E-3,7.196603E-3],"categories":[],"categories_nodes":[],"categories_segments":[],"categories_sizes":[],"default_left":[0,0,0,0,0,0,0,0,0,0,0,0,0,0,0,0,0,0,0,0,0,0,0,0,0,0,0,0,0,0,0,0,0,0,0,0,0,0,0,0,0],"id":20,"left_children":[1,3,5,7,9,11,13,15,17,19,21,23,25,27,-1,-1,-1,-1,-1,29,31,-1,-1,33,35,37,39,-1,-1,-1,-1,-1,-1,-1,-1,-1,-1,-1,-1,-1,-1],"loss_changes":[3.2413116E2,1.204071E1,6.923288E1,5.177536E-1,2.36335E0,2.8586044E0,3.6235046E-1,7.9841614E-2,6.8154335E-2,4.8822403E-1,1.3442147E-1,4.8469734E-1,3.7530136E-1,6.501007E-2,0E0,0E0,0E0,0E0,0E0,1.0291481E-1,1.8268967E-1,0E0,0E0,1.7512941E-1,2.2285843E-1,1.2441826E-1,1.00564E-1,0E0,0E0,0E0,0E0,0E0,0E0,0E0,0E0,0E0,0E0,0E0,0E0,0E0,0E0],"parents":[2147483647,0,0,1,1,2,2,3,3,4,4,5,5,6,6,7,7,8,8,9,9,10,10,11,11,12,12,13,13,19,19,20,20,23,23,24,24,25,25,26,26],"right_children":[2,4,6,8,10,12,14,16,18,20,22,24,26,28,-1,-1,-1,-1,-1,30,32,-1,-1,34,36,38,40,-1,-1,-1,-1,-1,-1,-1,-1,-1,-1,-1,-1,-1,-1],"split_conditions":[6.2006664E-1,2.4236667E-1,8.4026664E-1,1.1856667E-1,4.1743332E-1,6.641333E-1,8.915667E-1,7.34E-2,1.9373333E-1,3.4726667E-1,6.488E-1,6.474E-1,6.975667E-1,8.604E-1,1.131493E-2,-4.9945735E-3,-4.612855E-3,-4.1386303E-3,-3.5525549E-3,3.0046666E-1,3.8453335E-1,-2.7796492E-4,1.2287349E-3,6.612E-1,6.576E-1,6.7216665E-1,9.145E-1,9.253777E-3,1.0495067E-2,-3.1007957E-3,-2.659272E-3,-2.285637E-3,-1.5191765E-3,1.7533335E-3,2.6398944E-3,2.758075E-3,3.5813244E-3,3.8596764E-3,4.5105824E-3,5.425415E-3,7.196603E-3],"split_indices":[7,7,7,7,7,7,7,7,7,7,3,7,7,7,0,0,0,0,0,7,7,0,0,0,0,7,3,0,0,0,0,0,0,0,0,0,0,0,0,0,0],"split_type":[0,0,0,0,0,0,0,0,0,0,0,0,0,0,0,0,0,0,0,0,0,0,0,0,0,0,0,0,0,0,0,0,0,0,0,0,0,0,0,0,0],"sum_hessian":[2.5516E4,1.6523E4,8.993E3,7.247E3,9.276E3,5.816E3,3.177E3,5.709E3,1.538E3,8.888E3,3.88E2,3.096E3,2.72E3,1.472E3,1.705E3,1.476E3,4.233E3,8.16E2,7.22E2,4.673E3,4.215E3,1.38E2,2.5E2,1.399E3,1.697E3,2.407E3,3.13E2,2.03E2,1.269E3,1.205E3,3.468E3,3.613E3,6.02E2,8.29E2,5.7E2,1.032E3,6.65E2,8.13E2,1.594E3,2.74E2,3.9E1],"tree_param":{"num_deleted":"0","num_feature":"21","num_nodes":"41","size_leaf_vector":"1"}},{"base_weights":[4.92593E-4,-7.972797E-2,1.4690883E-1,-1.090806E-1,-5.6576345E-2,8.443126E-2,2.6065305E-1,-1.1335738E-1,-9.3662396E-2,-6.0285185E-2,7.880257E-3,6.414643E-2,1.0730624E-1,2.4530391E-1,1.0786607E-2,-4.823563E-3,-4.4454522E-3,-4.0201633E-3,-3.4515506E-3,-6.827619E-2,-5.4403793E-2,-5.250651E-4,1.2036875E-3,5.084918E-2,7.468219E-2,1.03215754E-1,1.3847676E-1,8.822435E-3,9.993487E-3,-2.9979642E-3,-2.614491E-3,-2.2721186E-3,-1.7332876E-3,1.6771061E-3,2.5106275E-3,2.5880241E-3,3.4290534E-3,3.7263369E-3,4.330005E-3,5.222678E-3,6.901686E-3],"categories":[],"categories_nodes":[],"categories_segments":[],"categories_sizes":[],"default_left":[0,0,0,0,0,0,0,0,0,0,0,0,0,0,0,0,0,0,0,0,0,0,0,0,0,0,0,0,0,0,0,0,0,0,0,0,0,0,0,0,0],"id":21,"left_children":[1,3,5,7,9,11,13,15,17,19,21,23,25,27,-1,-1,-1,-1,-1,29,31,-1,-1,33,35,37,39,-1,-1,-1,-1,-1,-1,-1,-1,-1,-1,-1,-1,-1,-1],"loss_changes":[3.00927E2,1.1237083E1,6.440999E1,4.638977E-1,2.221119E0,2.7069702E0,3.44635E-1,7.191467E-2,6.752968E-2,4.0608788E-1,2.442916E-1,4.2965984E-1,3.3158302E-1,5.0994873E-2,0E0,0E0,0E0,0E0,0E0,6.49395E-2,1.2978363E-1,0E0,0E0,1.4604712E-1,2.362566E-1,1.0778427E-1,9.178591E-2,0E0,0E0,0E0,0E0,0E0,0E0,0E0,0E0,0E0,0E0,0E0,0E0,0E0,0E0],"parents":[2147483647,0,0,1,1,2,2,3,3,4,4,5,5,6,6,7,7,8,8,9,9,10,10,11,11,12,12,13,13,19,19,20,20,23,23,24,24,25,25,26,26],"right_children":[2,4,6,8,10,12,14,16,18,20,22,24,26,28,-1,-1,-1,-1,-1,30,32,-1,-1,34,36,38,40,-1,-1,-1,-1,-1,-1,-1,-1,-1,-1,-1,-1,-1,-1],"split_conditions":[6.2006664E-1,2.4236667E-1,8.4026664E-1,1.1593334E-1,4.0436667E-1,6.641333E-1,8.861E-1,7.14E-2,1.8483333E-1,3.3866668E-1,6.488E-1,6.474E-1,6.975667E-1,8.604E-1,1.0786607E-2,-4.823563E-3,-4.4454522E-3,-4.0201633E-3,-3.4515506E-3,2.966E-1,3.774E-1,-5.250651E-4,1.2036875E-3,6.504E-1,6.576E-1,6.7216665E-1,8.875E-1,8.822435E-3,9.993487E-3,-2.9979642E-3,-2.614491E-3,-2.2721186E-3,-1.7332876E-3,1.6771061E-3,2.5106275E-3,2.5880241E-3,3.4290534E-3,3.7263369E-3,4.330005E-3,5.222678E-3,6.901686E-3],"split_indices":[7,7,7,7,7,7,7,7,7,7,3,7,7,7,0,0,0,0,0,7,7,0,0,0,0,7,0,0,0,0,0,0,0,0,0,0,0,0,0,0,0],"split_type":[0,0,0,0,0,0,0,0,0,0,0,0,0,0,0,0,0,0,0,0,0,0,0,0,0,0,0,0,0,0,0,0,0,0,0,0,0,0,0,0,0],"sum_hessian":[2.5613E4,1.6547E4,9.066E3,7.292E3,9.255E3,5.854E3,3.212E3,5.696E3,1.596E3,8.753E3,5.02E2,3.108E3,2.746E3,1.208E3,2.004E3,1.309E3,4.387E3,8.11E2,7.85E2,3.697E3,5.056E3,2.56E2,2.46E2,1.382E3,1.726E3,2.436E3,3.1E2,2.02E2,1.006E3,1.102E3,2.595E3,4.143E3,9.13E2,8.05E2,5.77E2,1.039E3,6.87E2,8.29E2,1.607E3,2.82E2,2.8E1],"tree_param":{"num_deleted":"0","num_feature":"21","num_nodes":"41","size_leaf_vector":"1"}},{"base_weights":[1.073999E-4,-7.778114E-2,1.3910313E-1,-1.0556269E-1,-5.7616595E-2,7.845154E-2,2.4922784E-1,-4.297968E-3,-3.3867557E-3,-5.8671955E-2,9.880618E-3,6.660826E-2,9.435868E-2,2.1952686E-1,2.53195E-1,-7.1243584E-2,-5.5073872E-2,-4.151283E-4,1.2185063E-3,4.9960904E-2,7.447635E-2,8.330067E-2,4.1350736E-3,6.553587E-3,9.003487E-3,9.860821E-3,1.0495927E-2,-3.2635855E-3,-2.6239585E-3,-2.293735E-3,-1.8318989E-3,1.4122801E-3,2.2667649E-3,2.488745E-3,3.2193386E-3,3.2193386E-3,3.7335502E-3],"categories":[],"categories_nodes":[],"categories_segments":[],"categories_sizes":[],"default_left":[0,0,0,0,0,0,0,0,0,0,0,0,0,0,0,0,0,0,0,0,0,0,0,0,0,0,0,0,0,0,0,0,0,0,0,0,0],"id":22,"left_children":[1,3,5,7,9,11,13,-1,-1,15,17,19,21,23,25,27,29,-1,-1,31,33,35,-1,-1,-1,-1,-1,-1,-1,-1,-1,-1,-1,-1,-1,-1,-1],"loss_changes":[2.776651E2,9.197723E0,6.1488068E1,2.5673676E-1,6.866131E-1,1.1103096E0,2.992859E-1,0E0,0E0,4.1941452E-1,6.976053E-2,4.4078255E-1,2.3902893E-1,7.055092E-2,7.96051E-2,1.1680126E-1,1.4920235E-1,0E0,0E0,1.0477805E-1,3.301382E-1,1.2590742E-1,0E0,0E0,0E0,0E0,0E0,0E0,0E0,0E0,0E0,0E0,0E0,0E0,0E0,0E0,0E0],"parents":[2147483647,0,0,1,1,2,2,3,3,4,4,5,5,6,6,9,9,10,10,11,11,12,12,13,13,14,14,15,15,16,16,19,19,20,20,21,21],"right_children":[2,4,6,8,10,12,14,-1,-1,16,18,20,22,24,26,28,30,-1,-1,32,34,36,-1,-1,-1,-1,-1,-1,-1,-1,-1,-1,-1,-1,-1,-1,-1],"split_conditions":[3.078586E-1,2.807542E-2,5.7514226E-1,2.945E-1,3.846E-1,4.4184455E-1,7.945E-1,-4.297968E-3,-3.3867557E-3,7.86352E-2,2E0,6.321E-1,6.29E-1,8.05E-1,8.455E-1,2.671E-1,1.4117768E-1,-4.151283E-4,1.2185063E-3,4.0688574E-1,3.67236E-1,4.788126E-1,4.1350736E-3,6.553587E-3,9.003487E-3,9.860821E-3,1.0495927E-2,-3.2635855E-3,-2.6239585E-3,-2.293735E-3,-1.8318989E-3,1.4122801E-3,2.2667649E-3,2.488745E-3,3.2193386E-3,3.2193386E-3,3.7335502E-3],"split_indices":[14,14,14,3,4,14,0,0,0,14,12,1,1,1,4,1,14,0,0,14,14,14,0,0,0,0,0,0,0,0,0,0,0,0,0,0,0],"split_type":[0,0,0,0,0,0,0,0,0,0,0,0,0,0,0,0,0,0,0,0,0,0,0,0,0,0,0,0,0,0,0,0,0,0,0,0,0],"sum_hessian":[2.564E4,1.6432E4,9.208E3,6.906E3,9.526E3,5.94E3,3.268E3,6.324E3,5.82E2,9.381E3,1.45E2,3.413E3,2.527E3,3.98E2,2.87E3,2.075E3,7.306E3,7.1E1,7.4E1,1.103E3,2.31E3,1.147E3,1.38E3,4E1,3.58E2,1.694E3,1.176E3,7.07E2,1.368E3,5.855E3,1.451E3,3.54E2,7.49E2,7.72E2,1.538E3,7.27E2,4.2E2],"tree_param":{"num_deleted":"0","num_feature":"21","num_nodes":"37","size_leaf_vector":"1"}},{"base_weights":[2.5140276E-4,-7.2710894E-2,1.3618386E-1,-1.0012686E-1,-5.09362E-2,7.7726655E-2,2.3925346E-1,-1.0347143E-1,-3.2391185E-3,-5.5007342E-2,1.8758427E-2,5.2575793E-2,9.23314E-2,8.129783E-3,2.4355577E-1,-4.313068E-3,-3.968958E-3,-6.113932E-2,-4.795738E-2,-2.3821277E-4,1.1073265E-3,6.5725744E-2,4.579564E-2,8.25996E-2,1.0609654E-1,9.470486E-3,1.02269435E-2,-2.7056658E-3,-2.340702E-3,-2.0157017E-3,-1.3344905E-3,2.047158E-3,2.8981438E-3,1.5549284E-3,2.1342179E-3,3.7739228E-3,3.135283E-3,4.0951893E-3,4.886962E-3],"categories":[],"categories_nodes":[],"categories_segments":[],"categories_sizes":[],"default_left":[0,0,0,0,0,0,0,0,0,0,0,0,0,0,0,0,0,0,0,0,0,0,0,0,0,0,0,0,0,0,0,0,0,0,0,0,0,0,0],"id":23,"left_children":[1,3,5,7,9,11,13,15,-1,17,19,21,23,-1,25,-1,-1,27,29,-1,-1,31,33,35,37,-1,-1,-1,-1,-1,-1,-1,-1,-1,-1,-1,-1,-1,-1],"loss_changes":[2.5447305E2,9.957909E0,5.396501E1,4.588623E-1,2.650898E0,2.092926E0,4.2477417E-1,1.0009003E-1,0E0,3.7579155E-1,1.186555E-1,1.8402338E-1,4.7145653E-1,0E0,1.4727783E-1,0E0,0E0,7.442665E-2,1.4221191E-1,0E0,0E0,9.6776485E-2,7.024431E-2,1.1198425E-1,7.136345E-2,0E0,0E0,0E0,0E0,0E0,0E0,0E0,0E0,0E0,0E0,0E0,0E0,0E0,0E0],"parents":[2147483647,0,0,1,1,2,2,3,3,4,4,5,5,6,6,7,7,9,9,10,10,11,11,12,12,14,14,17,17,18,18,21,21,22,22,23,23,24,24],"right_children":[2,4,6,8,10,12,14,16,-1,18,20,22,24,-1,26,-1,-1,28,30,-1,-1,32,34,36,38,-1,-1,-1,-1,-1,-1,-1,-1,-1,-1,-1,-1,-1,-1],"split_conditions":[6.2376666E-1,2.478E-1,5.7514226E-1,1.6283333E-1,4.1743332E-1,6.5566665E-1,8.6466664E-1,8.62E-2,-3.2391185E-3,3.4813333E-1,2.496266E-1,1E0,6.7623335E-1,8.129783E-3,9.0363336E-1,-4.313068E-3,-3.968958E-3,3.0606666E-1,3.8453335E-1,-2.3821277E-4,1.1073265E-3,6.396E-1,6.461E-1,1E0,6.975667E-1,9.470486E-3,1.02269435E-2,-2.7056658E-3,-2.340702E-3,-2.0157017E-3,-1.3344905E-3,2.047158E-3,2.8981438E-3,1.5549284E-3,2.1342179E-3,3.7739228E-3,3.135283E-3,4.0951893E-3,4.886962E-3],"split_indices":[7,7,14,7,7,7,7,7,0,7,14,20,7,0,7,0,0,7,7,0,0,7,7,20,7,0,0,0,0,0,0,0,0,0,0,0,0,0,0],"split_type":[0,0,0,0,0,0,0,0,0,0,0,0,0,0,0,0,0,0,0,0,0,0,0,0,0,0,0,0,0,0,0,0,0,0,0,0,0,0,0],"sum_hessian":[2.565E4,1.6691E4,8.959E3,7.384E3,9.307E3,5.719E3,3.24E3,6.276E3,1.108E3,8.795E3,5.12E2,2.106E3,3.613E3,3.56E2,2.884E3,3.069E3,3.207E3,4.69E3,4.105E3,1.33E2,3.79E2,7.07E2,1.399E3,2.127E3,1.486E3,1.873E3,1.011E3,1.326E3,3.364E3,3.509E3,5.96E2,3.07E2,4E2,7.42E2,6.57E2,4.81E2,1.646E3,1.221E3,2.65E2],"tree_param":{"num_deleted":"0","num_feature":"21","num_nodes":"39","size_leaf_vector":"1"}},{"base_weights":[8.879783E-5,-6.995574E-2,1.317042E-1,-9.621285E-2,-4.902299E-2,7.4940085E-2,2.2997332E-1,-1.00511484E-1,-8.260906E-2,-5.2770693E-2,1.7125912E-2,5.5353984E-2,9.1402866E-2,6.9342707E-3,2.3262508E-1,-4.3149153E-3,-3.9458885E-3,-3.5374253E-3,-3.0034217E-3,-5.816993E-2,-4.5342408E-2,-2.5854018E-4,1.0358935E-3,4.724646E-2,6.791943E-2,8.3578914E-2,4.1564708E-3,8.977788E-3,9.740863E-3,-2.559397E-3,-2.2162527E-3,-1.9055734E-3,-1.2211028E-3,1.5288248E-3,2.2574416E-3,1.9909234E-3,2.9351371E-3,3.1765562E-3,3.6982289E-3],"categories":[],"categories_nodes":[],"categories_segments":[],"categories_sizes":[],"default_left":[0,0,0,0,0,0,0,0,0,0,0,0,0,0,0,0,0,0,0,0,0,0,0,0,0,0,0,0,0,0,0,0,0,0,0,0,0,0,0],"id":24,"left_children":[1,3,5,7,9,11,13,15,17,19,21,23,25,-1,27,-1,-1,-1,-1,29,31,-1,-1,33,35,37,-1,-1,-1,-1,-1,-1,-1,-1,-1,-1,-1,-1,-1],"loss_changes":[2.3655838E2,9.196236E0,4.968805E1,4.207306E-1,2.319952E0,1.8143749E0,4.2378235E-1,6.18248E-2,6.862068E-2,3.4972572E-1,1.0859442E-1,2.5923347E-1,2.8745842E-1,0E0,1.9544983E-1,0E0,0E0,0E0,0E0,7.688904E-2,1.2344313E-1,0E0,0E0,1.2803936E-1,1.3410044E-1,5.965042E-2,0E0,0E0,0E0,0E0,0E0,0E0,0E0,0E0,0E0,0E0,0E0,0E0,0E0],"parents":[2147483647,0,0,1,1,2,2,3,3,4,4,5,5,6,6,7,7,8,8,9,9,10,10,11,11,12,12,14,14,19,19,20,20,23,23,24,24,25,25],"right_children":[2,4,6,8,10,12,14,16,18,20,22,24,26,-1,28,-1,-1,-1,-1,30,32,-1,-1,34,36,38,-1,-1,-1,-1,-1,-1,-1,-1,-1,-1,-1,-1,-1],"split_conditions":[6.2376666E-1,2.478E-1,5.7514226E-1,1.135E-1,4.1743332E-1,6.604667E-1,8.5393333E-1,6.9233336E-2,1.9373333E-1,3.5156667E-1,2.496266E-1,1E0,6.798667E-1,6.9342707E-3,8.986667E-1,-4.3149153E-3,-3.9458885E-3,-3.5374253E-3,-3.0034217E-3,3.1333333E-1,3.8696668E-1,-2.5854018E-4,1.0358935E-3,6.487E-1,6.396E-1,1E0,4.1564708E-3,8.977788E-3,9.740863E-3,-2.559397E-3,-2.2162527E-3,-1.9055734E-3,-1.2211028E-3,1.5288248E-3,2.2574416E-3,1.9909234E-3,2.9351371E-3,3.1765562E-3,3.6982289E-3],"split_indices":[7,7,14,7,7,7,7,7,7,7,14,9,7,0,7,0,0,0,0,7,7,0,0,7,7,9,0,0,0,0,0,0,0,0,0,0,0,0,0],"split_type":[0,0,0,0,0,0,0,0,0,0,0,0,0,0,0,0,0,0,0,0,0,0,0,0,0,0,0,0,0,0,0,0,0,0,0,0,0,0,0],"sum_hessian":[2.5652E4,1.6742E4,8.91E3,7.422E3,9.32E3,5.65E3,3.26E3,5.627E3,1.795E3,8.822E3,4.98E2,2.586E3,3.064E3,1.52E2,3.108E3,1.109E3,4.518E3,9.95E2,8E2,5.095E3,3.727E3,1.32E2,3.66E2,1.581E3,1.005E3,1.897E3,1.167E3,1.799E3,1.309E3,1.619E3,3.476E3,3.218E3,5.09E2,8.07E2,7.74E2,3.14E2,6.91E2,1.309E3,5.88E2],"tree_param":{"num_deleted":"0","num_feature":"21","num_nodes":"39","size_leaf_vector":"1"}},{"base_weights":[3.5186553E-5,-6.662783E-2,1.2665603E-1,-9.19892E-2,-4.6023153E-2,7.235644E-2,2.2068499E-1,-9.537131E-2,-2.9686268E-3,-5.0410528E-2,1.9147886E-2,5.268833E-2,8.732451E-2,6.694426E-3,2.2295102E-1,-3.9551E-3,-3.626593E-3,-5.4219536E-2,-4.0798977E-2,-2.4672496E-4,1.0458826E-3,6.603E-2,4.621095E-2,8.0042765E-2,3.9874963E-3,8.6553395E-3,9.394922E-3,-2.3750665E-3,-2.045372E-3,-1.7226094E-3,-9.564776E-4,2.0825032E-3,2.8002565E-3,1.4897139E-3,2.1621387E-3,3.5946034E-3,3.0832014E-3],"categories":[],"categories_nodes":[],"categories_segments":[],"categories_sizes":[],"default_left":[0,0,0,0,0,0,0,0,0,0,0,0,0,0,0,0,0,0,0,0,0,0,0,0,0,0,0,0,0,0,0,0,0,0,0,0,0],"id":25,"left_children":[1,3,5,7,9,11,13,15,-1,17,19,21,23,-1,25,-1,-1,27,29,-1,-1,31,33,35,-1,-1,-1,-1,-1,-1,-1,-1,-1,-1,-1,-1,-1],"loss_changes":[2.160986E2,8.756195E0,4.5056E1,4.3953705E-1,2.6559906E0,1.6410847E0,3.2928467E-1,9.0415955E-2,0E0,3.1367874E-1,1.0826437E-1,2.058053E-1,2.743187E-1,0E0,1.6642761E-1,0E0,0E0,9.431076E-2,9.173107E-2,0E0,0E0,8.322215E-2,1.1245918E-1,5.804634E-2,0E0,0E0,0E0,0E0,0E0,0E0,0E0,0E0,0E0,0E0,0E0,0E0,0E0],"parents":[2147483647,0,0,1,1,2,2,3,3,4,4,5,5,6,6,7,7,9,9,10,10,11,11,12,12,14,14,17,17,18,18,21,21,22,22,23,23],"right_children":[2,4,6,8,10,12,14,16,-1,18,20,22,24,-1,26,-1,-1,28,30,-1,-1,32,34,36,-1,-1,-1,-1,-1,-1,-1,-1,-1,-1,-1,-1,-1],"split_conditions":[6.271E-1,2.527E-1,5.7514226E-1,1.6283333E-1,4.1743332E-1,6.595333E-1,8.5393333E-1,9.026667E-2,-2.9686268E-3,3.6123332E-1,2.496266E-1,1E0,6.798667E-1,6.694426E-3,9.02E-1,-3.9551E-3,-3.626593E-3,3.2583332E-1,3.928E-1,-2.4672496E-4,1.0458826E-3,6.436E-1,6.474E-1,1E0,3.9874963E-3,8.6553395E-3,9.394922E-3,-2.3750665E-3,-2.045372E-3,-1.7226094E-3,-9.564776E-4,2.0825032E-3,2.8002565E-3,1.4897139E-3,2.1621387E-3,3.5946034E-3,3.0832014E-3],"split_indices":[7,7,14,7,7,7,7,7,0,7,14,20,7,0,7,0,0,7,7,0,0,7,7,20,0,0,0,0,0,0,0,0,0,0,0,0,0],"split_type":[0,0,0,0,0,0,0,0,0,0,0,0,0,0,0,0,0,0,0,0,0,0,0,0,0,0,0,0,0,0,0,0,0,0,0,0,0],"sum_hessian":[2.5593E4,1.6766E4,8.827E3,7.511E3,9.255E3,5.598E3,3.229E3,6.3E3,1.211E3,8.673E3,5.82E2,2.425E3,3.173E3,1.38E2,3.091E3,3.581E3,2.719E3,6.199E3,2.474E3,1.23E2,4.59E2,7.83E2,1.642E3,2.009E3,1.164E3,2.017E3,1.074E3,2.298E3,3.901E3,2.174E3,3E2,3.27E2,4.56E2,7.76E2,8.66E2,3.91E2,1.618E3],"tree_param":{"num_deleted":"0","num_feature":"21","num_nodes":"37","size_leaf_vector":"1"}},{"base_weights":[6.9392915E-4,-6.538242E-2,1.1914526E-1,-8.8911355E-2,-4.7453895E-2,6.7264974E-2,2.122385E-1,-3.6550064E-3,-7.336061E-2,-4.916393E-2,1.4050556E-2,5.736591E-2,8.043042E-2,6.363897E-3,2.1358356E-1,-3.2779584E-3,-2.7273048E-3,-5.437965E-2,-4.3500587E-2,-4.348158E-4,1.0038151E-3,4.2117037E-2,6.479123E-2,6.9734685E-2,3.5238853E-3,8.388672E-3,9.122857E-3,-2.5985693E-3,-2.0660376E-3,-1.7810664E-3,-1.0025313E-3,1.1641403E-3,1.8955331E-3,2.1381653E-3,2.7559265E-3,2.7559265E-3,3.1566364E-3],"categories":[],"categories_nodes":[],"categories_segments":[],"categories_sizes":[],"default_left":[0,0,0,0,0,0,0,0,0,0,0,0,0,0,0,0,0,0,0,0,0,0,0,0,0,0,0,0,0,0,0,0,0,0,0,0,0],"id":26,"left_children":[1,3,5,7,9,11,13,-1,15,17,19,21,23,-1,25,-1,-1,27,29,-1,-1,31,33,35,-1,-1,-1,-1,-1,-1,-1,-1,-1,-1,-1,-1,-1],"loss_changes":[1.9999416E2,6.9117584E0,4.4167236E1,2.6019287E-1,9.8713875E-1,7.593956E-1,1.777649E-1,0E0,5.2072525E-2,2.6409912E-1,7.5439505E-2,3.7607956E-1,1.9667244E-1,0E0,1.0775757E-1,0E0,0E0,1.3157272E-1,7.909584E-2,0E0,0E0,7.333505E-2,1.9540596E-1,8.4888935E-2,0E0,0E0,0E0,0E0,0E0,0E0,0E0,0E0,0E0,0E0,0E0,0E0,0E0],"parents":[2147483647,0,0,1,1,2,2,3,3,4,4,5,5,6,6,8,8,9,9,10,10,11,11,12,12,14,14,17,17,18,18,21,21,22,22,23,23],"right_children":[2,4,6,8,10,12,14,-1,16,18,20,22,24,-1,26,-1,-1,28,30,-1,-1,32,34,36,-1,-1,-1,-1,-1,-1,-1,-1,-1,-1,-1,-1,-1],"split_conditions":[3.218112E-1,3.5931E-2,5.7514226E-1,1.404345E-2,3.846E-1,4.4184455E-1,6.4632744E-1,-3.6550064E-3,1.921E-1,1.130178E-1,5.286E-1,6.321E-1,6.239E-1,6.363897E-3,8.377E-1,-3.2779584E-3,-2.7273048E-3,2.526E-1,4.203E-1,-4.348158E-4,1.0038151E-3,4.0407968E-1,3.573869E-1,4.7425616E-1,3.5238853E-3,8.388672E-3,9.122857E-3,-2.5985693E-3,-2.0660376E-3,-1.7810664E-3,-1.0025313E-3,1.1641403E-3,1.8955331E-3,2.1381653E-3,2.7559265E-3,2.7559265E-3,3.1566364E-3],"split_indices":[14,14,14,14,4,14,14,0,1,14,1,1,1,0,14,0,0,1,1,0,0,14,14,14,0,0,0,0,0,0,0,0,0,0,0,0,0],"split_type":[0,0,0,0,0,0,0,0,0,0,0,0,0,0,0,0,0,0,0,0,0,0,0,0,0,0,0,0,0,0,0,0,0,0,0,0,0],"sum_hessian":[2.5544E4,1.6397E4,9.147E3,7.086E3,9.311E3,5.876E3,3.271E3,6.105E3,9.81E2,9.061E3,2.5E2,3.363E3,2.513E3,8.7E1,3.184E3,4.4E2,5.41E2,4.701E3,4.36E3,7.4E1,1.76E2,1.109E3,2.254E3,1.061E3,1.452E3,2.537E3,6.47E2,9.49E2,3.752E3,4.123E3,2.37E2,3.28E2,7.81E2,5.34E2,1.72E3,6.06E2,4.55E2],"tree_param":{"num_deleted":"0","num_feature":"21","num_nodes":"37","size_leaf_vector":"1"}},{"base_weights":[-4.2909148E-4,-6.363072E-2,1.1230511E-1,-8.595188E-2,-4.7092415E-2,6.360232E-2,2.0321377E-1,-3.5121685E-3,-2.8142878E-3,-5.1769093E-2,-3.9894067E-2,5.2907903E-2,7.588304E-2,5.8417567E-3,2.0479906E-1,-2.5402482E-3,-1.9748574E-3,-4.102507E-2,1.4754495E-4,3.9610825E-2,5.8212854E-2,6.520242E-2,3.343594E-3,1.997307E-1,8.600482E-3,-1.6859523E-3,-7.8844E-4,1.2489983E-3,1.8956722E-3,1.9564736E-3,2.575819E-3,2.575819E-3,2.9758452E-3,7.0178956E-3,8.079972E-3],"categories":[],"categories_nodes":[],"categories_segments":[],"categories_sizes":[],"default_left":[0,0,0,0,0,0,0,0,0,0,0,0,0,0,0,0,0,0,0,0,0,0,0,0,0,0,0,0,0,0,0,0,0,0,0],"id":27,"left_children":[1,3,5,7,9,11,13,-1,-1,15,17,19,21,-1,23,-1,-1,25,-1,27,29,31,-1,33,-1,-1,-1,-1,-1,-1,-1,-1,-1,-1,-1],"loss_changes":[1.8254387E2,6.0539856E0,4.0724533E1,1.9104004E-1,3.1425858E-1,7.8141975E-1,2.4035645E-1,0E0,0E0,1.5679073E-1,1.8880796E-1,2.224245E-1,2.205658E-1,0E0,9.742737E-2,0E0,0E0,8.388281E-2,0E0,5.8174014E-2,2.7026463E-1,9.886503E-2,0E0,6.0905457E-2,0E0,0E0,0E0,0E0,0E0,0E0,0E0,0E0,0E0,0E0,0E0],"parents":[2147483647,0,0,1,1,2,2,3,3,4,4,5,5,6,6,9,9,10,10,11,11,12,12,14,14,17,17,19,19,20,20,21,21,23,23],"right_children":[2,4,6,8,10,12,14,-1,-1,16,18,20,22,-1,24,-1,-1,26,-1,28,30,32,-1,34,-1,-1,-1,-1,-1,-1,-1,-1,-1,-1,-1],"split_conditions":[6.488E-1,3.09063E-2,5.7514226E-1,2.782E-1,1.2059424E-1,4.36818E-1,6.4632744E-1,-3.5121685E-3,-2.8142878E-3,2.362E-1,4.725E-1,6.29E-1,6.239E-1,5.8417567E-3,8.217E-1,-2.5402482E-3,-1.9748574E-3,1.8423279E-1,1.4754495E-4,4.14736E-1,3.67236E-1,4.788126E-1,3.343594E-3,8.14E-1,8.600482E-3,-1.6859523E-3,-7.8844E-4,1.2489983E-3,1.8956722E-3,1.9564736E-3,2.575819E-3,2.575819E-3,2.9758452E-3,7.0178956E-3,8.079972E-3],"split_indices":[3,14,14,3,14,14,14,0,0,1,1,1,1,0,14,0,0,14,0,14,14,14,0,1,0,0,0,0,0,0,0,0,0,0,0],"split_type":[0,0,0,0,0,0,0,0,0,0,0,0,0,0,0,0,0,0,0,0,0,0,0,0,0,0,0,0,0,0,0,0,0,0,0],"sum_hessian":[2.5613E4,1.6413E4,9.2E3,6.98E3,9.433E3,5.993E3,3.207E3,6.227E3,7.53E2,5.704E3,3.729E3,3.212E3,2.781E3,9.2E1,3.115E3,9.54E2,4.75E3,3.637E3,9.2E1,9.25E2,2.287E3,1.177E3,1.604E3,2.109E3,1.006E3,3.449E3,1.88E2,4.55E2,4.7E2,8.26E2,1.461E3,7.95E2,3.82E2,1.94E2,1.915E3],"tree_param":{"num_deleted":"0","num_feature":"21","num_nodes":"35","size_leaf_vector":"1"}},{"base_weights":[3.9253745E-4,-5.897575E-2,1.1231846E-1,-8.1489295E-2,-4.0579427E-2,6.48236E-2,1.9578618E-1,-8.5858434E-2,-7.0271626E-2,-4.4923E-2,1.2568922E-2,4.847758E-2,8.11228E-2,1.8045245E-1,2.0239751E-1,-3.7191208E-3,-3.3668207E-3,-3.0092886E-3,-2.5439465E-3,-2.0014234E-3,-3.9820325E-2,-2.3631619E-4,9.119876E-4,3.9952524E-2,6.14029E-2,7.681096E-2,1.0098338E-1,1.6872242E-1,7.6444643E-3,7.9253735E-3,8.640519E-3,-1.677054E-3,-1.2651181E-3,1.3558473E-3,2.0271083E-3,2.0271083E-3,2.5920074E-3,2.8062805E-3,3.2369506E-3,3.8734667E-3,5.212195E-3,5.4304735E-3,7.050986E-3],"categories":[],"categories_nodes":[],"categories_segments":[],"categories_sizes":[],"default_left":[0,0,0,0,0,0,0,0,0,0,0,0,0,0,0,0,0,0,0,0,0,0,0,0,0,0,0,0,0,0,0,0,0,0,0,0,0,0,0,0,0,0,0],"id":28,"left_children":[1,3,5,7,9,11,13,15,17,19,21,23,25,27,29,-1,-1,-1,-1,-1,31,-1,-1,33,35,37,39,41,-1,-1,-1,-1,-1,-1,-1,-1,-1,-1,-1,-1,-1,-1,-1],"loss_changes":[1.6946323E2,6.895252E0,3.5018944E1,3.5724258E-1,2.1252031E0,1.4955482E0,2.69104E-1,5.3401947E-2,6.261253E-2,2.1830177E-1,1.3602376E-1,3.0754948E-1,2.3111153E-1,7.448578E-2,6.569672E-2,0E0,0E0,0E0,0E0,0E0,7.094431E-2,0E0,0E0,1.10583305E-1,6.9894314E-2,5.4841995E-2,6.859064E-2,8.241844E-2,0E0,0E0,0E0,0E0,0E0,0E0,0E0,0E0,0E0,0E0,0E0,0E0,0E0,0E0,0E0],"parents":[2147483647,0,0,1,1,2,2,3,3,4,4,5,5,6,6,7,7,8,8,9,9,10,10,11,11,12,12,13,13,14,14,20,20,23,23,24,24,25,25,26,26,27,27],"right_children":[2,4,6,8,10,12,14,16,18,20,22,24,26,28,30,-1,-1,-1,-1,-1,32,-1,-1,34,36,38,40,42,-1,-1,-1,-1,-1,-1,-1,-1,-1,-1,-1,-1,-1,-1,-1],"split_conditions":[6.271E-1,2.527E-1,8.4026664E-1,1.0953333E-1,4.0436667E-1,6.6326666E-1,8.821E-1,6.8E-2,1.9373333E-1,3.4573334E-1,6.488E-1,6.576E-1,6.923E-1,8.294E-1,9.1473335E-1,-3.7191208E-3,-3.3668207E-3,-3.0092886E-3,-2.5439465E-3,-2.0014234E-3,3.774E-1,-2.3631619E-4,9.119876E-4,6.538E-1,6.436E-1,6.7216665E-1,9.266E-1,8.604E-1,7.6444643E-3,7.9253735E-3,8.640519E-3,-1.677054E-3,-1.2651181E-3,1.3558473E-3,2.0271083E-3,2.0271083E-3,2.5920074E-3,2.8062805E-3,3.2369506E-3,3.8734667E-3,5.212195E-3,5.4304735E-3,7.050986E-3],"split_indices":[7,7,7,7,7,7,7,7,7,7,3,0,7,0,7,0,0,0,0,0,7,0,0,7,7,7,3,7,0,0,0,0,0,0,0,0,0,0,0,0,0,0,0],"split_type":[0,0,0,0,0,0,0,0,0,0,0,0,0,0,0,0,0,0,0,0,0,0,0,0,0,0,0,0,0,0,0,0,0,0,0,0,0,0,0,0,0,0,0],"sum_hessian":[2.5494E4,1.6658E4,8.836E3,7.486E3,9.172E3,5.634E3,3.202E3,5.374E3,2.112E3,8.481E3,6.91E2,2.819E3,2.815E3,9.82E2,2.22E3,1.003E3,4.371E3,1.194E3,9.18E2,4.22E3,4.261E3,2.43E2,4.48E2,1.707E3,1.112E3,2.323E3,4.92E2,4.84E2,4.98E2,1.714E3,5.06E2,3.375E3,8.86E2,1.107E3,6E2,3.59E2,7.53E2,9.07E2,1.416E3,4.62E2,3E1,9.8E1,3.86E2],"tree_param":{"num_deleted":"0","num_feature":"21","num_nodes":"43","size_leaf_vector":"1"}},{"base_weights":[-3.6374843E-4,-5.8028493E-2,1.05170436E-1,-7.8573495E-2,-4.1889314E-2,5.9599854E-2,1.8751892E-1,-3.2268926E-3,-2.4928348E-3,-4.3444563E-2,9.246831E-3,5.2642595E-2,7.3866256E-2,5.3916858E-3,1.8890192E-1,-4.8244487E-2,-3.8737673E-2,-6.839546E-4,6.929092E-4,3.997796E-2,5.8776364E-2,2.530177E-3,3.1353896E-3,7.339406E-3,7.918559E-3,-2.2370866E-3,-1.8287955E-3,-1.6198751E-3,-1.0970903E-3,1.3511335E-3,1.9750865E-3,1.9750865E-3,2.530177E-3],"categories":[],"categories_nodes":[],"categories_segments":[],"categories_sizes":[],"default_left":[0,0,0,0,0,0,0,0,0,0,0,0,0,0,0,0,0,0,0,0,0,0,0,0,0,0,0,0,0,0,0,0,0],"id":29,"left_children":[1,3,5,7,9,11,13,-1,-1,15,17,19,21,-1,23,25,27,-1,-1,29,31,-1,-1,-1,-1,-1,-1,-1,-1,-1,-1,-1,-1],"loss_changes":[1.5600185E2,5.491268E0,3.3969215E1,2.3962784E-1,7.448902E-1,5.7380486E-1,1.9180298E-1,0E0,0E0,2.0091248E-1,6.7860655E-2,3.011484E-1,1.14663124E-1,0E0,9.9853516E-2,8.294201E-2,8.83193E-2,0E0,0E0,1.0611296E-1,1.8557167E-1,0E0,0E0,0E0,0E0,0E0,0E0,0E0,0E0,0E0,0E0,0E0,0E0],"parents":[2147483647,0,0,1,1,2,2,3,3,4,4,5,5,6,6,9,9,10,10,11,11,12,12,14,14,15,15,16,16,19,19,20,20],"right_children":[2,4,6,8,10,12,14,-1,-1,16,18,20,22,-1,24,26,28,-1,-1,30,32,-1,-1,-1,-1,-1,-1,-1,-1,-1,-1,-1,-1],"split_conditions":[3.218112E-1,3.929952E-2,5.7514226E-1,2.945E-1,2.04864E-1,4.538009E-1,6.4632744E-1,-3.2268926E-3,-2.4928348E-3,2.599E-1,2.984E-1,6.29E-1,6.106E-1,5.3916858E-3,8.455E-1,4.062E-1,1.50858E-1,-6.839546E-4,6.929092E-4,7.553E-1,5.852E-1,2.530177E-3,3.1353896E-3,7.339406E-3,7.918559E-3,-2.2370866E-3,-1.8287955E-3,-1.6198751E-3,-1.0970903E-3,1.3511335E-3,1.9750865E-3,1.9750865E-3,2.530177E-3],"split_indices":[14,14,14,3,14,14,14,0,0,4,1,1,0,0,4,3,14,0,0,0,0,0,0,0,0,0,0,0,0,0,0,0,0],"split_type":[0,0,0,0,0,0,0,0,0,0,0,0,0,0,0,0,0,0,0,0,0,0,0,0,0,0,0,0,0,0,0,0,0],"sum_hessian":[2.5627E4,1.6573E4,9.054E3,7.286E3,9.287E3,5.831E3,3.223E3,6.442E3,8.44E2,9.015E3,2.72E2,3.929E3,1.902E3,8.8E1,3.135E3,4.446E3,4.569E3,5.7E1,2.15E2,1.291E3,2.638E3,4.44E2,1.458E3,1.989E3,1.146E3,1.082E3,3.364E3,3.943E3,6.26E2,9.24E2,3.67E2,7.04E2,1.934E3],"tree_param":{"num_deleted":"0","num_feature":"21","num_nodes":"33","size_leaf_vector":"1"}},{"base_weights":[1.7106488E-4,-5.4760337E-2,1.02547E-1,-7.508919E-2,-3.8028024E-2,5.853649E-2,1.7991832E-1,-3.1765827E-3,-6.5416954E-2,-4.1334968E-2,8.718073E-3,4.372291E-2,7.409181E-2,1.5409169E-1,1.838484E-1,-2.783747E-3,-2.3519597E-3,-1.8111529E-3,-1.411371E-3,-2.9079797E-4,7.633906E-4,3.811649E-2,2.3562943E-3,6.933151E-2,3.4688318E-3,5.4381266E-3,6.7588016E-3,7.1889437E-3,7.914505E-3,1.235552E-3,1.9161106E-3,2.3562943E-3,2.9052745E-3],"categories":[],"categories_nodes":[],"categories_segments":[],"categories_sizes":[],"default_left":[0,0,0,0,0,0,0,0,0,0,0,0,0,0,0,0,0,0,0,0,0,0,0,0,0,0,0,0,0,0,0,0,0],"id":30,"left_children":[1,3,5,7,9,11,13,-1,15,17,19,21,23,25,27,-1,-1,-1,-1,-1,-1,29,-1,31,-1,-1,-1,-1,-1,-1,-1,-1,-1],"loss_changes":[1.4331563E2,5.63591E0,3.0284859E1,3.0466843E-1,1.413023E0,1.3027878E0,2.826233E-1,0E0,5.7953835E-2,2.0026588E-1,1.0444555E-1,2.5408506E-1,1.5784168E-1,9.357643E-2,1.0877228E-1,0E0,0E0,0E0,0E0,0E0,0E0,1.5057015E-1,0E0,6.561756E-2,0E0,0E0,0E0,0E0,0E0,0E0,0E0,0E0,0E0],"parents":[2147483647,0,0,1,1,2,2,3,3,4,4,5,5,6,6,8,8,9,9,10,10,11,11,12,12,13,13,14,14,21,21,23,23],"right_children":[2,4,6,8,10,12,14,-1,16,18,20,22,24,26,28,-1,-1,-1,-1,-1,-1,30,-1,32,-1,-1,-1,-1,-1,-1,-1,-1,-1],"split_conditions":[6.2376666E-1,2.527E-1,5.7514226E-1,1.0673334E-1,4.0436667E-1,6.6326666E-1,8.674667E-1,-3.1765827E-3,1.9373333E-1,3.5326666E-1,2.496266E-1,7.386E-1,6.859667E-1,8.341E-1,9.123667E-1,-2.783747E-3,-2.3519597E-3,-1.8111529E-3,-1.411371E-3,-2.9079797E-4,7.633906E-4,6.5183336E-1,2.3562943E-3,5.955E-1,3.4688318E-3,5.4381266E-3,6.7588016E-3,7.1889437E-3,7.914505E-3,1.235552E-3,1.9161106E-3,2.3562943E-3,2.9052745E-3],"split_indices":[7,7,14,7,7,7,7,0,7,7,14,0,7,0,7,0,0,0,0,0,0,7,0,0,0,0,0,0,0,0,0,0,0],"split_type":[0,0,0,0,0,0,0,0,0,0,0,0,0,0,0,0,0,0,0,0,0,0,0,0,0,0,0,0,0,0,0,0,0],"sum_hessian":[2.5475E4,1.6579E4,8.896E3,7.48E3,9.099E3,5.673E3,3.223E3,5.154E3,2.326E3,8.5E3,5.99E2,2.912E3,2.761E3,4.37E2,2.786E3,1.408E3,9.18E2,5.13E3,3.37E3,2.32E2,3.67E2,2.155E3,7.57E2,2.018E3,7.43E2,2.16E2,2.21E2,2.174E3,6.12E2,1.249E3,9.06E2,4.82E2,1.536E3],"tree_param":{"num_deleted":"0","num_feature":"21","num_nodes":"33","size_leaf_vector":"1"}},{"base_weights":[1.6619028E-5,-5.204233E-2,9.9507965E-2,-7.193889E-2,-3.5695642E-2,5.7069484E-2,1.73772E-1,-7.604525E-2,-6.1875686E-2,-3.9176863E-2,5.672997E-4,4.3664448E-2,7.339098E-2,6.541843E-3,7.252848E-3,-3.2851105E-3,-2.9686827E-3,-2.6411344E-3,-2.224079E-3,-4.2290863E-2,-3.098334E-2,3.5562925E-2,5.5842042E-2,2.7943011E-3,3.6651648E-3,-1.823078E-3,-1.5667992E-3,-1.3320312E-3,-7.6635595E-4,1.0046355E-3,1.6576558E-3,1.8280993E-3,2.3411086E-3],"categories":[],"categories_nodes":[],"categories_segments":[],"categories_sizes":[],"default_left":[0,0,0,0,0,0,0,0,0,0,0,0,0,0,0,0,0,0,0,0,0,0,0,0,0,0,0,0,0,0,0,0,0],"id":31,"left_children":[1,3,5,7,9,11,13,15,17,19,-1,21,23,-1,-1,-1,-1,-1,-1,25,27,29,31,-1,-1,-1,-1,-1,-1,-1,-1,-1,-1],"loss_changes":[1.3262805E2,5.4623756E0,2.7705528E1,3.0539322E-1,1.6097946E0,1.2206001E0,2.0202637E-1,5.0956726E-2,5.1870346E-2,2.1775436E-1,0E0,3.0144072E-1,1.5423489E-1,0E0,0E0,0E0,0E0,0E0,0E0,6.1348915E-2,6.362486E-2,1.12178564E-1,7.052064E-2,0E0,0E0,0E0,0E0,0E0,0E0,0E0,0E0,0E0,0E0],"parents":[2147483647,0,0,1,1,2,2,3,3,4,4,5,5,6,6,7,7,8,8,9,9,11,11,12,12,19,19,20,20,21,21,22,22],"right_children":[2,4,6,8,10,12,14,16,18,20,-1,22,24,-1,-1,-1,-1,-1,-1,26,28,30,32,-1,-1,-1,-1,-1,-1,-1,-1,-1,-1],"split_conditions":[6.271E-1,2.577E-1,8.4026664E-1,1.0953333E-1,4.1743332E-1,6.662E-1,8.8963336E-1,7.0266664E-2,2.0243333E-1,3.62E-1,5.672997E-4,6.576E-1,6.9483334E-1,6.541843E-3,7.252848E-3,-3.2851105E-3,-2.9686827E-3,-2.6411344E-3,-2.224079E-3,3.348E-1,3.8963333E-1,6.461E-1,6.436E-1,2.7943011E-3,3.6651648E-3,-1.823078E-3,-1.5667992E-3,-1.3320312E-3,-7.6635595E-4,1.0046355E-3,1.6576558E-3,1.8280993E-3,2.3411086E-3],"split_indices":[7,7,7,7,7,7,7,7,7,7,0,0,7,0,0,0,0,0,0,7,7,7,7,0,0,0,0,0,0,0,0,0,0],"split_type":[0,0,0,0,0,0,0,0,0,0,0,0,0,0,0,0,0,0,0,0,0,0,0,0,0,0,0,0,0,0,0,0,0],"sum_hessian":[2.5597E4,1.6804E4,8.793E3,7.574E3,9.23E3,5.598E3,3.195E3,5.365E3,2.209E3,8.63E3,6E2,3.08E3,2.518E3,1.377E3,1.818E3,1.212E3,4.153E3,1.311E3,8.98E2,6.24E3,2.39E3,1.858E3,1.222E3,2.12E3,3.98E2,3.014E3,3.226E3,1.989E3,4.01E2,6.78E2,1.18E3,3.67E2,8.55E2],"tree_param":{"num_deleted":"0","num_feature":"21","num_nodes":"33","size_leaf_vector":"1"}},{"base_weights":[-4.9150396E-5,-5.1137462E-2,9.3212664E-2,-6.947474E-2,-3.695319E-2,5.282124E-2,1.6593054E-1,-2.8717306E-3,-2.3012399E-3,-3.8294453E-2,4.613093E-4,4.2315643E-2,6.080198E-2,4.7932076E-3,1.6724142E-1,-4.254463E-2,-3.384911E-2,3.0979797E-2,5.0607536E-2,5.1798258E-2,2.727829E-3,6.426047E-3,6.9323233E-3,-2.001979E-3,-1.6078589E-3,-1.3876398E-3,-7.207522E-4,1.0437504E-3,1.6317465E-3,1.6317465E-3,2.0623524E-3,2.0623524E-3,2.3998797E-3],"categories":[],"categories_nodes":[],"categories_segments":[],"categories_sizes":[],"default_left":[0,0,0,0,0,0,0,0,0,0,0,0,0,0,0,0,0,0,0,0,0,0,0,0,0,0,0,0,0,0,0,0,0],"id":32,"left_children":[1,3,5,7,9,11,13,-1,-1,15,-1,17,19,-1,21,23,25,27,29,31,-1,-1,-1,-1,-1,-1,-1,-1,-1,-1,-1,-1,-1],"loss_changes":[1.2157885E2,4.2839394E0,2.6508385E1,1.9179535E-1,6.1074734E-1,4.8280334E-1,1.6021729E-1,0E0,0E0,1.6885376E-1,0E0,2.339778E-1,2.1366215E-1,0E0,8.3221436E-2,7.874775E-2,5.67832E-2,5.0867558E-2,1.1139846E-1,8.879423E-2,0E0,0E0,0E0,0E0,0E0,0E0,0E0,0E0,0E0,0E0,0E0,0E0,0E0],"parents":[2147483647,0,0,1,1,2,2,3,3,4,4,5,5,6,6,9,9,11,11,12,12,14,14,15,15,16,16,17,17,18,18,19,19],"right_children":[2,4,6,8,10,12,14,-1,-1,16,-1,18,20,-1,22,24,26,28,30,32,-1,-1,-1,-1,-1,-1,-1,-1,-1,-1,-1,-1,-1],"split_conditions":[3.218112E-1,3.929952E-2,5.7514226E-1,1.315384E-2,3.846E-1,4.2679822E-1,6.4632744E-1,-2.8717306E-3,-2.3012399E-3,1.130178E-1,4.613093E-4,6.68E-1,6.29E-1,4.7932076E-3,7.953746E-1,2.671E-1,4.203E-1,7.386E-1,3.67236E-1,4.69459E-1,2.727829E-3,6.426047E-3,6.9323233E-3,-2.001979E-3,-1.6078589E-3,-1.3876398E-3,-7.207522E-4,1.0437504E-3,1.6317465E-3,1.6317465E-3,2.0623524E-3,2.0623524E-3,2.3998797E-3],"split_indices":[14,14,14,14,4,14,14,0,0,14,0,1,1,0,14,1,1,0,14,14,0,0,0,0,0,0,0,0,0,0,0,0,0],"split_type":[0,0,0,0,0,0,0,0,0,0,0,0,0,0,0,0,0,0,0,0,0,0,0,0,0,0,0,0,0,0,0,0,0],"sum_hessian":[2.5509E4,1.6482E4,9.027E3,7.183E3,9.299E3,5.806E3,3.221E3,6.002E3,1.181E3,9.051E3,2.48E2,2.516E3,3.29E3,9.5E1,3.126E3,4.609E3,4.442E3,1.071E3,1.445E3,1.495E3,1.795E3,1.526E3,1.6E3,1.081E3,3.528E3,4.21E3,2.32E2,7.28E2,3.43E2,6.41E2,8.04E2,9.22E2,5.73E2],"tree_param":{"num_deleted":"0","num_feature":"21","num_nodes":"33","size_leaf_vector":"1"}},{"base_weights":[5.8476464E-5,-4.929756E-2,8.933709E-2,-6.796419E-2,-3.6589686E-2,5.0470557E-2,1.5904565E-1,-2.7907663E-3,-2.4704563E-3,-3.771863E-2,2.4890286E-4,3.6800187E-2,5.6168832E-2,5.4267207E-3,1.6176009E-1,-1.8701801E-3,-3.5041228E-2,1.0789072E-3,4.2789083E-2,4.8212245E-2,6.347935E-2,5.9485626E-3,6.574344E-3,-1.4976412E-3,-1.2354625E-3,1.3952352E-3,1.8593803E-3,1.8593803E-3,2.233832E-3,2.469109E-3,3.3002528E-3],"categories":[],"categories_nodes":[],"categories_segments":[],"categories_sizes":[],"default_left":[0,0,0,0,0,0,0,0,0,0,0,0,0,0,0,0,0,0,0,0,0,0,0,0,0,0,0,0,0,0,0],"id":33,"left_children":[1,3,5,7,9,11,13,-1,-1,15,-1,17,19,-1,21,-1,23,-1,25,27,29,-1,-1,-1,-1,-1,-1,-1,-1,-1,-1],"loss_changes":[1.12536896E2,3.8970108E0,2.4620193E1,6.760025E-2,4.780779E-1,4.5098686E-1,1.7141724E-1,0E0,0E0,2.289629E-1,0E0,9.955835E-2,2.3461342E-1,0E0,6.087494E-2,0E0,7.160759E-2,0E0,6.974542E-2,8.139324E-2,6.5158844E-2,0E0,0E0,0E0,0E0,0E0,0E0,0E0,0E0,0E0,0E0],"parents":[2147483647,0,0,1,1,2,2,3,3,4,4,5,5,6,6,9,9,11,11,12,12,14,14,16,16,18,18,19,19,20,20],"right_children":[2,4,6,8,10,12,14,-1,-1,16,-1,18,20,-1,22,-1,24,-1,26,28,30,-1,-1,-1,-1,-1,-1,-1,-1,-1,-1],"split_conditions":[1E0,2.37978E-2,5.7514226E-1,8.34888E-3,2.04864E-1,5.955E-1,7.907E-1,-2.7907663E-3,-2.4704563E-3,7.739073E-2,2.4890286E-4,5.494E-1,4.3987155E-1,5.4267207E-3,7.2941285E-1,-1.8701801E-3,1.2811898E-1,1.0789072E-3,2.074E-1,4E0,5.094584E-1,5.9485626E-3,6.574344E-3,-1.4976412E-3,-1.2354625E-3,1.3952352E-3,1.8593803E-3,1.8593803E-3,2.233832E-3,2.469109E-3,3.3002528E-3],"split_indices":[8,14,14,14,14,0,0,0,0,14,0,4,14,0,14,0,14,0,6,20,14,0,0,0,0,0,0,0,0,0,0],"split_type":[0,0,0,0,0,0,0,0,0,0,0,0,0,0,0,0,0,0,0,0,0,0,0,0,0,0,0,0,0,0,0],"sum_hessian":[2.5529E4,1.644E4,9.089E3,6.653E3,9.787E3,5.838E3,3.251E3,5.129E3,1.524E3,9.538E3,2.49E2,1.726E3,4.112E3,3.5E2,2.901E3,2.166E3,7.372E3,6.63E2,1.063E3,1.981E3,2.131E3,5.02E2,2.399E3,4.65E3,2.722E3,4.14E2,6.49E2,1.396E3,5.85E2,1.962E3,1.69E2],"tree_param":{"num_deleted":"0","num_feature":"21","num_nodes":"31","size_leaf_vector":"1"}},{"base_weights":[2.2484748E-4,-4.613965E-2,8.854561E-2,-6.367902E-2,-3.16935E-2,5.074917E-2,1.5377206E-1,-2.7084434E-3,-2.2211396E-3,-3.500635E-2,8.8425595E-3,3.9570615E-2,6.676832E-2,5.828121E-3,6.4642625E-3,-1.5730829E-3,-3.0899521E-2,-2.3203205E-4,6.5373897E-4,3.1148067E-2,4.8270933E-2,2.5373371E-3,3.2862297E-3,-1.3084306E-3,-9.0174517E-4,8.4811926E-4,1.4763218E-3,1.6241896E-3,2.1267787E-3],"categories":[],"categories_nodes":[],"categories_segments":[],"categories_sizes":[],"default_left":[0,0,0,0,0,0,0,0,0,0,0,0,0,0,0,0,0,0,0,0,0,0,0,0,0,0,0,0,0],"id":34,"left_children":[1,3,5,7,9,11,13,-1,-1,15,17,19,21,-1,-1,-1,23,-1,-1,25,27,-1,-1,-1,-1,-1,-1,-1,-1],"loss_changes":[1.0466114E2,4.2424736E0,2.1677292E1,2.4247742E-1,1.2401066E0,9.943943E-1,1.6855621E-1,0E0,0E0,1.4905262E-1,8.002986E-2,2.3882341E-1,1.1061859E-1,0E0,0E0,0E0,6.449127E-2,0E0,0E0,9.8947525E-2,8.545494E-2,0E0,0E0,0E0,0E0,0E0,0E0,0E0,0E0],"parents":[2147483647,0,0,1,1,2,2,3,3,4,4,5,5,6,6,9,9,10,10,11,11,12,12,16,16,19,19,20,20],"right_children":[2,4,6,8,10,12,14,-1,-1,16,18,20,22,-1,-1,-1,24,-1,-1,26,28,-1,-1,-1,-1,-1,-1,-1,-1],"split_conditions":[6.271E-1,2.577E-1,8.4026664E-1,1.054E-1,4.0436667E-1,6.682E-1,8.932E-1,-2.7084434E-3,-2.2211396E-3,3.448E-1,2E0,6.343E-1,6.9483334E-1,5.828121E-3,6.4642625E-3,-1.5730829E-3,3.7896666E-1,-2.3203205E-4,6.5373897E-4,6.461E-1,6.538E-1,2.5373371E-3,3.2862297E-3,-1.3084306E-3,-9.0174517E-4,8.4811926E-4,1.4763218E-3,1.6241896E-3,2.1267787E-3],"split_indices":[7,7,7,7,7,7,7,0,0,7,12,0,7,0,0,0,7,0,0,7,7,0,0,0,0,0,0,0,0],"split_type":[0,0,0,0,0,0,0,0,0,0,0,0,0,0,0,0,0,0,0,0,0,0,0,0,0,0,0,0,0],"sum_hessian":[2.5548E4,1.6753E4,8.795E3,7.561E3,9.192E3,5.571E3,3.224E3,5.043E3,2.518E3,8.5E3,6.92E2,3.288E3,2.283E3,1.609E3,1.615E3,4.124E3,4.376E3,2.3E2,4.62E2,1.68E3,1.608E3,1.888E3,3.95E2,3.583E3,7.93E2,6.08E2,1.072E3,8.21E2,7.87E2],"tree_param":{"num_deleted":"0","num_feature":"21","num_nodes":"29","size_leaf_vector":"1"}},{"base_weights":[3.797637E-4,-4.5334745E-2,8.275369E-2,-6.1986018E-2,-3.3079848E-2,4.7219507E-2,1.4669882E-1,-2.5523081E-3,-2.0523581E-3,-3.4275778E-2,2.6596617E-4,3.851477E-2,5.4540265E-2,4.7093476E-3,1.4835794E-1,-1.7217933E-3,-3.230918E-2,1.1405732E-3,4.454144E-2,1.8611008E-3,5.8556404E-2,5.5769193E-3,6.0847807E-3,-1.3363415E-3,-9.0423826E-4,1.4611154E-3,1.8611008E-3,2.1016784E-3,2.5983374E-3],"categories":[],"categories_nodes":[],"categories_segments":[],"categories_sizes":[],"default_left":[0,0,0,0,0,0,0,0,0,0,0,0,0,0,0,0,0,0,0,0,0,0,0,0,0,0,0,0,0],"id":35,"left_children":[1,3,5,7,9,11,13,-1,-1,15,-1,17,19,-1,21,-1,23,-1,25,-1,27,-1,-1,-1,-1,-1,-1,-1,-1],"loss_changes":[9.655879E1,3.361187E0,2.0782295E1,1.300335E-1,4.5616722E-1,3.717022E-1,1.2805176E-1,0E0,0E0,1.5772438E-1,0E0,1.6039419E-1,1.3539028E-1,0E0,7.120514E-2,0E0,7.85718E-2,0E0,6.715846E-2,0E0,9.2912674E-2,0E0,0E0,0E0,0E0,0E0,0E0,0E0,0E0],"parents":[2147483647,0,0,1,1,2,2,3,3,4,4,5,5,6,6,9,9,11,11,12,12,14,14,16,16,18,18,20,20],"right_children":[2,4,6,8,10,12,14,-1,-1,16,-1,18,20,-1,22,-1,24,-1,26,-1,28,-1,-1,-1,-1,-1,-1,-1,-1],"split_conditions":[3.218112E-1,3.373E-1,5.7514226E-1,1.404345E-2,2.04864E-1,5.809E-1,6.6818494E-1,-2.5523081E-3,-2.0523581E-3,1.784E-1,2.6596617E-4,7.711E-1,6.941E-1,4.7093476E-3,8.564E-1,-1.7217933E-3,1.491048E-1,1.1405732E-3,5.433E-1,1.8611008E-3,6.113E-1,5.5769193E-3,6.0847807E-3,-1.3363415E-3,-9.0423826E-4,1.4611154E-3,1.8611008E-3,2.1016784E-3,2.5983374E-3],"split_indices":[14,3,14,14,14,4,14,0,0,4,0,3,3,0,1,0,14,0,4,0,4,0,0,0,0,0,0,0,0],"split_type":[0,0,0,0,0,0,0,0,0,0,0,0,0,0,0,0,0,0,0,0,0,0,0,0,0,0,0,0,0],"sum_hessian":[2.5631E4,1.6483E4,9.148E3,6.982E3,9.501E3,5.883E3,3.265E3,5.95E3,1.032E3,9.226E3,2.75E2,2.698E3,3.185E3,1.86E2,3.079E3,1.675E3,7.551E3,1.024E3,1.674E3,8.2E2,2.365E3,9.37E2,2.142E3,6.77E3,7.81E2,5.85E2,1.089E3,1.19E3,1.175E3],"tree_param":{"num_deleted":"0","num_feature":"21","num_nodes":"29","size_leaf_vector":"1"}},{"base_weights":[3.5591284E-4,-4.3866012E-2,7.853306E-2,-5.944065E-2,-3.2147083E-2,4.4044726E-2,1.4120097E-1,-2.447058E-3,-2.0193097E-3,-3.3272363E-2,-1.0700776E-2,3.9996214E-2,2.4112572E-3,4.873877E-3,1.4374126E-1,-1.5560348E-3,-1.2369334E-3,-8.794628E-4,3.4500965E-5,3.059678E-2,4.5212273E-2,5.644671E-3,6.1952393E-3,8.8032556E-4,1.4192619E-3,1.5403467E-3,2.001704E-3],"categories":[],"categories_nodes":[],"categories_segments":[],"categories_sizes":[],"default_left":[0,0,0,0,0,0,0,0,0,0,0,0,0,0,0,0,0,0,0,0,0,0,0,0,0,0,0],"id":36,"left_children":[1,3,5,7,9,11,13,-1,-1,15,17,19,-1,-1,21,-1,-1,-1,-1,23,25,-1,-1,-1,-1,-1,-1],"loss_changes":[8.860334E1,2.9841557E0,2.000185E1,1.0380173E-1,2.2294617E-1,3.9033318E-1,1.3352203E-1,0E0,0E0,1.1584377E-1,8.8187054E-2,2.3242426E-1,0E0,0E0,5.25589E-2,0E0,0E0,0E0,0E0,7.068133E-2,9.6380234E-2,0E0,0E0,0E0,0E0,0E0,0E0],"parents":[2147483647,0,0,1,1,2,2,3,3,4,4,5,5,6,6,9,9,10,10,11,11,14,14,19,19,20,20],"right_children":[2,4,6,8,10,12,14,-1,-1,16,18,20,-1,-1,22,-1,-1,-1,-1,24,26,-1,-1,-1,-1,-1,-1],"split_conditions":[3.078586E-1,3.366441E-2,5.7514226E-1,1.18092E-2,1.6839962E-1,4.69459E-1,7.945E-1,-2.447058E-3,-2.0193097E-3,8.831648E-2,2.97E-1,6.034E-1,2.4112572E-3,4.873877E-3,8.4279466E-1,-1.5560348E-3,-1.2369334E-3,-8.794628E-4,3.4500965E-5,5.494E-1,4.2280614E-1,5.644671E-3,6.1952393E-3,8.8032556E-4,1.4192619E-3,1.5403467E-3,2.001704E-3],"split_indices":[14,14,14,14,14,14,0,0,0,14,4,0,0,0,14,0,0,0,0,4,14,0,0,0,0,0,0],"split_type":[0,0,0,0,0,0,0,0,0,0,0,0,0,0,0,0,0,0,0,0,0,0,0,0,0,0,0],"sum_hessian":[2.5618E4,1.6362E4,9.256E3,7.019E3,9.343E3,5.973E3,3.283E3,5.863E3,1.156E3,8.872E3,4.71E2,4.79E3,1.183E3,3.94E2,2.889E3,2.593E3,6.279E3,2E2,2.71E2,1.72E3,3.07E3,2.362E3,5.27E2,6.34E2,1.086E3,1.3E3,1.77E3],"tree_param":{"num_deleted":"0","num_feature":"21","num_nodes":"27","size_leaf_vector":"1"}},{"base_weights":[6.5670974E-5,-4.097638E-2,7.784654E-2,-5.649812E-2,-2.8046975E-2,4.4754457E-2,1.3613468E-1,-2.4108223E-3,-1.9806637E-3,-3.114207E-2,4.719876E-3,3.2393254E-2,5.7187982E-2,4.9901837E-3,1.4102052E-1,-1.4261222E-3,-1.1212623E-3,-4.4511436E-4,4.3987788E-4,2.732178E-2,1.7916247E-3,2.0996556E-3,2.7591228E-3,5.512303E-3,6.1883405E-3,7.6695404E-4,1.3180979E-3],"categories":[],"categories_nodes":[],"categories_segments":[],"categories_sizes":[],"default_left":[0,0,0,0,0,0,0,0,0,0,0,0,0,0,0,0,0,0,0,0,0,0,0,0,0,0,0],"id":37,"left_children":[1,3,5,7,9,11,13,-1,-1,15,17,19,21,-1,23,-1,-1,-1,-1,25,-1,-1,-1,-1,-1,-1,-1],"loss_changes":[8.200216E1,3.3711243E0,1.7103474E1,1.9624901E-1,9.3507624E-1,8.673639E-1,1.5147018E-1,0E0,0E0,1.1632919E-1,8.2288295E-2,1.9520211E-1,1.5123653E-1,0E0,6.707382E-2,0E0,0E0,0E0,0E0,9.452546E-2,0E0,0E0,0E0,0E0,0E0,0E0,0E0],"parents":[2147483647,0,0,1,1,2,2,3,3,4,4,5,5,6,6,9,9,10,10,11,11,12,12,14,14,19,19],"right_children":[2,4,6,8,10,12,14,-1,-1,16,18,20,22,-1,24,-1,-1,-1,-1,26,-1,-1,-1,-1,-1,-1,-1],"split_conditions":[6.271E-1,2.577E-1,8.4026664E-1,1.0293333E-1,3.9766666E-1,6.6326666E-1,8.821E-1,-2.4108223E-3,-1.9806637E-3,3.3866668E-1,4.424E-1,7.326E-1,6.859667E-1,4.9901837E-3,9.178E-1,-1.4261222E-3,-1.1212623E-3,-4.4511436E-4,4.3987788E-4,6.474E-1,1.7916247E-3,2.0996556E-3,2.7591228E-3,5.512303E-3,6.1883405E-3,7.6695404E-4,1.3180979E-3],"split_indices":[7,7,7,7,7,7,7,0,0,7,0,0,7,0,7,0,0,0,0,7,0,0,0,0,0,0,0],"split_type":[0,0,0,0,0,0,0,0,0,0,0,0,0,0,0,0,0,0,0,0,0,0,0,0,0,0,0],"sum_hessian":[2.5676E4,1.6807E4,8.869E3,7.632E3,9.175E3,5.66E3,3.209E3,4.938E3,2.694E3,8.386E3,7.89E2,2.845E3,2.815E3,9.82E2,2.227E3,3.403E3,4.983E3,2.19E2,5.7E2,2.085E3,7.6E2,2.025E3,7.9E2,1.823E3,4.04E2,8.62E2,1.223E3],"tree_param":{"num_deleted":"0","num_feature":"21","num_nodes":"27","size_leaf_vector":"1"}},{"base_weights":[1.21023084E-4,-3.9859787E-2,7.357685E-2,-5.4201074E-2,-2.8236084E-2,4.1551173E-2,1.2986968E-1,-2.249658E-3,-1.7445616E-3,-2.9689398E-2,4.4162513E-4,3.239393E-2,4.732575E-2,3.6097025E-3,1.3118778E-1,-1.3170447E-3,-2.6416287E-2,1.0279124E-3,1.5943935E-3,4.2529825E-2,2.325599E-3,5.1146345E-3,5.62434E-3,-1.0895513E-3,-4.5134127E-4,1.5943935E-3,2.013396E-3],"categories":[],"categories_nodes":[],"categories_segments":[],"categories_sizes":[],"default_left":[0,0,0,0,0,0,0,0,0,0,0,0,0,0,0,0,0,0,0,0,0,0,0,0,0,0,0],"id":38,"left_children":[1,3,5,7,9,11,13,-1,-1,15,-1,17,19,-1,21,-1,23,-1,-1,25,-1,-1,-1,-1,-1,-1,-1],"loss_changes":[7.519109E1,2.7605896E0,1.6258446E1,1.5560722E-1,5.2775E-1,3.0160236E-1,1.4918137E-1,0E0,0E0,9.230709E-2,0E0,1.9221568E-1,1.7937803E-1,0E0,7.248688E-2,0E0,5.307865E-2,0E0,0E0,1.2319803E-1,0E0,0E0,0E0,0E0,0E0,0E0,0E0],"parents":[2147483647,0,0,1,1,2,2,3,3,4,4,5,5,6,6,9,9,11,11,12,12,14,14,16,16,19,19],"right_children":[2,4,6,8,10,12,14,-1,-1,16,-1,18,20,-1,22,-1,24,-1,-1,26,-1,-1,-1,-1,-1,-1,-1],"split_conditions":[3.298363E-1,4.491261E-2,8.854E-1,2.72E-1,3.846E-1,4.2280614E-1,6.4632744E-1,-2.249658E-3,-1.7445616E-3,1.130178E-1,4.4162513E-4,7.797E-1,6.623E-1,3.6097025E-3,8.653E-1,-1.3170447E-3,4.203E-1,1.0279124E-3,1.5943935E-3,4.69459E-1,2.325599E-3,5.1146345E-3,5.62434E-3,-1.0895513E-3,-4.5134127E-4,1.5943935E-3,2.013396E-3],"split_indices":[14,14,3,3,4,14,14,0,0,14,0,1,1,0,4,0,1,0,0,14,0,0,0,0,0,0,0],"split_type":[0,0,0,0,0,0,0,0,0,0,0,0,0,0,0,0,0,0,0,0,0,0,0,0,0,0,0],"sum_hessian":[2.5591E4,1.6571E4,9.02E3,7.412E3,9.159E3,5.752E3,3.268E3,6.201E3,1.211E3,8.835E3,3.24E2,2.235E3,3.517E3,1.11E2,3.157E3,4.42E3,4.415E3,1.597E3,6.38E2,2.448E3,1.069E3,2.358E3,7.99E2,4.18E3,2.35E2,1.594E3,8.54E2],"tree_param":{"num_deleted":"0","num_feature":"21","num_nodes":"27","size_leaf_vector":"1"}},{"base_weights":[2.3687456E-4,-3.844513E-2,7.046195E-2,-5.2770987E-2,-2.7909031E-2,4.014096E-2,1.2480093E-1,-2.161373E-3,-1.7091553E-3,-2.92612E-2,-3.6505848E-4,2.919204E-2,4.4981748E-2,3.2988377E-3,1.2631938E-1,-1.4794976E-3,-1.108776E-3,-5.925251E-4,4.2050896E-4,8.262769E-4,1.4207425E-3,4.083605E-2,2.2166655E-3,4.9264533E-3,5.3975605E-3,1.4834757E-3,1.9250539E-3],"categories":[],"categories_nodes":[],"categories_segments":[],"categories_sizes":[],"default_left":[0,0,0,0,0,0,0,0,0,0,0,0,0,0,0,0,0,0,0,0,0,0,0,0,0,0,0],"id":39,"left_children":[1,3,5,7,9,11,13,-1,-1,15,17,19,21,-1,23,-1,-1,-1,-1,-1,-1,25,-1,-1,-1,-1,-1],"loss_changes":[6.9427414E1,2.4846573E0,1.4947784E1,8.415604E-2,3.511653E-1,3.063383E-1,1.9024658E-1,0E0,0E0,1.0690594E-1,7.7029996E-2,9.5739484E-2,1.7168045E-1,0E0,6.085968E-2,0E0,0E0,0E0,0E0,0E0,0E0,1.2855434E-1,0E0,0E0,0E0,0E0,0E0],"parents":[2147483647,0,0,1,1,2,2,3,3,4,4,5,5,6,6,9,9,10,10,11,11,12,12,14,14,21,21],"right_children":[2,4,6,8,10,12,14,-1,-1,16,18,20,22,-1,24,-1,-1,-1,-1,-1,-1,26,-1,-1,-1,-1,-1],"split_conditions":[5.06E-1,3.373E-1,8.854E-1,9.22E-2,3.648E-1,5.992E-1,7.596E-1,-2.161373E-3,-1.7091553E-3,1.635E-1,7.42E-2,7.841E-1,7.821E-1,3.2988377E-3,8.653E-1,-1.4794976E-3,-1.108776E-3,-5.925251E-4,4.2050896E-4,8.262769E-4,1.4207425E-3,6.399E-1,2.2166655E-3,4.9264533E-3,5.3975605E-3,1.4834757E-3,1.9250539E-3],"split_indices":[4,3,3,4,4,0,0,0,0,4,6,3,3,0,4,0,0,0,0,0,0,4,0,0,0,0,0],"split_type":[0,0,0,0,0,0,0,0,0,0,0,0,0,0,0,0,0,0,0,0,0,0,0,0,0,0,0],"sum_hessian":[2.5546E4,1.6472E4,9.074E3,6.974E3,9.498E3,5.827E3,3.247E3,6.18E3,7.94E2,9.05E3,4.48E2,1.796E3,4.031E3,1.17E2,3.13E3,1.489E3,7.561E3,1.95E2,2.53E2,7.74E2,1.022E3,2.897E3,1.134E3,2.316E3,8.14E2,1.894E3,1.003E3],"tree_param":{"num_deleted":"0","num_feature":"21","num_nodes":"27","size_leaf_vector":"1"}},{"base_weights":[1.7271239E-4,-3.675644E-2,6.7958996E-2,-5.0682306E-2,-2.6571516E-2,3.8543988E-2,1.2002365E-1,-2.0922737E-3,-1.7090983E-3,-2.7950682E-2,2.9636986E-4,3.519619E-2,2.0590562E-3,3.2851386E-3,1.2108974E-1,-1.2654216E-3,-2.4732053E-2,2.716947E-2,4.152324E-2,4.7385455E-3,5.240683E-3,-1.0349127E-3,-6.1959017E-4,7.5429416E-4,1.2764372E-3,1.3738542E-3,1.7334518E-3],"categories":[],"categories_nodes":[],"categories_segments":[],"categories_sizes":[],"default_left":[0,0,0,0,0,0,0,0,0,0,0,0,0,0,0,0,0,0,0,0,0,0,0,0,0,0,0],"id":40,"left_children":[1,3,5,7,9,11,13,-1,-1,15,-1,17,-1,-1,19,-1,21,23,25,-1,-1,-1,-1,-1,-1,-1,-1],"loss_changes":[6.420336E1,2.3521595E0,1.3843765E1,8.653259E-2,4.5367622E-1,2.4855232E-1,1.1319733E-1,0E0,0E0,1.0824156E-1,0E0,2.3192787E-1,0E0,0E0,6.0028076E-2,0E0,5.0709248E-2,7.9159856E-2,1.0956335E-1,0E0,0E0,0E0,0E0,0E0,0E0,0E0,0E0],"parents":[2147483647,0,0,1,1,2,2,3,3,4,4,5,5,6,6,9,9,11,11,14,14,16,16,17,17,18,18],"right_children":[2,4,6,8,10,12,14,-1,-1,16,-1,18,-1,-1,20,-1,22,24,26,-1,-1,-1,-1,-1,-1,-1,-1],"split_conditions":[3.298363E-1,3.373E-1,5.7514226E-1,1.244556E-2,2.04864E-1,4.69459E-1,6.4632744E-1,-2.0922737E-3,-1.7090983E-3,2.523E-1,2.9636986E-4,6.461E-1,2.0590562E-3,3.2851386E-3,8.377E-1,-1.2654216E-3,1.5260845E-1,4.2280614E-1,3.7121025E-1,4.7385455E-3,5.240683E-3,-1.0349127E-3,-6.1959017E-4,7.5429416E-4,1.2764372E-3,1.3738542E-3,1.7334518E-3],"split_indices":[14,3,14,14,14,14,14,0,0,4,0,1,0,0,14,0,14,14,14,0,0,0,0,0,0,0,0],"split_type":[0,0,0,0,0,0,0,0,0,0,0,0,0,0,0,0,0,0,0,0,0,0,0,0,0,0,0],"sum_hessian":[2.5635E4,1.6594E4,9.041E3,7.003E3,9.591E3,5.78E3,3.261E3,5.798E3,1.205E3,9.22E3,3.71E2,4.602E3,1.178E3,9.5E1,3.166E3,4.278E3,4.942E3,2.039E3,2.563E3,2.527E3,6.39E2,4.387E3,5.55E2,7.51E2,1.288E3,6.58E2,1.905E3],"tree_param":{"num_deleted":"0","num_feature":"21","num_nodes":"27","size_leaf_vector":"1"}},{"base_weights":[4.009176E-4,-3.524075E-2,6.531766E-2,-4.797574E-2,-2.5007308E-2,3.703894E-2,1.15256846E-1,-1.9973537E-3,-1.5756926E-3,-2.6341774E-2,2.9723876E-4,3.3689853E-2,2.0011454E-3,3.1012807E-3,1.16284505E-1,-1.1506582E-3,-8.9876127E-4,8.177892E-4,3.716897E-2,4.5479867E-3,5.0458866E-3,1.252208E-3,1.6743698E-3],"categories":[],"categories_nodes":[],"categories_segments":[],"categories_sizes":[],"default_left":[0,0,0,0,0,0,0,0,0,0,0,0,0,0,0,0,0,0,0,0,0,0,0],"id":41,"left_children":[1,3,5,7,9,11,13,-1,-1,15,-1,17,-1,-1,19,-1,-1,-1,21,-1,-1,-1,-1],"loss_changes":[5.9574085E1,2.163702E0,1.2880123E1,1.2069893E-1,4.03028E-1,2.51997E-1,1.105957E-1,0E0,0E0,8.20694E-2,0E0,2.1190977E-1,0E0,0E0,6.088257E-2,0E0,0E0,0E0,1.1110449E-1,0E0,0E0,0E0,0E0],"parents":[2147483647,0,0,1,1,2,2,3,3,4,4,5,5,6,6,9,9,11,11,14,14,18,18],"right_children":[2,4,6,8,10,12,14,-1,-1,16,-1,18,-1,-1,20,-1,-1,-1,22,-1,-1,-1,-1],"split_conditions":[3.298363E-1,4.491261E-2,5.7514226E-1,2.616E-1,2.04864E-1,4.69459E-1,6.4632744E-1,-1.9973537E-3,-1.5756926E-3,1.22049E-1,2.9723876E-4,6.037E-1,2.0011454E-3,3.1012807E-3,8.377E-1,-1.1506582E-3,-8.9876127E-4,8.177892E-4,4.188024E-1,4.5479867E-3,5.0458866E-3,