{"learner":{"attributes":{"best_iteration":"379","best_score":"0.17639509667342063","scikit_learn":"{\"_estimator_type\": \"classifier\"}"},"feature_names":[],"feature_types":[],"gradient_booster":{"model":{"gbtree_model_param":{"num_parallel_tree":"1","num_trees":"1640"},"iteration_indptr":[0,4,8,12,16,20,24,28,32,36,40,44,48,52,56,60,64,68,72,76,80,84,88,92,96,100,104,108,112,116,120,124,128,132,136,140,144,148,152,156,160,164,168,172,176,180,184,188,192,196,200,204,208,212,216,220,224,228,232,236,240,244,248,252,256,260,264,268,272,276,280,284,288,292,296,300,304,308,312,316,320,324,328,332,336,340,344,348,352,356,360,364,368,372,376,380,384,388,392,396,400,404,408,412,416,420,424,428,432,436,440,444,448,452,456,460,464,468,472,476,480,484,488,492,496,500,504,508,512,516,520,524,528,532,536,540,544,548,552,556,560,564,568,572,576,580,584,588,592,596,600,604,608,612,616,620,624,628,632,636,640,644,648,652,656,660,664,668,672,676,680,684,688,692,696,700,704,708,712,716,720,724,728,732,736,740,744,748,752,756,760,764,768,772,776,780,784,788,792,796,800,804,808,812,816,820,824,828,832,836,840,844,848,852,856,860,864,868,872,876,880,884,888,892,896,900,904,908,912,916,920,924,928,932,936,940,944,948,952,956,960,964,968,972,976,980,984,988,992,996,1000,1004,1008,1012,1016,1020,1024,1028,1032,1036,1040,1044,1048,1052,1056,1060,1064,1068,1072,1076,1080,1084,1088,1092,1096,1100,1104,1108,1112,1116,1120,1124,1128,1132,1136,1140,1144,1148,1152,1156,1160,1164,1168,1172,1176,1180,1184,1188,1192,1196,1200,1204,1208,1212,1216,1220,1224,1228,1232,1236,1240,1244,1248,1252,1256,1260,1264,1268,1272,1276,1280,1284,1288,1292,1296,1300,1304,1308,1312,1316,1320,1324,1328,1332,1336,1340,1344,1348,1352,1356,1360,1364,1368,1372,1376,1380,1384,1388,1392,1396,1400,1404,1408,1412,1416,1420,1424,1428,1432,1436,1440,1444,1448,1452,1456,1460,1464,1468,1472,1476,1480,1484,1488,1492,1496,1500,1504,1508,1512,1516,1520,1524,1528,1532,1536,1540,1544,1548,1552,1556,1560,1564,1568,1572,1576,1580,1584,1588,1592,1596,1600,1604,1608,1612,1616,1620,1624,1628,1632,1636,1640],"tree_info":[0,1,2,3,0,1,2,3,0,1,2,3,0,1,2,3,0,1,2,3,0,1,2,3,0,1,2,3,0,1,2,3,0,1,2,3,0,1,2,3,0,1,2,3,0,1,2,3,0,1,2,3,0,1,2,3,0,1,2,3,0,1,2,3,0,1,2,3,0,1,2,3,0,1,2,3,0,1,2,3,0,1,2,3,0,1,2,3,0,1,2,3,0,1,2,3,0,1,2,3,0,1,2,3,0,1,2,3,0,1,2,3,0,1,2,3,0,1,2,3,0,1,2,3,0,1,2,3,0,1,2,3,0,1,2,3,0,1,2,3,0,1,2,3,0,1,2,3,0,1,2,3,0,1,2,3,0,1,2,3,0,1,2,3,0,1,2,3,0,1,2,3,0,1,2,3,0,1,2,3,0,1,2,3,0,1,2,3,0,1,2,3,0,1,2,3,0,1,2,3,0,1,2,3,0,1,2,3,0,1,2,3,0,1,2,3,0,1,2,3,0,1,2,3,0,1,2,3,0,1,2,3,0,1,2,3,0,1,2,3,0,1,2,3,0,1,2,3,0,1,2,3,0,1,2,3,0,1,2,3,0,1,2,3,0,1,2,3,0,1,2,3,0,1,2,3,0,1,2,3,0,1,2,3,0,1,2,3,0,1,2,3,0,1,2,3,0,1,2,3,0,1,2,3,0,1,2,3,0,1,2,3,0,1,2,3,0,1,2,3,0,1,2,3,0,1,2,3,0,1,2,3,0,1,2,3,0,1,2,3,0,1,2,3,0,1,2,3,0,1,2,3,0,1,2,3,0,1,2,3,0,1,2,3,0,1,2,3,0,1,2,3,0,1,2,3,0,1,2,3,0,1,2,3,0,1,2,3,0,1,2,3,0,1,2,3,0,1,2,3,0,1,2,3,0,1,2,3,0,1,2,3,0,1,2,3,0,1,2,3,0,1,2,3,0,1,2,3,0,1,2,3,0,1,2,3,0,1,2,3,0,1,2,3,0,1,2,3,0,1,2,3,0,1,2,3,0,1,2,3,0,1,2,3,0,1,2,3,0,1,2,3,0,1,2,3,0,1,2,3,0,1,2,3,0,1,2,3,0,1,2,3,0,1,2,3,0,1,2,3,0,1,2,3,0,1,2,3,0,1,2,3,0,1,2,3,0,1,2,3,0,1,2,3,0,1,2,3,0,1,2,3,0,1,2,3,0,1,2,3,0,1,2,3,0,1,2,3,0,1,2,3,0,1,2,3,0,1,2,3,0,1,2,3,0,1,2,3,0,1,2,3,0,1,2,3,0,1,2,3,0,1,2,3,0,1,2,3,0,1,2,3,0,1,2,3,0,1,2,3,0,1,2,3,0,1,2,3,0,1,2,3,0,1,2,3,0,1,2,3,0,1,2,3,0,1,2,3,0,1,2,3,0,1,2,3,0,1,2,3,0,1,2,3,0,1,2,3,0,1,2,3,0,1,2,3,0,1,2,3,0,1,2,3,0,1,2,3,0,1,2,3,0,1,2,3,0,1,2,3,0,1,2,3,0,1,2,3,0,1,2,3,0,1,2,3,0,1,2,3,0,1,2,3,0,1,2,3,0,1,2,3,0,1,2,3,0,1,2,3,0,1,2,3,0,1,2,3,0,1,2,3,0,1,2,3,0,1,2,3,0,1,2,3,0,1,2,3,0,1,2,3,0,1,2,3,0,1,2,3,0,1,2,3,0,1,2,3,0,1,2,3,0,1,2,3,0,1,2,3,0,1,2,3,0,1,2,3,0,1,2,3,0,1,2,3,0,1,2,3,0,1,2,3,0,1,2,3,0,1,2,3,0,1,2,3,0,1,2,3,0,1,2,3,0,1,2,3,0,1,2,3,0,1,2,3,0,1,2,3,0,1,2,3,0,1,2,3,0,1,2,3,0,1,2,3,0,1,2,3,0,1,2,3,0,1,2,3,0,1,2,3,0,1,2,3,0,1,2,3,0,1,2,3,0,1,2,3,0,1,2,3,0,1,2,3,0,1,2,3,0,1,2,3,0,1,2,3,0,1,2,3,0,1,2,3,0,1,2,3,0,1,2,3,0,1,2,3,0,1,2,3,0,1,2,3,0,1,2,3,0,1,2,3,0,1,2,3,0,1,2,3,0,1,2,3,0,1,2,3,0,1,2,3,0,1,2,3,0,1,2,3,0,1,2,3,0,1,2,3,0,1,2,3,0,1,2,3,0,1,2,3,0,1,2,3,0,1,2,3,0,1,2,3,0,1,2,3,0,1,2,3,0,1,2,3,0,1,2,3,0,1,2,3,0,1,2,3,0,1,2,3,0,1,2,3,0,1,2,3,0,1,2,3,0,1,2,3,0,1,2,3,0,1,2,3,0,1,2,3,0,1,2,3,0,1,2,3,0,1,2,3,0,1,2,3,0,1,2,3,0,1,2,3,0,1,2,3,0,1,2,3,0,1,2,3,0,1,2,3,0,1,2,3,0,1,2,3,0,1,2,3,0,1,2,3,0,1,2,3,0,1,2,3,0,1,2,3,0,1,2,3,0,1,2,3,0,1,2,3,0,1,2,3,0,1,2,3,0,1,2,3,0,1,2,3,0,1,2,3,0,1,2,3,0,1,2,3,0,1,2,3,0,1,2,3,0,1,2,3,0,1,2,3,0,1,2,3,0,1,2,3,0,1,2,3,0,1,2,3,0,1,2,3,0,1,2,3,0,1,2,3,0,1,2,3,0,1,2,3,0,1,2,3,0,1,2,3,0,1,2,3,0,1,2,3,0,1,2,3,0,1,2,3,0,1,2,3,0,1,2,3,0,1,2,3,0,1,2,3,0,1,2,3,0,1,2,3,0,1,2,3,0,1,2,3,0,1,2,3,0,1,2,3,0,1,2,3,0,1,2,3,0,1,2,3,0,1,2,3,0,1,2,3,0,1,2,3,0,1,2,3,0,1,2,3,0,1,2,3,0,1,2,3,0,1,2,3,0,1,2,3,0,1,2,3,0,1,2,3,0,1,2,3,0,1,2,3,0,1,2,3,0,1,2,3,0,1,2,3,0,1,2,3,0,1,2,3,0,1,2,3,0,1,2,3,0,1,2,3,0,1,2,3,0,1,2,3,0,1,2,3,0,1,2,3,0,1,2,3,0,1,2,3,0,1,2,3,0,1,2,3,0,1,2,3,0,1,2,3,0,1,2,3,0,1,2,3,0,1,2,3,0,1,2,3,0,1,2,3,0,1,2,3,0,1,2,3,0,1,2,3,0,1,2,3,0,1,2,3,0,1,2,3,0,1,2,3,0,1,2,3,0,1,2,3,0,1,2,3,0,1,2,3,0,1,2,3,0,1,2,3,0,1,2,3,0,1,2,3,0,1,2,3,0,1,2,3,0,1,2,3,0,1,2,3,0,1,2,3,0,1,2,3,0,1,2,3,0,1,2,3,0,1,2,3,0,1,2,3,0,1,2,3,0,1,2,3,0,1,2,3,0,1,2,3,0,1,2,3,0,1,2,3,0,1,2,3,0,1,2,3,0,1,2,3,0,1,2,3,0,1,2,3,0,1,2,3,0,1,2,3,0,1,2,3,0,1,2,3,0,1,2,3,0,1,2,3,0,1,2,3,0,1,2,3,0,1,2,3,0,1,2,3,0,1,2,3,0,1,2,3,0,1,2,3,0,1,2,3],"trees":[{"base_weights":[-1.8964718E-4,1.7040116E0,-6.055003E-1,1.7776357E0,1.8624797E-1,6.6177E-2,-6.54861E-1,1.8338461E0,7.3924917E-1,7.130754E-1,-2.4137977E-1,-1.8883179E-1,1.0765764E0,-7.24453E-2,-6.576557E-1,1.8805058E0,1.2894026E0,9.52079E-1,1.9666806E-1,9.2998815E-1,-1.239288E-2,-2.3501977E-2,2.3847674E-1,8.7480836E-2,-4.2086083E-1,5.949479E-2,1.6817422E-1,2.914871E-2,-1.51002435E-2,-5.556771E-1,-2.7132012E-2,7.917803E-2,1.6815403E0,7.003544E-2,6.074783E-1,4.5331795E-2,4.0237504E-1,2.4158277E-2,-6.3464027E-3,-0E0,1.1706009E0,8.37094E-1,-4.459632E-3,4.7723463E-1,-1.5946844E-1,-4.7826895E-1,9.7847255E-3,8.3128715E-1,-6.8238606E-3,-5.905323E-1,-1.2049273E-1,5.0639328E-2,7.225198E-2,2.8253018E-3,3.5757482E-2,2.3034435E-2,-0E0,-9.351705E-3,1.9997865E-2,-0E0,5.4551516E-2,5.1639475E-2,8.620045E-3,-2.6787394E-3,2.9491963E-2,-9.84027E-3,2.5005212E-2,-2.1460949E-2,-5.8871186E-3,2.3490205E-2,-1.1535264E-2,6.273615E-2,-9.915917E-3,-1.1957837E-2,-2.5746236E-2,1.3137705E-2,-1.6506603E-2],"categories":[],"categories_nodes":[],"categories_segments":[],"categories_sizes":[],"default_left":[0,0,0,0,0,0,0,0,0,0,0,0,0,0,0,0,0,0,0,0,0,0,0,0,0,0,0,0,0,0,0,0,0,0,0,0,0,0,0,0,0,0,0,0,0,0,0,0,0,0,0,0,0,0,0,0,0,0,0,0,0,0,0,0,0,0,0,0,0,0,0,0,0,0,0,0,0],"id":0,"left_children":[1,3,5,7,9,11,13,15,17,19,21,23,25,27,29,31,33,35,37,39,-1,-1,41,43,45,-1,47,-1,-1,49,-1,-1,51,-1,53,-1,55,-1,57,-1,59,61,-1,63,65,67,69,71,-1,73,75,-1,-1,-1,-1,-1,-1,-1,-1,-1,-1,-1,-1,-1,-1,-1,-1,-1,-1,-1,-1,-1,-1,-1,-1,-1,-1],"loss_changes":[1.270344E4,3.58458E2,3.0186646E2,1.7509961E2,3.489783E1,1.6151862E2,1.3101318E1,6.718652E1,1.741037E1,1.6302185E1,1.4026264E1,3.2268723E1,4.1840942E1,1.0432969E1,3.9326172E0,2.1988281E1,6.503351E1,7.9001236E0,4.4031568E0,1.3671135E1,0E0,0E0,8.009756E0,2.226413E1,7.1302567E0,0E0,9.663658E0,0E0,0E0,7.234558E0,0E0,0E0,1.746521E1,0E0,1.2767303E1,0E0,1.7624516E0,0E0,3.5985327E0,0E0,8.471573E0,2.0283556E0,0E0,1.2554157E1,8.701844E0,3.1293068E0,5.8390365E0,1.2706837E1,0E0,4.62323E0,5.6664767E0,0E0,0E0,0E0,0E0,0E0,0E0,0E0,0E0,0E0,0E0,0E0,0E0,0E0,0E0,0E0,0E0,0E0,0E0,0E0,0E0,0E0,0E0,0E0,0E0,0E0,0E0],"parents":[2147483647,0,0,1,1,2,2,3,3,4,4,5,5,6,6,7,7,8,8,9,9,10,10,11,11,12,12,13,13,14,14,15,15,16,16,17,17,18,18,19,19,22,22,23,23,24,24,26,26,29,29,32,32,34,34,36,36,38,38,40,40,41,41,43,43,44,44,45,45,46,46,47,47,49,49,50,50],"right_children":[2,4,6,8,10,12,14,16,18,20,22,24,26,28,30,32,34,36,38,40,-1,-1,42,44,46,-1,48,-1,-1,50,-1,-1,52,-1,54,-1,56,-1,58,-1,60,62,-1,64,66,68,70,72,-1,74,76,-1,-1,-1,-1,-1,-1,-1,-1,-1,-1,-1,-1,-1,-1,-1,-1,-1,-1,-1,-1,-1,-1,-1,-1,-1,-1],"split_conditions":[3.3999E0,2E0,3E0,4E0,2E0,5E0,4.222E-1,1E0,4.429E-1,3E0,7E0,3.9998E0,4.5E0,3E0,5.2E0,1.9E0,4.375E-1,5E0,2E-2,2E0,-1.239288E-2,-2.3501977E-2,4.957686E-2,1E0,5.556E-1,5.949479E-2,1E0,2.914871E-2,-1.51002435E-2,5E0,-2.7132012E-2,7.917803E-2,2E0,7.003544E-2,2E0,4.5331795E-2,9E0,2.4158277E-2,4.375E-1,-0E0,2.4003E0,3E0,-4.459632E-3,1E0,5E0,4E0,1E0,6E0,-6.8238606E-3,2E0,5E0,5.0639328E-2,7.225198E-2,2.8253018E-3,3.5757482E-2,2.3034435E-2,-0E0,-9.351705E-3,1.9997865E-2,-0E0,5.4551516E-2,5.1639475E-2,8.620045E-3,-2.6787394E-3,2.9491963E-2,-9.84027E-3,2.5005212E-2,-2.1460949E-2,-5.8871186E-3,2.3490205E-2,-1.1535264E-2,6.273615E-2,-9.915917E-3,-1.1957837E-2,-2.5746236E-2,1.3137705E-2,-1.6506603E-2],"split_indices":[19,20,20,5,5,6,10,20,10,20,3,19,19,5,19,19,10,5,21,6,0,0,21,20,9,0,20,0,0,6,0,0,6,0,6,0,16,0,9,0,19,14,0,4,2,6,20,5,0,5,20,0,0,0,0,0,0,0,0,0,0,0,0,0,0,0,0,0,0,0,0,0,0,0,0,0,0],"split_type":[0,0,0,0,0,0,0,0,0,0,0,0,0,0,0,0,0,0,0,0,0,0,0,0,0,0,0,0,0,0,0,0,0,0,0,0,0,0,0,0,0,0,0,0,0,0,0,0,0,0,0,0,0,0,0,0,0,0,0,0,0,0,0,0,0,0,0,0,0,0,0,0,0,0,0,0,0],"sum_hessian":[1.2311938E4,3.2256877E3,9.086251E3,3.0756494E3,1.5003825E2,6.208529E2,8.465397E3,2.9156604E3,1.5998904E2,6.754028E1,8.249797E1,4.9625577E2,1.2459714E2,4.2050823E1,8.423347E3,2.6800803E3,2.3558018E2,1.1286375E2,4.7125294E1,5.6448135E1,1.1092143E1,4.943763E1,3.3060337E1,2.2541867E2,2.708371E2,8.646864E1,3.8128494E1,1.009668E1,3.1954142E1,5.2176184E2,7.901585E3,2.0624543E3,6.17626E2,1.4272533E2,9.285485E1,8.514663E1,2.7717115E1,1.6205856E1,3.091944E1,1.1504549E1,4.494359E1,1.2080623E1,2.0979717E1,8.806215E1,1.3735652E2,2.404745E2,3.0362593E1,1.2728856E1,2.5399637E1,4.8074533E2,4.101651E1,1.07716324E2,5.0990964E2,3.2608692E1,6.0246155E1,1.8779173E1,8.937942E0,2.3140629E1,7.778811E0,6.0699368E0,3.887365E1,5.3232117E0,6.7574105E0,2.6735346E1,6.1326805E1,1.2631692E2,1.1039602E1,2.077477E2,3.2726803E1,1.0705675E1,1.9656918E1,7.6803203E0,5.0485363E0,6.073127E1,4.2001407E2,1.4811289E1,2.6205221E1],"tree_param":{"num_deleted":"0","num_feature":"23","num_nodes":"77","size_leaf_vector":"1"}},{"base_weights":[2.2292258E-3,5.2134514E-1,-6.0630304E-1,-4.3114164E-1,1.3335625E0,5.6283796E-1,-6.385029E-1,-5.4282194E-1,7.957992E-2,1.4532105E0,-2.6834818E-2,9.258221E-1,-2.1585153E-2,-4.795258E-1,-2.692436E-2,-5.702051E-1,5.685256E-1,1.569829E0,1.0840336E-1,1.1544628E0,-2.2216925E-2,-3.02595E-1,-2.4648068E-2,-6.013705E-1,-1.6717988E-1,-2.7845994E-1,1.4689116E0,4.0670514E-1,1.6443852E0,8.4782565E-1,-2.5890106E-1,6.241207E-2,6.4507496E-1,-1.407981E-1,-2.6276194E-2,-2.5044689E-2,-7.687751E-3,-1.9718908E-2,1.7096147E-2,6.0575167E-3,-1.5999885E-2,6.795348E-2,1.3428606E-2,1.6850606E-4,7.726218E-2,2.9437423E-2,6.957449E-2,5.1492337E-2,-1.1889034E-2,4.6401196E-3,-2.1444246E-2,3.5258997E-2,-1.1082595E-3,3.9372E-3,-1.6816424E-2],"categories":[],"categories_nodes":[],"categories_segments":[],"categories_sizes":[],"default_left":[0,0,0,0,0,0,0,0,0,0,0,0,0,0,0,0,0,0,0,0,0,0,0,0,0,0,0,0,0,0,0,0,0,0,0,0,0,0,0,0,0,0,0,0,0,0,0,0,0,0,0,0,0,0,0],"id":1,"left_children":[1,3,5,7,9,11,13,15,-1,17,-1,19,-1,21,-1,23,25,27,29,31,-1,33,-1,35,37,39,41,43,45,47,49,-1,51,53,-1,-1,-1,-1,-1,-1,-1,-1,-1,-1,-1,-1,-1,-1,-1,-1,-1,-1,-1,-1,-1],"loss_changes":[3.9107192E3,5.1707393E3,2.1522827E2,8.1808386E2,8.614209E2,6.1806248E1,1.6648438E1,9.004968E1,0E0,5.3211084E2,0E0,4.061058E1,0E0,1.3103653E1,0E0,3.525226E1,5.575495E1,2.6867188E2,7.531164E1,1.5757431E1,0E0,1.4220242E1,0E0,1.20026245E1,3.929742E1,2.1168156E0,5.182991E0,1.12991684E2,1.5536963E2,4.4737556E1,1.8650524E1,0E0,7.601589E0,1.2450256E1,0E0,0E0,0E0,0E0,0E0,0E0,0E0,0E0,0E0,0E0,0E0,0E0,0E0,0E0,0E0,0E0,0E0,0E0,0E0,0E0,0E0],"parents":[2147483647,0,0,1,1,2,2,3,3,4,4,5,5,6,6,7,7,9,9,11,11,13,13,15,15,16,16,17,17,18,18,19,19,21,21,23,23,24,24,25,25,26,26,27,27,28,28,29,29,30,30,32,32,33,33],"right_children":[2,4,6,8,10,12,14,16,-1,18,-1,20,-1,22,-1,24,26,28,30,32,-1,34,-1,36,38,40,42,44,46,48,50,-1,52,54,-1,-1,-1,-1,-1,-1,-1,-1,-1,-1,-1,-1,-1,-1,-1,-1,-1,-1,-1,-1,-1],"split_conditions":[9.6996E0,3.1003E0,6.545E-1,1E0,2E0,9E0,5.417E-1,2E0,7.957992E-2,2.6E1,-2.6834818E-2,2E0,-2.1585153E-2,4.4E1,-2.692436E-2,1E0,3.7E-1,4.143E-1,6.667E-1,6.308E-1,-2.2216925E-2,2E0,-2.4648068E-2,4E0,4.778E-1,2E0,8E0,1E0,1E0,8E0,6E0,6.241207E-2,1.14E1,1.11E1,-2.6276194E-2,-2.5044689E-2,-7.687751E-3,-1.9718908E-2,1.7096147E-2,6.0575167E-3,-1.5999885E-2,6.795348E-2,1.3428606E-2,1.6850606E-4,7.726218E-2,2.9437423E-2,6.957449E-2,5.1492337E-2,-1.1889034E-2,4.6401196E-3,-2.1444246E-2,3.5258997E-2,-1.1082595E-3,3.9372E-3,-1.6816424E-2],"split_indices":[19,19,10,12,12,11,7,11,0,20,0,12,0,20,0,20,10,10,10,10,0,12,0,5,10,2,3,12,11,11,11,0,19,19,0,0,0,0,0,0,0,0,0,0,0,0,0,0,0,0,0,0,0,0,0],"split_type":[0,0,0,0,0,0,0,0,0,0,0,0,0,0,0,0,0,0,0,0,0,0,0,0,0,0,0,0,0,0,0,0,0,0,0,0,0,0,0,0,0,0,0,0,0,0,0,0,0,0,0,0,0,0,0],"sum_hessian":[1.2376296E4,6.679696E3,5.6966006E3,3.0743015E3,3.6053943E3,1.5121782E2,5.545383E3,2.938109E3,1.3619264E2,3.401801E3,2.0359325E2,1.1423639E2,3.6981426E1,6.4492426E2,4.9004585E3,2.869023E3,6.9086E1,3.1295115E3,2.7228955E2,9.966924E1,1.4567148E1,2.707784E2,3.741458E2,2.6603943E3,2.0862863E2,3.5769817E1,3.3316177E1,1.898726E2,2.939639E3,9.0327065E1,1.819625E2,5.4527252E1,4.514199E1,1.8691537E2,8.3863045E1,2.584415E3,7.597918E1,1.3669464E2,7.193399E1,5.8733478E0,2.9896471E1,2.7148144E1,6.168035E0,1.512128E2,3.8659794E1,1.7792316E2,2.7617158E3,6.668809E1,2.3638977E1,7.496355E1,1.06998955E2,3.4617756E1,1.0524236E1,9.866301E1,8.825236E1],"tree_param":{"num_deleted":"0","num_feature":"23","num_nodes":"55","size_leaf_vector":"1"}},{"base_weights":[-0E0,-6.199993E-1,5.2790546E-1,-6.3530916E-1,7.653219E-2,1.3456371E0,-4.8512486E-1,-6.4395446E-1,2.5728628E-1,4.7961098E-1,1.6083043E0,1.7916305E0,-5.518448E-1,-2.6756847E-2,-2.1677297E-2,-3.291323E-1,1.3246281E0,2.2599748E-1,8.026522E-2,1.7136754E0,-2.7367206E-2,7.927346E-2,2.4704475E-2,-2.3796327E-1,-6.365172E-1,-2.0712648E-2,-0E0,6.738537E-2,7.288691E-3,1.7061493E-3,1.277759E0,1.7728201E0,1.0734128E0,6.251973E-1,-2.6323918E-2,-1.5280719E-2,-2.4328878E-2,-2.2233944E-2,-2.6785946E-2,-1.5169085E-2,9.2621725E-3,6.477046E-2,4.2560957E-3,6.073648E-2,7.470454E-2,7.86948E-2,3.1136727E-2,5.2240144E-2,-0E0,2.030414E-2,-9.057446E-3],"categories":[],"categories_nodes":[],"categories_segments":[],"categories_sizes":[],"default_left":[0,0,0,0,0,0,0,0,0,0,0,0,0,0,0,0,0,0,0,0,0,0,0,0,0,0,0,0,0,0,0,0,0,0,0,0,0,0,0,0,0,0,0,0,0,0,0,0,0,0,0],"id":2,"left_children":[1,3,5,7,-1,9,11,13,15,17,19,21,23,-1,-1,25,27,29,-1,31,33,-1,-1,35,37,-1,-1,-1,-1,39,41,43,45,47,-1,49,-1,-1,-1,-1,-1,-1,-1,-1,-1,-1,-1,-1,-1,-1,-1],"loss_changes":[4.0365415E3,2.1763159E2,5.5199185E3,4.4124268E1,0E0,8.3558057E2,4.528562E2,5.3876953E0,3.5682865E1,3.2182477E2,4.887583E2,1.0810211E1,7.590784E1,0E0,0E0,2.3039176E0,5.4913826E0,1.7308017E2,0E0,9.487549E1,7.015675E1,0E0,0E0,4.881884E1,2.4069824E0,0E0,0E0,0E0,0E0,5.1304962E1,4.4953125E1,3.122705E1,5.633139E1,3.354466E1,0E0,4.0693184E1,0E0,0E0,0E0,0E0,0E0,0E0,0E0,0E0,0E0,0E0,0E0,0E0,0E0,0E0,0E0],"parents":[2147483647,0,0,1,1,2,2,3,3,5,5,6,6,7,7,8,8,9,9,10,10,11,11,12,12,15,15,16,16,17,17,19,19,20,20,23,23,24,24,29,29,30,30,31,31,32,32,33,33,35,35],"right_children":[2,4,6,8,-1,10,12,14,16,18,20,22,24,-1,-1,26,28,30,-1,32,34,-1,-1,36,38,-1,-1,-1,-1,40,42,44,46,48,-1,50,-1,-1,-1,-1,-1,-1,-1,-1,-1,-1,-1,-1,-1,-1,-1],"split_conditions":[5E0,2E0,1.4E1,2.1E1,7.653219E-2,7E0,1.6118E0,4E0,5.9E-1,2E0,2.643E0,1.5334E0,1.6E1,-2.6756847E-2,-2.1677297E-2,2.5E1,8.2995E0,3.2E1,8.026522E-2,1.3E1,2.9118E0,7.927346E-2,2.4704475E-2,2.7429E0,1.7E1,-2.0712648E-2,-0E0,6.738537E-2,7.288691E-3,6.5E-1,4E0,8E0,1.5666E0,1.3E1,-2.6323918E-2,8.562E-1,-2.4328878E-2,-2.2233944E-2,-2.6785946E-2,-1.5169085E-2,9.2621725E-3,6.477046E-2,4.2560957E-3,6.073648E-2,7.470454E-2,7.86948E-2,3.1136727E-2,5.2240144E-2,-0E0,2.030414E-2,-9.057446E-3],"split_indices":[4,12,4,20,0,4,22,4,10,12,22,22,4,0,0,20,19,20,0,4,22,0,0,22,4,0,0,0,0,10,6,4,22,4,0,10,0,0,0,0,0,0,0,0,0,0,0,0,0,0,0],"split_type":[0,0,0,0,0,0,0,0,0,0,0,0,0,0,0,0,0,0,0,0,0,0,0,0,0,0,0,0,0,0,0,0,0,0,0,0,0,0,0,0,0,0,0,0,0,0,0,0,0,0,0],"sum_hessian":[1.2329249E4,5.6698438E3,6.659405E3,5.636894E3,3.29495E1,3.6850222E3,2.9743828E3,5.5842197E3,5.2674377E1,8.5947095E2,2.8255513E3,8.301589E1,2.891367E3,5.074907E3,5.0931265E2,3.430301E1,1.8371365E1,7.363439E2,1.2312709E2,2.6549314E3,1.7061974E2,7.214207E1,1.0873828E1,6.177634E2,2.2736035E3,2.2380875E1,1.1922135E1,1.3147271E1,5.224094E0,6.0903455E2,1.27309364E2,2.4263538E3,2.2857758E2,8.226732E1,8.835242E1,3.832444E2,2.3451904E2,4.075328E2,1.8660707E3,2.273536E2,3.816809E2,9.981253E1,2.7496828E1,4.0684073E2,2.0195132E3,5.7921757E1,1.7065582E2,3.8814137E1,4.3453186E1,1.082169E2,2.7502747E2],"tree_param":{"num_deleted":"0","num_feature":"23","num_nodes":"51","size_leaf_vector":"1"}},{"base_weights":[-1.1972126E-2,-5.8795786E-1,1.6706295E0,-6.2525904E-1,1.3737354E0,-4.837066E-1,1.817824E0,-6.527263E-1,-1.6523151E-1,6.173515E-1,7.590545E-2,-2.6306981E-2,1.3945532E-1,4.0537846E-1,1.8820226E0,-6.542821E-1,3.5787545E-2,-5.242749E-1,3.6292973E-1,-2.240924E-1,1.0146687E0,-1.0861528E-1,4.1447904E-2,1.2846462E-1,7.318085E-2,1.614271E0,8.0352515E-2,-2.6938142E-2,-4.165638E-1,-2.4519788E-2,-2.7541077E-1,-2.5569832E-2,6.7038083E-1,-2.1621933E-2,6.6736676E-3,4.8002202E-2,-5.585874E-3,9.719168E-3,-1.636908E-2,-2.8732292E-2,5.4362893E-2,1.2361712E0,7.376725E-2,-1.9432459E-2,1.4516325E-2,-1.9040657E-2,2.7533723E-3,1.5830768E-2,4.4050723E-2,-2.2635868E-2,8.569143E-3,4.2517275E-2,7.8133404E-2],"categories":[],"categories_nodes":[],"categories_segments":[],"categories_sizes":[],"default_left":[0,0,0,0,0,0,0,0,0,0,0,0,0,0,0,0,0,0,0,0,0,0,0,0,0,0,0,0,0,0,0,0,0,0,0,0,0,0,0,0,0,0,0,0,0,0,0,0,0,0,0,0,0],"id":3,"left_children":[1,3,5,7,9,11,13,15,17,19,-1,-1,21,23,25,27,-1,29,31,33,35,37,-1,39,-1,41,-1,-1,43,-1,45,-1,47,-1,-1,-1,-1,-1,-1,49,-1,51,-1,-1,-1,-1,-1,-1,-1,-1,-1,-1,-1],"loss_changes":[1.1906308E4,6.7070483E2,9.961123E2,1.12660645E2,5.855539E1,2.0687328E1,2.6274707E2,2.1004395E1,9.7236084E1,2.4478706E1,0E0,0E0,9.974665E0,4.8055744E1,5.515625E1,8.9609375E0,0E0,4.762306E0,6.3611427E1,3.206427E0,1.0104271E1,3.677146E0,0E0,2.212152E1,0E0,4.3297363E1,0E0,0E0,8.941544E0,0E0,5.4293547E0,0E0,1.6417831E1,0E0,0E0,0E0,0E0,0E0,0E0,1.2941188E1,0E0,2.5517517E1,0E0,0E0,0E0,0E0,0E0,0E0,0E0,0E0,0E0,0E0,0E0],"parents":[2147483647,0,0,1,1,2,2,3,3,4,4,5,5,6,6,7,7,8,8,9,9,12,12,13,13,14,14,15,15,17,17,18,18,19,19,20,20,21,21,23,23,25,25,28,28,30,30,32,32,39,39,41,41],"right_children":[2,4,6,8,10,12,14,16,18,20,-1,-1,22,24,26,28,-1,30,32,34,36,38,-1,40,-1,42,-1,-1,44,-1,46,-1,48,-1,-1,-1,-1,-1,-1,50,-1,52,-1,-1,-1,-1,-1,-1,-1,-1,-1,-1,-1],"split_conditions":[1.5E1,2.6625E0,1.6266E0,7.2E-1,2.8749E0,1.55E0,6.875E-1,1.6E1,1.27007E1,1.26E1,7.590545E-2,-2.6306981E-2,1.5E1,3E0,1.72007E1,2.4E0,3.5787545E-2,1.2E1,1.6266E0,4E0,3.81E-1,6E0,4.1447904E-2,1.79004E1,7.318085E-2,7.826E-1,8.0352515E-2,-2.6938142E-2,9E0,-2.4519788E-2,8.722E-1,-2.5569832E-2,8.783E-1,-2.1621933E-2,6.6736676E-3,4.8002202E-2,-5.585874E-3,9.719168E-3,-1.636908E-2,6.111E-1,5.4362893E-2,3E0,7.376725E-2,-1.9432459E-2,1.4516325E-2,-1.9040657E-2,2.7533723E-3,1.5830768E-2,4.4050723E-2,-2.2635868E-2,8.569143E-3,4.2517275E-2,7.8133404E-2],"split_indices":[19,22,22,7,22,22,7,11,19,19,0,0,11,12,19,22,0,19,22,2,9,5,0,19,0,7,0,0,0,0,10,0,10,0,0,0,0,0,0,7,0,12,0,0,0,0,0,0,0,0,0,0,0],"split_type":[0,0,0,0,0,0,0,0,0,0,0,0,0,0,0,0,0,0,0,0,0,0,0,0,0,0,0,0,0,0,0,0,0,0,0,0,0,0,0,0,0,0,0,0,0,0,0,0,0,0,0,0,0],"sum_hessian":[1.2282555E4,9.151482E3,3.1310725E3,8.982321E3,1.6916092E2,1.9963191E2,2.9314404E3,8.473844E3,5.0847778E2,6.828249E1,1.00878426E2,1.597878E2,3.9844116E1,1.2856892E2,2.8028716E3,8.466785E3,7.0586224E0,3.0362805E2,2.0484973E2,2.1493355E1,4.678914E1,3.1541092E1,8.303022E0,1.09280716E2,1.9288204E1,6.857871E2,2.1170845E3,8.281423E3,1.8536212E2,2.2819215E2,7.54359E1,4.751665E1,1.5733307E2,1.2832964E1,8.660391E0,4.165806E1,5.131079E0,1.3301685E1,1.8239407E1,9.759133E1,1.1689386E1,2.3645331E2,4.493338E2,1.7379462E2,1.1567501E1,4.958714E1,2.5848755E1,9.615133E1,6.1181747E1,3.0797007E1,6.679433E1,1.879217E2,4.853161E1],"tree_param":{"num_deleted":"0","num_feature":"23","num_nodes":"53","size_leaf_vector":"1"}},{"base_weights":[-2.7764207E-3,1.5871717E0,-5.993193E-1,1.7101609E0,-2.6909458E-2,4.8546445E-1,-6.3712156E-1,1.7492615E0,5.3854364E-1,9.3729305E-1,-4.0113783E-1,1.8626253E-1,-6.486674E-1,7.339321E-2,1.4987311E0,-1.6529724E-1,6.1432492E-2,7.272144E-2,6.442171E-1,3.249025E-2,-2.0565145E-2,8.258281E-1,-2.444421E-2,-4.271931E-1,-6.5498805E-1,8.4980303E-1,6.611784E-2,-2.4535635E-2,2.280802E-1,5.5258766E-2,3.2795334E-1,4.717029E-2,2.63758E-1,-7.9145774E-2,-2.6092637E-2,-4.9915347E-1,-2.6868315E-2,4.614048E-2,1.3886866E-2,2.205765E-2,-1.9393532E-2,2.2353845E-2,-1.1683502E-2,-4.0573126E-4,2.8796986E-2,1.3757871E-2,-2.2931507E-2,-2.1866316E-2,1.2113217E-2],"categories":[],"categories_nodes":[],"categories_segments":[],"categories_sizes":[],"default_left":[0,0,0,0,0,0,0,0,0,0,0,0,0,0,0,0,0,0,0,0,0,0,0,0,0,0,0,0,0,0,0,0,0,0,0,0,0,0,0,0,0,0,0,0,0,0,0,0,0],"id":4,"left_children":[1,3,5,7,-1,9,11,13,15,17,19,21,23,-1,25,27,-1,-1,29,-1,-1,31,-1,33,35,37,-1,-1,39,-1,41,-1,43,45,-1,47,-1,-1,-1,-1,-1,-1,-1,-1,-1,-1,-1,-1,-1],"loss_changes":[1.168512E4,9.312803E2,3.6808936E2,1.4246875E2,0E0,1.22089645E2,8.291553E1,2.9038086E1,7.3687584E1,4.5668823E1,1.3033318E1,6.1370724E1,1.0573242E1,0E0,3.4638184E1,1.12588005E1,0E0,0E0,3.2074127E1,0E0,0E0,1.077948E1,0E0,1.741426E1,1.9804688E0,9.984501E0,0E0,0E0,7.782247E0,0E0,1.5139193E1,0E0,3.9790835E0,1.985206E1,0E0,4.9233284E0,0E0,0E0,0E0,0E0,0E0,0E0,0E0,0E0,0E0,0E0,0E0,0E0,0E0],"parents":[2147483647,0,0,1,1,2,2,3,3,5,5,6,6,7,7,8,8,9,9,10,10,11,11,12,12,14,14,15,15,18,18,21,21,23,23,24,24,25,25,28,28,30,30,32,32,33,33,35,35],"right_children":[2,4,6,8,-1,10,12,14,16,18,20,22,24,-1,26,28,-1,-1,30,-1,-1,32,-1,34,36,38,-1,-1,40,-1,42,-1,44,46,-1,48,-1,-1,-1,-1,-1,-1,-1,-1,-1,-1,-1,-1,-1],"split_conditions":[3.3999E0,1E0,4.8E-1,2E0,-2.6909458E-2,3E0,1E0,2.4E0,5E0,1E0,3.571E-1,7.429E-1,4.1E0,7.339321E-2,2E0,7E0,6.1432492E-2,7.272144E-2,3.917E-1,3.249025E-2,-2.0565145E-2,4.1998E0,-2.444421E-2,6.545E-1,5.167E-1,1E0,6.611784E-2,-2.4535635E-2,3E0,5.5258766E-2,6E0,4.717029E-2,9E0,2E0,-2.6092637E-2,6.667E-1,-2.6868315E-2,4.614048E-2,1.3886866E-2,2.205765E-2,-1.9393532E-2,2.2353845E-2,-1.1683502E-2,-4.0573126E-4,2.8796986E-2,1.3757871E-2,-2.2931507E-2,-2.1866316E-2,1.2113217E-2],"split_indices":[19,12,22,11,0,11,11,19,6,11,10,22,19,0,6,3,0,0,22,0,0,19,0,22,22,11,0,0,11,0,5,0,3,11,0,9,0,0,0,0,0,0,0,0,0,0,0,0,0],"split_type":[0,0,0,0,0,0,0,0,0,0,0,0,0,0,0,0,0,0,0,0,0,0,0,0,0,0,0,0,0,0,0,0,0,0,0,0,0,0,0,0,0,0,0,0,0,0,0,0,0],"sum_hessian":[1.2317199E4,3.3593313E3,8.957867E3,3.1856677E3,1.7366347E2,3.002095E2,8.657658E3,3.0812576E3,1.0441025E2,1.994056E2,1.008039E2,1.1837146E2,8.539286E3,2.5797332E3,5.0152432E2,6.0751617E1,4.3658627E1,4.8385803E1,1.5101979E2,6.354638E0,9.4449265E1,6.573454E1,5.263692E1,2.4392772E2,8.295358E3,8.145276E1,4.2007156E2,2.9374428E1,3.1377192E1,4.400304E1,1.0701675E2,3.9365074E1,2.6369467E1,9.459405E1,1.4933368E2,1.5290707E2,8.1424517E3,5.0163254E1,3.1289503E1,2.2824003E1,8.553188E0,7.9978615E1,2.7038134E1,1.6214056E1,1.0155411E1,5.0169476E1,4.4424572E1,1.4780998E2,5.097095E0],"tree_param":{"num_deleted":"0","num_feature":"23","num_nodes":"49","size_leaf_vector":"1"}},{"base_weights":[3.392832E-3,4.8702258E-1,-6.154279E-1,-4.5036706E-1,1.1865743E0,4.1194162E-1,-6.388888E-1,-5.4939723E-1,7.421185E-2,1.3613833E0,-1.189796E-1,7.8649366E-1,-1.922312E-2,-4.0707782E-1,-2.645871E-2,-5.72397E-1,4.8417708E-1,1.4308234E0,-2.6305176E-2,4.970332E-1,-3.8914016E-1,1.004156E0,-2.0790122E-2,3.7081656E-3,-4.5339373E-1,-6.008937E-1,-1.7556816E-1,6.7060344E-2,-2.4950485E-1,6.9262075E-1,1.5508633E0,9.186825E-1,-4.3435234E-1,-1.3747595E-1,-2.3957098E-2,5.5450343E-2,5.3827596E-1,-3.3385745E-1,-2.5850406E-2,-2.5394993E-2,-1.7468952E-2,1.3084136E-2,-2.0739507E-2,6.607796E-4,-2.0247834E-2,1.1326608E-2,7.488191E-2,6.558309E-2,2.6823172E-2,4.687269E-2,-2.1320166E-2,-2.5060954E-2,2.3535967E-2,1.8157077E-3,-2.508247E-2,2.8594041E-2,-3.924967E-3,6.5113674E-3,-1.6539317E-2],"categories":[],"categories_nodes":[],"categories_segments":[],"categories_sizes":[],"default_left":[0,0,0,0,0,0,0,0,0,0,0,0,0,0,0,0,0,0,0,0,0,0,0,0,0,0,0,0,0,0,0,0,0,0,0,0,0,0,0,0,0,0,0,0,0,0,0,0,0,0,0,0,0,0,0,0,0,0,0],"id":5,"left_children":[1,3,5,7,9,11,13,15,-1,17,19,21,-1,23,-1,25,27,29,-1,31,33,35,-1,-1,37,39,41,-1,43,45,47,49,51,53,-1,-1,55,57,-1,-1,-1,-1,-1,-1,-1,-1,-1,-1,-1,-1,-1,-1,-1,-1,-1,-1,-1,-1,-1],"loss_changes":[3.6920986E3,4.5430586E3,1.3108496E2,6.653846E2,9.06646E2,4.0957867E1,9.449707E0,6.804022E1,0E0,4.8954932E2,7.839934E1,2.566772E1,0E0,5.015854E0,0E0,3.0593933E1,5.4501663E1,2.9603027E2,0E0,5.727202E1,1.5567585E1,9.499535E0,0E0,0E0,2.8257713E0,7.9763184E0,3.1828075E1,0E0,2.9593868E0,2.2348335E2,1.3805273E2,3.4404053E1,8.840624E0,1.3380644E1,0E0,0E0,4.339156E0,4.45665E0,0E0,0E0,0E0,0E0,0E0,0E0,0E0,0E0,0E0,0E0,0E0,0E0,0E0,0E0,0E0,0E0,0E0,0E0,0E0,0E0,0E0],"parents":[2147483647,0,0,1,1,2,2,3,3,4,4,5,5,6,6,7,7,9,9,10,10,11,11,13,13,15,15,16,16,17,17,19,19,20,20,21,21,24,24,25,25,26,26,28,28,29,29,30,30,31,31,32,32,33,33,36,36,37,37],"right_children":[2,4,6,8,10,12,14,16,-1,18,20,22,-1,24,-1,26,28,30,-1,32,34,36,-1,-1,38,40,42,-1,44,46,48,50,52,54,-1,-1,56,58,-1,-1,-1,-1,-1,-1,-1,-1,-1,-1,-1,-1,-1,-1,-1,-1,-1,-1,-1,-1,-1],"split_conditions":[9.9996E0,3E0,6.545E-1,1E0,2.6E1,5E1,7E-1,2E0,7.421185E-2,2E0,6.667E-1,2E0,-1.922312E-2,1.7E1,-2.645871E-2,1E0,4E0,2E0,-2.6305176E-2,8E0,3.8E1,6.308E-1,-2.0790122E-2,3.7081656E-3,9E0,3E0,3E0,6.7060344E-2,6E0,1E0,7.556E-1,2E0,1.7E1,2E0,-2.3957098E-2,5.5450343E-2,1.16E1,1.905E-1,-2.5850406E-2,-2.5394993E-2,-1.7468952E-2,1.3084136E-2,-2.0739507E-2,6.607796E-4,-2.0247834E-2,1.1326608E-2,7.488191E-2,6.558309E-2,2.6823172E-2,4.687269E-2,-2.1320166E-2,-2.5060954E-2,2.3535967E-2,1.8157077E-3,-2.508247E-2,2.8594041E-2,-3.924967E-3,6.5113674E-3,-1.6539317E-2],"split_indices":[19,19,10,12,20,20,10,11,0,12,10,12,0,20,0,20,6,20,0,11,20,10,0,0,11,5,6,0,6,12,10,12,3,12,0,0,19,8,0,0,0,0,0,0,0,0,0,0,0,0,0,0,0,0,0,0,0,0,0],"split_type":[0,0,0,0,0,0,0,0,0,0,0,0,0,0,0,0,0,0,0,0,0,0,0,0,0,0,0,0,0,0,0,0,0,0,0,0,0,0,0,0,0,0,0,0,0,0,0,0,0,0,0,0,0,0,0,0,0,0,0],"sum_hessian":[1.2333363E4,6.9238413E3,5.409522E3,2.958699E3,3.9651423E3,1.19335144E2,5.290187E3,2.8365066E3,1.2219232E2,3.4974006E3,4.677417E2,8.456312E1,3.4772026E1,1.9972356E2,5.0904634E3,2.7763142E3,6.0192528E1,3.3812341E3,1.1616661E2,1.4121838E2,3.2652332E2,7.3281784E1,1.1281339E1,1.5355199E1,1.8436835E2,2.5875264E3,1.8878781E2,2.2924086E1,3.726844E1,4.7556915E2,2.905665E3,9.782934E1,4.338905E1,1.4664389E2,1.7987943E2,3.873681E1,3.454497E1,1.16444855E2,6.79235E1,2.302521E3,2.8500537E2,7.476734E1,1.1402048E2,1.7135256E1,2.0133184E1,3.5075696E2,1.2481218E2,2.7364614E3,1.6920354E2,8.522879E1,1.2600552E1,3.8139175E1,5.249875E0,1.0606464E2,4.057925E1,2.8405142E1,6.1398296E0,1.2928371E1,1.0351648E2],"tree_param":{"num_deleted":"0","num_feature":"23","num_nodes":"59","size_leaf_vector":"1"}},{"base_weights":[-1.1073492E-3,-6.1384135E-1,5.042738E-1,-6.300128E-1,7.1289845E-2,1.2663103E0,-4.7928718E-1,-6.377134E-1,5.506866E-1,4.6739817E-1,1.5066502E0,1.6608149E0,-5.443301E-1,-2.655543E-2,-5.208032E-1,-7.589562E-2,6.57359E-2,2.3012659E-1,7.41988E-2,1.6002952E0,-9.251461E-3,7.328282E-2,6.4924437E-1,-2.5422567E-1,-6.2880784E-1,-2.1931626E-2,-1.6787255E-1,-1.3335206E-2,1.3569782E-2,2.0827621E-2,1.2952455E0,1.6476161E0,1.0702412E0,6.103311E-1,-2.6053436E-2,4.0441718E-2,3.6574362E-4,-4.063779E-2,-2.425496E-2,-2.1956507E-2,-2.646234E-2,-1.8615989E-2,2.9049324E-2,1.7751778E-2,-7.508506E-3,6.2247176E-2,1.0067413E-2,5.740481E-2,6.923871E-2,7.309475E-2,3.1255063E-2,4.7354463E-2,1.195579E-3,2.1852175E-2,-7.87653E-3],"categories":[],"categories_nodes":[],"categories_segments":[],"categories_sizes":[],"default_left":[0,0,0,0,0,0,0,0,0,0,0,0,0,0,0,0,0,0,0,0,0,0,0,0,0,0,0,0,0,0,0,0,0,0,0,0,0,0,0,0,0,0,0,0,0,0,0,0,0,0,0,0,0,0,0],"id":6,"left_children":[1,3,5,7,-1,9,11,13,15,17,19,21,23,-1,25,27,-1,29,-1,31,33,-1,35,37,39,-1,41,-1,-1,43,45,47,49,51,-1,-1,-1,53,-1,-1,-1,-1,-1,-1,-1,-1,-1,-1,-1,-1,-1,-1,-1,-1,-1],"loss_changes":[3.7953643E3,2.1241211E2,5.0352017E3,5.074585E1,0E0,7.2387646E2,4.089165E2,6.3254395E0,2.5305504E1,2.788141E2,4.1413672E2,7.5750732E0,6.87854E1,0E0,2.3087616E0,2.6231656E0,0E0,1.6603447E2,0E0,6.3336914E1,6.710115E1,0E0,2.1333075E0,4.6387615E1,2.2236938E0,0E0,7.504993E0,0E0,0E0,5.360804E1,2.7234741E1,2.1966797E1,4.615924E1,2.6431007E1,0E0,0E0,0E0,3.5009438E1,0E0,0E0,0E0,0E0,0E0,0E0,0E0,0E0,0E0,0E0,0E0,0E0,0E0,0E0,0E0,0E0,0E0],"parents":[2147483647,0,0,1,1,2,2,3,3,5,5,6,6,7,7,8,8,9,9,10,10,11,11,12,12,14,14,15,15,17,17,19,19,20,20,22,22,23,23,24,24,26,26,29,29,30,30,31,31,32,32,33,33,37,37],"right_children":[2,4,6,8,-1,10,12,14,16,18,20,22,24,-1,26,28,-1,30,-1,32,34,-1,36,38,40,-1,42,-1,-1,44,46,48,50,52,-1,-1,-1,54,-1,-1,-1,-1,-1,-1,-1,-1,-1,-1,-1,-1,-1,-1,-1,-1,-1],"split_conditions":[5E0,2E0,1.4E1,7E0,7.1289845E-2,7E0,1.6118E0,4E0,2.727E-1,2E0,2.643E0,1.5334E0,1.6E1,-2.655543E-2,6E0,8E0,6.57359E-2,3.6E1,7.41988E-2,1.3E1,2.9118E0,7.328282E-2,1.1E1,2.7429E0,1.7E1,-2.1931626E-2,6.076923E-1,-1.3335206E-2,1.3569782E-2,2E0,4E0,8E0,1.5666E0,1.3E1,-2.6053436E-2,4.0441718E-2,3.6574362E-4,8.4375E-1,-2.425496E-2,-2.1956507E-2,-2.646234E-2,-1.8615989E-2,2.9049324E-2,1.7751778E-2,-7.508506E-3,6.2247176E-2,1.0067413E-2,5.740481E-2,6.923871E-2,7.309475E-2,3.1255063E-2,4.7354463E-2,1.195579E-3,2.1852175E-2,-7.87653E-3],"split_indices":[4,12,4,11,0,4,22,4,7,12,22,22,4,0,11,11,0,20,0,4,22,0,11,22,4,0,18,0,0,6,6,4,22,4,0,0,0,18,0,0,0,0,0,0,0,0,0,0,0,0,0,0,0,0,0],"split_type":[0,0,0,0,0,0,0,0,0,0,0,0,0,0,0,0,0,0,0,0,0,0,0,0,0,0,0,0,0,0,0,0,0,0,0,0,0,0,0,0,0,0,0,0,0,0,0,0,0,0,0,0,0,0,0],"sum_hessian":[1.2252516E4,5.5386167E3,6.7138994E3,5.5025527E3,3.606387E1,3.783139E3,2.9307603E3,5.468402E3,3.4151047E1,8.769021E2,2.9062368E3,8.477982E1,2.8459805E3,4.9329395E3,5.354623E2,2.2012789E1,1.2138258E1,7.480254E2,1.2887668E2,2.7375618E3,1.6867522E2,7.29881E1,1.1791726E1,6.4563586E2,2.2003447E3,5.0905984E2,2.6402418E1,1.5098541E1,6.9142475E0,6.2734235E2,1.20683075E2,2.5083157E3,2.292461E2,8.431365E1,8.436157E1,6.2270217E0,5.564704E0,3.9901602E2,2.4661986E2,3.9463025E2,1.8057144E3,2.123776E1,5.1646585E0,2.0825746E2,4.1908487E2,9.779049E1,2.2892586E1,4.2105023E2,2.0872654E3,6.491214E1,1.6433395E2,4.172098E1,4.259267E1,8.137403E1,3.17642E2],"tree_param":{"num_deleted":"0","num_feature":"23","num_nodes":"55","size_leaf_vector":"1"}},{"base_weights":[1.8481874E-3,-6.153609E-1,1.5893453E0,-6.2869847E-1,6.957534E-2,-4.5449215E-1,1.6836039E0,-6.459087E-1,-1.6183294E-1,-2.632971E-2,2.6769668E-1,1.1424005E0,1.790119E0,-6.474387E-1,1.5249549E-1,-2.5100734E-2,8.585646E-2,-3.5914902E-3,4.459708E-2,8.2814157E-1,1.6327688E0,1.5989188E0,7.429242E-2,-2.6882762E-2,-5.42816E-1,3.7892148E-2,-1.34571E-2,6.900015E-1,-9.141394E-2,3.2977265E-1,1.1419585E0,1.3222358E0,7.4392006E-2,1.3841155E0,7.1368724E-2,-2.3930375E-2,-1.1072484E-2,-0E0,3.3304546E-2,-1.0326503E-2,1.3602562E-2,2.5127104E-3,3.136631E-2,3.8210314E-2,6.477055E-2,5.80191E-2,3.9631035E-3,3.850096E-2,6.0697865E-2],"categories":[],"categories_nodes":[],"categories_segments":[],"categories_sizes":[],"default_left":[0,0,0,0,0,0,0,0,0,0,0,0,0,0,0,0,0,0,0,0,0,0,0,0,0,0,0,0,0,0,0,0,0,0,0,0,0,0,0,0,0,0,0,0,0,0,0,0,0],"id":7,"left_children":[1,3,5,7,-1,9,11,13,15,-1,17,19,21,23,25,-1,27,-1,-1,29,31,33,-1,-1,35,-1,-1,37,39,41,43,45,-1,47,-1,-1,-1,-1,-1,-1,-1,-1,-1,-1,-1,-1,-1,-1,-1],"loss_changes":[1.2080528E4,2.7553833E2,6.673496E2,7.0083984E1,0E0,2.1640806E1,1.842002E2,1.0977295E1,3.6165977E1,0E0,1.0450444E1,8.0165344E1,6.9921875E0,7.821289E0,7.276401E0,0E0,2.2650301E1,0E0,0E0,5.1174408E1,5.4918213E0,5.0578613E0,0E0,0E0,8.362549E0,0E0,0E0,4.115551E0,1.1023073E1,1.5054089E1,1.4204498E1,9.085022E0,0E0,2.8810425E0,0E0,0E0,0E0,0E0,0E0,0E0,0E0,0E0,0E0,0E0,0E0,0E0,0E0,0E0,0E0],"parents":[2147483647,0,0,1,1,2,2,3,3,5,5,6,6,7,7,8,8,10,10,11,11,12,12,13,13,14,14,16,16,19,19,20,20,21,21,24,24,27,27,28,28,29,29,30,30,31,31,33,33],"right_children":[2,4,6,8,-1,10,12,14,16,-1,18,20,22,24,26,-1,28,-1,-1,30,32,34,-1,-1,36,-1,-1,38,40,42,44,46,-1,48,-1,-1,-1,-1,-1,-1,-1,-1,-1,-1,-1,-1,-1,-1,-1],"split_conditions":[1.3E1,2.8749E0,1.6266E0,1.2E1,6.957534E-2,1.55E0,1.5E1,1.52E2,1.5818E0,-2.632971E-2,1.7E2,2.6625E0,1.6E1,1E1,6E0,-2.5100734E-2,2.353E-1,-3.5914902E-3,4.459708E-2,8.455E-1,2.9118E0,2.6052E0,7.429242E-2,-2.6882762E-2,8.6E-1,3.7892148E-2,-1.34571E-2,4E0,8.571E-1,3.182E-1,1.6E2,4.091E-1,7.4392006E-2,8.438E-1,7.1368724E-2,-2.3930375E-2,-1.1072484E-2,-0E0,3.3304546E-2,-1.0326503E-2,1.3602562E-2,2.5127104E-3,3.136631E-2,3.8210314E-2,6.477055E-2,5.80191E-2,3.9631035E-3,3.850096E-2,6.0697865E-2],"split_indices":[4,22,22,4,0,22,4,20,22,0,20,22,4,4,2,0,9,0,0,10,22,22,0,0,10,0,0,11,10,8,20,9,0,10,0,0,0,0,0,0,0,0,0,0,0,0,0,0,0],"split_type":[0,0,0,0,0,0,0,0,0,0,0,0,0,0,0,0,0,0,0,0,0,0,0,0,0,0,0,0,0,0,0,0,0,0,0,0,0,0,0,0,0,0,0,0,0,0,0,0,0],"sum_hessian":[1.2324974E4,8.875009E3,3.4499653E3,8.825894E3,4.9115643E1,1.5140964E2,3.2985557E3,8.509762E3,3.1613138E2,1.2091481E2,3.0494822E1,5.471492E2,2.7514065E3,8.494843E3,1.4919406E1,1.12039536E2,2.0409184E2,2.172848E1,8.766343E0,3.3740036E2,2.0974884E2,3.7357178E2,2.3778347E3,7.696414E3,7.9842847E2,5.733227E0,9.186179E0,4.6167446E1,1.579244E2,1.3278955E2,2.0461081E2,8.622383E1,1.2352501E2,1.6226363E2,2.1130815E2,6.8504626E2,1.13382225E2,7.4123464E0,3.8755096E1,1.1633479E2,4.1589607E1,8.477478E1,4.8014767E1,1.4463991E2,5.9970898E1,7.8957924E1,7.2659006E0,3.531187E1,1.2695176E2],"tree_param":{"num_deleted":"0","num_feature":"23","num_nodes":"49","size_leaf_vector":"1"}},{"base_weights":[5.306994E-4,1.4842863E0,-5.9084195E-1,1.6075134E0,2.4961357E-1,6.949118E-1,-6.253796E-1,1.6416756E0,5.9337133E-1,-5.181974E-1,1.179782E0,1.1000688E0,-3.232442E-1,2.530686E-1,-6.390255E-1,6.869885E-2,1.466008E0,-1.7467104E-2,1.1497123E0,2.7426475E-1,-2.6582658E-2,1.3800783E0,-2.200394E-2,1.2260414E0,-7.882282E-2,3.3121847E-2,-2.0083286E-2,1.0113717E0,-4.7692242E-1,-3.677782E-1,-6.472242E-1,1.563019E0,7.7925813E-1,1.3969569E0,-8.518723E-3,2.8821895E-2,-1.0969043E-2,1.4864314E0,-0E0,4.018763E-1,1.372423E0,-1.4050652E-2,1.1082652E-2,1.1149363E-2,4.6948593E-2,-0E0,-2.4873786E-2,1.1658405E-1,-5.390206E-1,-4.8334497E-1,-2.6600733E-2,4.9564704E-2,6.6012084E-2,-7.0576905E-3,3.5538968E-2,6.482474E-2,2.0576991E-2,6.29408E-2,1.305875E-2,3.0613814E-2,-3.9407928E-3,5.9715517E-2,3.140833E-2,1.810937E-2,-1.110659E-2,1.8783748E-2,-9.293707E-3,-2.326192E-2,1.2166437E-2,-5.989986E-3,-2.5305528E-2],"categories":[],"categories_nodes":[],"categories_segments":[],"categories_sizes":[],"default_left":[0,0,0,0,0,0,0,0,0,0,0,0,0,0,0,0,0,0,0,0,0,0,0,0,0,0,0,0,0,0,0,0,0,0,0,0,0,0,0,0,0,0,0,0,0,0,0,0,0,0,0,0,0,0,0,0,0,0,0,0,0,0,0,0,0,0,0,0,0,0,0],"id":8,"left_children":[1,3,5,7,9,11,13,15,17,19,21,23,25,27,29,-1,31,-1,33,35,-1,37,-1,39,41,-1,-1,43,45,47,49,51,53,55,-1,-1,-1,57,-1,59,61,-1,-1,-1,-1,63,-1,65,67,69,-1,-1,-1,-1,-1,-1,-1,-1,-1,-1,-1,-1,-1,-1,-1,-1,-1,-1,-1,-1,-1],"loss_changes":[1.0787555E4,5.308491E2,3.9104102E2,1.06774414E2,2.3066309E2,9.621382E1,1.03229004E2,1.4650391E1,6.245556E1,1.9154556E1,5.2281677E1,2.570427E1,1.3118442E1,7.399549E1,1.7497314E1,0E0,3.5132935E1,0E0,2.5166107E1,6.700946E0,0E0,1.8542618E1,0E0,1.5706497E1,1.8087696E0,0E0,0E0,4.9514084E0,4.700864E0,2.1561253E1,3.7788086E0,3.670166E0,7.527626E0,7.106148E0,0E0,0E0,0E0,5.324585E0,0E0,5.173225E0,2.9691162E0,0E0,0E0,0E0,0E0,2.177497E0,0E0,8.252493E0,5.3476524E0,8.5317955E0,0E0,0E0,0E0,0E0,0E0,0E0,0E0,0E0,0E0,0E0,0E0,0E0,0E0,0E0,0E0,0E0,0E0,0E0,0E0,0E0,0E0],"parents":[2147483647,0,0,1,1,2,2,3,3,4,4,5,5,6,6,7,7,8,8,9,9,10,10,11,11,12,12,13,13,14,14,16,16,18,18,19,19,21,21,23,23,24,24,27,27,28,28,29,29,30,30,31,31,32,32,33,33,37,37,39,39,40,40,45,45,47,47,48,48,49,49],"right_children":[2,4,6,8,10,12,14,16,18,20,22,24,26,28,30,-1,32,-1,34,36,-1,38,-1,40,42,-1,-1,44,46,48,50,52,54,56,-1,-1,-1,58,-1,60,62,-1,-1,-1,-1,64,-1,66,68,70,-1,-1,-1,-1,-1,-1,-1,-1,-1,-1,-1,-1,-1,-1,-1,-1,-1,-1,-1,-1,-1],"split_conditions":[3.3999E0,6.111E-1,4.556E-1,2E0,6.444E-1,3E0,1E0,1E0,4E0,6.462E-1,1.02E0,5.0001E0,3.571E-1,6.545E-1,5.167E-1,6.869885E-2,4.8E-1,-1.7467104E-2,3E0,1E0,-2.6582658E-2,1E0,-2.200394E-2,4E0,7E0,3.3121847E-2,-2.0083286E-2,2E0,7.429E-1,2E0,4.1E0,3E0,2.1E0,3.8E-1,-8.518723E-3,2.8821895E-2,-1.0969043E-2,2.8E0,-0E0,2E0,4.5E0,-1.4050652E-2,1.1082652E-2,1.1149363E-2,4.6948593E-2,4.082653E-2,-2.4873786E-2,3E0,6.364E-1,6.545E-1,-2.6600733E-2,4.9564704E-2,6.6012084E-2,-7.0576905E-3,3.5538968E-2,6.482474E-2,2.0576991E-2,6.29408E-2,1.305875E-2,3.0613814E-2,-3.9407928E-3,5.9715517E-2,3.140833E-2,1.810937E-2,-1.110659E-2,1.8783748E-2,-9.293707E-3,-2.326192E-2,1.2166437E-2,-5.989986E-3,-2.5305528E-2],"split_indices":[19,22,22,11,10,11,11,11,6,22,22,19,10,22,22,0,22,0,11,11,0,11,0,6,6,0,0,6,22,11,19,6,19,22,0,0,0,19,0,11,19,0,0,0,0,21,0,1,9,22,0,0,0,0,0,0,0,0,0,0,0,0,0,0,0,0,0,0,0,0,0],"split_type":[0,0,0,0,0,0,0,0,0,0,0,0,0,0,0,0,0,0,0,0,0,0,0,0,0,0,0,0,0,0,0,0,0,0,0,0,0,0,0,0,0,0,0,0,0,0,0,0,0,0,0,0,0,0,0,0,0,0,0,0,0,0,0,0,0,0,0,0,0,0,0],"sum_hessian":[1.2289766E4,3.5019746E3,8.787791E3,3.1830845E3,3.1889032E2,2.2836798E2,8.559423E3,3.077504E3,1.0558037E2,1.7464565E2,1.4424466E2,1.6383076E2,6.453722E1,1.2953432E2,8.429889E3,2.4905486E3,5.869555E2,3.6869896E1,6.871047E1,2.3864504E1,1.5078114E2,1.2992741E2,1.4317245E1,1.4857426E2,1.5256497E1,6.8338623E0,5.770335E1,6.3744003E1,6.579031E1,2.5265224E2,8.1772363E3,5.112617E2,7.5693825E1,5.8593487E1,1.0116986E1,1.383572E1,1.0028784E1,1.2014528E2,9.782139E0,2.4260178E1,1.2431409E2,1.0024702E1,5.2317953E0,1.1798685E1,5.1945316E1,1.3438838E1,5.2351475E1,6.489843E1,1.8775381E2,2.0154999E2,7.9756865E3,7.48046E1,4.364571E2,5.661093E0,7.003273E1,4.642247E1,1.21710205E1,1.1358802E2,6.5572615E0,1.4724913E1,9.535265E0,1.0489124E2,1.9422844E1,5.7076054E0,7.731233E0,3.3374138E1,3.1524292E1,1.8266377E2,5.0900292E0,6.0811954E1,1.4073804E2],"tree_param":{"num_deleted":"0","num_feature":"23","num_nodes":"71","size_leaf_vector":"1"}},{"base_weights":[-1.5645328E-3,5.023632E-1,-6.0208774E-1,-4.735089E-1,1.09931E0,-1.6309628E-1,-6.359306E-1,-5.601513E-1,6.948167E-2,-1.7739892E-1,1.3241041E0,4.7472365E-2,-2.5500134E-2,-4.979477E-1,-2.6457356E-2,-5.8099115E-1,7.6079315E-1,-3.3923343E-1,1.3691065E0,1.4122499E0,-2.6239889E-2,2.5407755E-1,-4.19325E-1,-4.171947E-1,-2.6270367E-2,-5.991393E-1,-1.2577571E-1,1.0290133E0,-1.3481745E-2,-4.770321E-1,3.85345E-1,-0E0,6.280362E-2,1.5031714E0,5.927484E-1,2.2126319E-2,7.200956E-1,-3.508036E-2,-2.3716222E-2,-2.9217967E-1,-2.3292653E-2,-2.6136365E-2,-2.0596463E-2,-1.6548216E-2,3.0992903E-2,9.4591705E-3,4.7740545E-2,-2.2110242E-2,-1.0174037E-2,-4.957915E-3,3.204681E-2,6.24737E-2,1.4585414E-2,3.2130755E-2,-1.2406337E-2,-2.1653085E-3,1.7986597E-2,8.166612E-4,3.793978E-2,1.3742081E-2,-1.9149268E-2,-1.830871E-2,-4.8551373E-3],"categories":[],"categories_nodes":[],"categories_segments":[],"categories_sizes":[],"default_left":[0,0,0,0,0,0,0,0,0,0,0,0,0,0,0,0,0,0,0,0,0,0,0,0,0,0,0,0,0,0,0,0,0,0,0,0,0,0,0,0,0,0,0,0,0,0,0,0,0,0,0,0,0,0,0,0,0,0,0,0,0,0,0],"id":9,"left_children":[1,3,5,7,9,11,13,15,-1,17,19,21,-1,23,-1,25,27,29,31,33,-1,35,37,39,-1,41,43,45,-1,47,49,-1,-1,51,53,55,57,59,-1,61,-1,-1,-1,-1,-1,-1,-1,-1,-1,-1,-1,-1,-1,-1,-1,-1,-1,-1,-1,-1,-1,-1,-1],"loss_changes":[3.7240388E3,3.8988057E3,8.2590454E1,4.7927692E2,1.1929917E3,3.9949806E1,6.911377E0,6.793329E1,0E0,1.5583017E2,6.1432715E2,2.698413E1,0E0,3.5885544E0,0E0,1.9167358E1,1.233457E1,5.6875374E1,1.4598457E1,2.4859229E2,0E0,2.0539164E1,4.7354097E0,4.3379364E0,0E0,7.419861E0,2.4053259E1,1.8970718E0,0E0,6.095482E0,1.8997452E1,0E0,0E0,8.848682E1,6.0137474E1,4.5608754E0,8.52216E0,4.991547E0,0E0,3.7750397E0,0E0,0E0,0E0,0E0,0E0,0E0,0E0,0E0,0E0,0E0,0E0,0E0,0E0,0E0,0E0,0E0,0E0,0E0,0E0,0E0,0E0,0E0,0E0],"parents":[2147483647,0,0,1,1,2,2,3,3,4,4,5,5,6,6,7,7,9,9,10,10,11,11,13,13,15,15,16,16,17,17,18,18,19,19,21,21,22,22,23,23,25,25,26,26,27,27,29,29,30,30,33,33,34,34,35,35,36,36,37,37,39,39],"right_children":[2,4,6,8,10,12,14,16,-1,18,20,22,-1,24,-1,26,28,30,32,34,-1,36,38,40,-1,42,44,46,-1,48,50,-1,-1,52,54,56,58,60,-1,62,-1,-1,-1,-1,-1,-1,-1,-1,-1,-1,-1,-1,-1,-1,-1,-1,-1,-1,-1,-1,-1,-1,-1],"split_conditions":[7E0,1E0,8E0,1E0,4.4E-1,1.6E0,9E0,3E0,6.948167E-2,3E0,2E0,7E0,-2.5500134E-2,1.6266E0,-2.6457356E-2,4E0,4E0,4E0,3.333E-1,6E0,-2.6239889E-2,3E0,6.75E-1,7E0,-2.6270367E-2,4.143E-1,5.083E-1,1.176E-1,-1.3481745E-2,3.875E-1,3.875E-1,-0E0,6.280362E-2,7E0,7E0,4.5E-1,2.667E-1,9E0,-2.3716222E-2,2E0,-2.3292653E-2,-2.6136365E-2,-2.0596463E-2,-1.6548216E-2,3.0992903E-2,9.4591705E-3,4.7740545E-2,-2.2110242E-2,-1.0174037E-2,-4.957915E-3,3.204681E-2,6.24737E-2,1.4585414E-2,3.2130755E-2,-1.2406337E-2,-2.1653085E-3,1.7986597E-2,8.166612E-4,3.793978E-2,1.3742081E-2,-1.9149268E-2,-1.830871E-2,-4.8551373E-3],"split_indices":[4,11,4,12,22,22,4,4,0,11,12,11,0,22,0,5,6,5,10,4,0,6,10,11,0,10,10,8,0,10,10,0,0,11,11,9,9,11,0,6,0,0,0,0,0,0,0,0,0,0,0,0,0,0,0,0,0,0,0,0,0,0,0],"split_type":[0,0,0,0,0,0,0,0,0,0,0,0,0,0,0,0,0,0,0,0,0,0,0,0,0,0,0,0,0,0,0,0,0,0,0,0,0,0,0,0,0,0,0,0,0,0,0,0,0,0,0,0,0,0,0,0,0,0,0,0,0,0,0],"sum_hessian":[1.2302127E4,6.688458E3,5.6136694E3,2.538156E3,4.150302E3,4.0426492E2,5.209405E3,2.4425312E3,9.562468E1,6.208665E2,3.5294353E3,2.7742044E2,1.2684449E2,4.1917493E2,4.7902295E3,2.4061904E3,3.634078E1,5.637936E2,5.7072968E1,3.378894E3,1.5054115E2,1.9408177E2,8.333867E1,2.7738077E2,1.4179417E2,2.3116738E3,9.451663E1,2.9849642E1,6.4911346E0,4.7516458E2,8.862896E1,6.002624E0,5.1070343E1,3.039213E3,3.396813E2,1.320044E2,6.2077377E1,2.6770672E1,5.6567997E1,1.5844275E2,1.1893801E2,1.6055718E3,7.061022E2,7.3270424E1,2.1246206E1,6.0265856E0,2.3823057E1,3.6604947E2,1.0911512E2,3.870078E1,4.9928177E1,2.9702397E3,6.897305E1,2.8023477E2,5.9446533E1,1.1157357E2,2.0430824E1,1.5599111E1,4.6478264E1,1.3623629E1,1.3147043E1,7.942205E1,7.90207E1],"tree_param":{"num_deleted":"0","num_feature":"23","num_nodes":"63","size_leaf_vector":"1"}},{"base_weights":[-1.9437166E-4,-6.082553E-1,4.8536614E-1,-6.2448233E-1,6.6588625E-2,1.1933279E0,-4.7849277E-1,-6.310492E-1,4.0352014E-1,4.4244602E-1,1.4066503E0,1.5782965E0,-5.424436E-1,-2.631344E-2,-5.0729805E-1,-9.6636005E-3,5.635793E-2,2.1730377E-1,6.9043756E-2,1.4700379E0,-5.509559E-1,1.6088123E-2,6.856345E-2,-8.166599E-2,-5.9615827E-1,-2.1368109E-2,-1.6243099E-1,7.770462E-3,1.2477057E0,1.5343074E0,8.5259837E-1,5.642065E-3,-2.5849061E-2,1.1704711E-1,-2.3277294E-2,-4.031064E-1,-6.264099E-1,-2.003257E-2,3.358114E-2,1.6558355E-2,-7.814526E-3,5.801689E-2,1.564756E-2,3.9523855E-2,6.329088E-2,6.814641E-2,2.3661904E-2,-9.298379E-3,1.7304644E-2,-7.654337E-3,-2.268968E-2,-2.1979276E-2,-2.6323041E-2],"categories":[],"categories_nodes":[],"categories_segments":[],"categories_sizes":[],"default_left":[0,0,0,0,0,0,0,0,0,0,0,0,0,0,0,0,0,0,0,0,0,0,0,0,0,0,0,0,0,0,0,0,0,0,0,0,0,0,0,0,0,0,0,0,0,0,0,0,0,0,0,0,0],"id":10,"left_children":[1,3,5,7,-1,9,11,13,15,17,19,21,23,-1,25,-1,-1,27,-1,29,31,-1,-1,33,35,-1,37,39,41,43,45,-1,-1,47,-1,49,51,-1,-1,-1,-1,-1,-1,-1,-1,-1,-1,-1,-1,-1,-1,-1,-1],"loss_changes":[3.6302207E3,1.993009E2,4.6659062E3,3.7244385E1,0E0,6.287798E2,3.8152545E2,7.194092E0,2.3207914E1,2.4373236E2,3.8290967E2,7.483185E0,6.8903564E1,0E0,2.1671448E0,0E0,0E0,1.5966107E2,0E0,1.1367578E2,6.0342293E0,0E0,0E0,2.9297882E1,1.3393799E1,0E0,9.490899E0,4.945817E1,1.6214828E1,1.8091309E1,6.0088608E1,0E0,0E0,2.2665892E1,0E0,1.0686752E1,1.8526001E0,0E0,0E0,0E0,0E0,0E0,0E0,0E0,0E0,0E0,0E0,0E0,0E0,0E0,0E0,0E0,0E0],"parents":[2147483647,0,0,1,1,2,2,3,3,5,5,6,6,7,7,8,8,9,9,10,10,11,11,12,12,14,14,17,17,19,19,20,20,23,23,24,24,26,26,27,27,28,28,29,29,30,30,33,33,35,35,36,36],"right_children":[2,4,6,8,-1,10,12,14,16,18,20,22,24,-1,26,-1,-1,28,-1,30,32,-1,-1,34,36,-1,38,40,42,44,46,-1,-1,48,-1,50,52,-1,-1,-1,-1,-1,-1,-1,-1,-1,-1,-1,-1,-1,-1,-1,-1],"split_conditions":[5E0,2E0,1.4E1,7E0,6.6588625E-2,7E0,1.6E0,4E0,5.7058823E-1,2E0,2.8749E0,7.809524E-1,1.5E1,-2.631344E-2,6E0,-9.6636005E-3,5.635793E-2,3.6E1,6.9043756E-2,1.3E1,2.9118E0,1.6088123E-2,6.856345E-2,2.775E0,1.6E1,-2.1368109E-2,6.1E-1,2E0,4E0,6.545454E-1,1.5666E0,5.642065E-3,-2.5849061E-2,2.857E-1,-2.3277294E-2,2.6052E0,1.7E1,-2.003257E-2,3.358114E-2,1.6558355E-2,-7.814526E-3,5.801689E-2,1.564756E-2,3.9523855E-2,6.329088E-2,6.814641E-2,2.3661904E-2,-9.298379E-3,1.7304644E-2,-7.654337E-3,-2.268968E-2,-2.1979276E-2,-2.6323041E-2],"split_indices":[4,12,4,11,0,4,22,4,18,12,22,18,4,0,11,0,0,20,0,4,22,0,0,22,4,0,18,6,6,18,22,0,0,9,0,22,4,0,0,0,0,0,0,0,0,0,0,0,0,0,0,0,0],"split_type":[0,0,0,0,0,0,0,0,0,0,0,0,0,0,0,0,0,0,0,0,0,0,0,0,0,0,0,0,0,0,0,0,0,0,0,0,0,0,0,0,0,0,0,0,0,0,0,0,0,0,0,0,0],"sum_hessian":[1.2291475E4,5.4578755E3,6.833599E3,5.4202354E3,3.764006E1,3.9400334E3,2.8935657E3,5.3873057E3,3.2929626E1,8.7376416E2,3.0662693E3,8.559192E1,2.8079739E3,4.8598325E3,5.274731E2,2.0203112E1,1.2726514E1,7.4253015E2,1.3123401E2,2.9709324E3,9.533687E1,7.9900565E0,7.760186E1,2.9521722E2,2.5127566E3,5.0126614E2,2.6206963E1,6.192091E2,1.23321045E2,2.6872373E3,2.8369525E2,8.928295E0,8.640857E1,2.0958862E2,8.56286E1,3.4753656E2,2.16522E3,2.0953741E1,5.2532215E0,2.0734454E2,4.1186456E2,1.01067535E2,2.2253508E1,7.360359E1,2.6136335E3,6.818101E1,2.1551425E2,9.762713E1,1.1196149E2,1.4768933E2,1.9984723E2,3.8247873E2,1.7827413E3],"tree_param":{"num_deleted":"0","num_feature":"23","num_nodes":"53","size_leaf_vector":"1"}},{"base_weights":[6.658223E-3,-6.0883486E-1,1.4864151E0,-6.232573E-1,1.5560155E0,-4.4768098E-1,1.570314E0,-6.386179E-1,-2.086749E-1,1.7830921E-2,6.756179E-2,-2.6079576E-2,2.3640412E-1,1.0879682E0,1.6645176E0,-2.6624277E-2,-5.1163936E-1,-4.9927226E-1,1.306143E-1,-5.918466E-3,4.0296763E-2,8.721968E-1,6.789367E-2,1.4883796E0,6.905409E-2,-2.535185E-2,-4.0625495E-1,-2.1713275E-2,-0E0,3.418042E-2,-6.361004E-2,3.28683E-1,1.135936E0,5.2553594E-2,6.6481456E-2,-1.9055324E-2,-0E0,-5.6514526E-3,3.6936946E-2,2.4312555E-3,3.0518984E-2,5.5135883E-2,3.5922397E-2],"categories":[],"categories_nodes":[],"categories_segments":[],"categories_sizes":[],"default_left":[0,0,0,0,0,0,0,0,0,0,0,0,0,0,0,0,0,0,0,0,0,0,0,0,0,0,0,0,0,0,0,0,0,0,0,0,0,0,0,0,0,0,0],"id":11,"left_children":[1,3,5,7,9,11,13,15,17,-1,-1,-1,19,21,23,-1,25,27,29,-1,-1,31,-1,33,-1,-1,35,-1,-1,-1,37,39,41,-1,-1,-1,-1,-1,-1,-1,-1,-1,-1],"loss_changes":[1.1180181E4,2.7162793E2,5.8733496E2,5.3918945E1,3.3007812E0,2.0287369E1,1.5159473E2,1.2277588E1,3.1205532E1,0E0,0E0,0E0,1.045789E1,6.6109985E1,6.0458984E0,0E0,7.7957E0,3.1236382E0,2.0499224E1,0E0,0E0,5.8358795E1,0E0,4.7790527E0,0E0,0E0,1.0294205E1,0E0,0E0,0E0,7.833367E0,1.5117756E1,1.1474304E1,0E0,0E0,0E0,0E0,0E0,0E0,0E0,0E0,0E0,0E0],"parents":[2147483647,0,0,1,1,2,2,3,3,4,4,5,5,6,6,7,7,8,8,12,12,13,13,14,14,16,16,17,17,18,18,21,21,23,23,26,26,30,30,31,31,32,32],"right_children":[2,4,6,8,10,12,14,16,18,-1,-1,-1,20,22,24,-1,26,28,30,-1,-1,32,-1,34,-1,-1,36,-1,-1,-1,38,40,42,-1,-1,-1,-1,-1,-1,-1,-1,-1,-1],"split_conditions":[1.3E1,2.8749E0,1.6266E0,1.2E1,2.9118E0,1.55E0,1.5E1,1E1,1.72E0,1.7830921E-2,6.756179E-2,-2.6079576E-2,1.7E2,2.8044E0,1.6E1,-2.6624277E-2,1.5818E0,4.118E-1,2.222E-1,-5.918466E-3,4.0296763E-2,8.5263157E-1,6.789367E-2,2.6052E0,6.905409E-2,-2.535185E-2,7.727E-1,-2.1713275E-2,-0E0,3.418042E-2,4.375E-1,3.333E-1,2.941E-1,5.2553594E-2,6.6481456E-2,-1.9055324E-2,-0E0,-5.6514526E-3,3.6936946E-2,2.4312555E-3,3.0518984E-2,5.5135883E-2,3.5922397E-2],"split_indices":[4,22,22,4,22,22,4,4,22,0,0,0,20,22,4,0,22,8,9,0,0,18,0,22,0,0,7,0,0,0,8,8,9,0,0,0,0,0,0,0,0,0,0],"split_type":[0,0,0,0,0,0,0,0,0,0,0,0,0,0,0,0,0,0,0,0,0,0,0,0,0,0,0,0,0,0,0,0,0,0,0,0,0,0,0,0,0,0,0],"sum_hessian":[1.2271031E4,8.666693E3,3.6043381E3,8.610979E3,5.5715054E1,1.4912498E2,3.4552134E3,8.300505E3,3.1047382E2,5.9324646E0,4.978259E1,1.17639366E2,3.1485617E1,5.6964075E2,2.8855725E3,7.511056E3,7.8944806E2,1.68076E2,1.4239783E2,2.1111778E1,1.0373839E1,4.1832028E2,1.5132047E2,3.866703E2,2.498902E3,3.8006107E2,4.09387E2,1.5914905E2,8.926954E0,3.0346617E1,1.1205121E2,1.389944E2,2.793259E2,1.675325E2,2.1913779E2,3.5742123E2,5.196577E1,1.0622597E2,5.8252378E0,8.7010254E1,5.1984146E1,1.464987E2,1.3282718E2],"tree_param":{"num_deleted":"0","num_feature":"23","num_nodes":"43","size_leaf_vector":"1"}},{"base_weights":[2.671114E-3,1.3523756E0,-6.078509E-1,1.4749348E0,-2.6529592E-2,3.1806642E-1,-6.346356E-1,1.5142933E0,3.1919694E-1,7.8137267E-1,-4.2113099E-1,-4.5598894E-1,-2.6390564E-2,1.526547E0,2.4688166E-1,1.0417204E0,4.5261376E-2,1.0536041E0,1.1738296E-1,-0E0,-2.2468109E-2,2.8087637E-1,-5.5247915E-1,1.5464073E0,1.0529809E0,2.8754381E-2,-1.3007587E-1,5.419999E-2,-0E0,6.7976546E-1,-2.0288907E-1,1.1734577E0,2.0404969E-1,2.5859305E-1,-1.769352E-2,3.1415838E-1,-1.839672E-2,3.222513E-2,-2.0301737E-2,-3.453509E-1,-2.5597723E-2,6.469437E-2,5.892837E-2,4.8372E-2,3.6202632E-3,1.0543032E-2,-1.803514E-2,3.8452283E-2,-6.059108E-3,-1.5473323E-2,7.6553593E-3,2.6851444E-2,5.5773E-2,-2.1908204E-3,2.6852304E-2,-0E0,2.062691E-2,-1.1516293E-3,2.945741E-2,1.9958433E-2,-1.851889E-2],"categories":[],"categories_nodes":[],"categories_segments":[],"categories_sizes":[],"default_left":[0,0,0,0,0,0,0,0,0,0,0,0,0,0,0,0,0,0,0,0,0,0,0,0,0,0,0,0,0,0,0,0,0,0,0,0,0,0,0,0,0,0,0,0,0,0,0,0,0,0,0,0,0,0,0,0,0,0,0,0,0],"id":12,"left_children":[1,3,5,7,-1,9,11,13,15,17,19,21,-1,23,25,27,29,31,33,35,-1,37,39,41,43,-1,45,-1,-1,47,49,51,53,55,-1,57,-1,-1,-1,59,-1,-1,-1,-1,-1,-1,-1,-1,-1,-1,-1,-1,-1,-1,-1,-1,-1,-1,-1,-1,-1],"loss_changes":[1.0114047E4,9.403076E2,2.1018945E2,1.6154932E2,0E0,8.23621E1,1.5264648E1,5.197998E1,2.3101658E1,2.5495728E1,5.2275047E0,3.6194107E1,0E0,2.7404785E1,6.8557363E0,9.894939E0,1.494458E1,8.992462E0,3.618052E0,3.3991847E0,0E0,2.3989796E1,5.659729E0,6.227539E0,1.7246292E1,0E0,2.8113627E0,0E0,0E0,6.7180033E0,4.7987256E0,5.6079025E0,2.4019117E0,2.7037413E0,0E0,2.680476E0,0E0,0E0,0E0,1.1559088E1,0E0,0E0,0E0,0E0,0E0,0E0,0E0,0E0,0E0,0E0,0E0,0E0,0E0,0E0,0E0,0E0,0E0,0E0,0E0,0E0,0E0],"parents":[2147483647,0,0,1,1,2,2,3,3,5,5,6,6,7,7,8,8,9,9,10,10,11,11,13,13,14,14,15,15,16,16,17,17,18,18,19,19,21,21,22,22,23,23,24,24,26,26,29,29,30,30,31,31,32,32,33,33,35,35,39,39],"right_children":[2,4,6,8,-1,10,12,14,16,18,20,22,-1,24,26,28,30,32,34,36,-1,38,40,42,44,-1,46,-1,-1,48,50,52,54,56,-1,58,-1,-1,-1,60,-1,-1,-1,-1,-1,-1,-1,-1,-1,-1,-1,-1,-1,-1,-1,-1,-1,-1,-1,-1,-1],"split_conditions":[2E0,1E0,4.8E-1,5E0,-2.6529592E-2,3E0,4E0,3E0,1E0,4E0,4.2E-1,2E0,-2.6390564E-2,4E0,6.545E-1,5.083E-1,4E-1,4.727E-1,7E0,4E0,-2.2468109E-2,6.833E-1,5.75E-1,4.222E-1,5.125E-1,2.8754381E-2,4.082653E-2,5.419999E-2,-0E0,3E0,4.091E-1,8E0,4.5E-1,3.478E-1,-1.769352E-2,1.2E1,-1.839672E-2,3.222513E-2,-2.0301737E-2,3E0,-2.5597723E-2,6.469437E-2,5.892837E-2,4.8372E-2,3.6202632E-3,1.0543032E-2,-1.803514E-2,3.8452283E-2,-6.059108E-3,-1.5473323E-2,7.6553593E-3,2.6851444E-2,5.5773E-2,-2.1908204E-3,2.6852304E-2,-0E0,2.062691E-2,-1.1516293E-3,2.945741E-2,1.9958433E-2,-1.851889E-2],"split_indices":[20,12,22,5,0,11,20,4,11,5,10,5,0,5,10,10,10,10,5,11,0,22,22,10,10,0,21,0,0,11,9,3,9,9,0,3,0,0,0,5,0,0,0,0,0,0,0,0,0,0,0,0,0,0,0,0,0,0,0,0,0],"split_type":[0,0,0,0,0,0,0,0,0,0,0,0,0,0,0,0,0,0,0,0,0,0,0,0,0,0,0,0,0,0,0,0,0,0,0,0,0,0,0,0,0,0,0,0,0,0,0,0,0,0,0,0,0,0,0,0,0,0,0,0,0],"sum_hessian":[1.2269652E4,3.8211804E3,8.448472E3,3.6015542E3,2.1962617E2,2.361212E2,8.212351E3,3.4817236E3,1.1983051E2,1.4576222E2,9.035898E1,5.002428E2,7.712108E3,3.4473843E3,3.433936E1,3.0744373E1,8.908614E1,1.0176198E2,4.4000248E1,2.0840933E1,6.951804E1,5.6546417E1,4.4369638E2,3.3030808E3,1.4430348E2,1.5796956E1,1.85424E1,2.3887774E1,6.8565993E0,2.509315E1,6.399299E1,8.774131E1,1.4020663E1,3.695191E1,7.0483384E0,1.3134897E1,7.706035E0,3.4826145E1,2.1720272E1,1.22503494E2,3.2119287E2,2.407201E3,8.958799E2,1.25929756E2,1.8373726E1,7.2255344E0,1.1316867E1,1.9632702E1,5.4604483E0,4.558938E1,1.8403612E1,2.7069983E1,6.067133E1,8.799515E0,5.2211485E0,1.7976042E1,1.8975866E1,6.9512143E0,6.183683E0,1.2453693E1,1.100498E2],"tree_param":{"num_deleted":"0","num_feature":"23","num_nodes":"61","size_leaf_vector":"1"}},{"base_weights":[7.292751E-4,4.533909E-1,-6.043226E-1,-4.2936304E-1,1.0646943E0,4.318863E-1,-6.2800425E-1,-5.3456736E-1,6.492575E-2,1.2124287E0,-1.1174693E-1,8.191995E-1,-4.2268798E-1,-3.9216596E-1,-2.601445E-2,-5.5328614E-1,5.8685154E-1,1.2683575E0,-2.5808778E-2,2.5054646E-1,-5.1099855E-1,1.0148563E0,-1.9580742E-2,-2.2914635E-2,4.136574E-4,-2.1952638E-1,-2.4437306E-2,-2.4886955E-2,-3.6333975E-1,8.0426097E-1,-1.4051808E-3,3.2424062E-1,1.3348844E0,-1.0128285E-1,8.7249136E-1,-2.385135E-2,-0E0,1.1153772E0,4.558534E-3,-2.6122935E-2,-2.4397038E-2,-5.626934E-3,-2.0082125E-2,5.606008E-2,1.6382549E-2,-1.4559929E-3,6.404493E-2,2.9930545E-2,5.6382146E-2,-2.0333886E-2,6.210478E-3,4.3719806E-2,-1.9836692E-2,2.0969057E-2,-1.4211824E-2,2.6257426E-2,5.3207554E-2,2.2381165E-3,-2.0333178E-2],"categories":[],"categories_nodes":[],"categories_segments":[],"categories_sizes":[],"default_left":[0,0,0,0,0,0,0,0,0,0,0,0,0,0,0,0,0,0,0,0,0,0,0,0,0,0,0,0,0,0,0,0,0,0,0,0,0,0,0,0,0,0,0,0,0,0,0,0,0,0,0,0,0,0,0,0,0,0,0],"id":13,"left_children":[1,3,5,7,9,11,13,15,-1,17,19,21,23,25,-1,27,29,31,-1,33,35,37,-1,-1,-1,39,-1,-1,41,43,-1,45,47,49,51,-1,53,55,-1,57,-1,-1,-1,-1,-1,-1,-1,-1,-1,-1,-1,-1,-1,-1,-1,-1,-1,-1,-1],"loss_changes":[3.3557532E3,3.7840923E3,1.2930493E2,6.0993317E2,7.2116455E2,3.981454E1,9.352905E0,5.7829712E1,0E0,3.8166553E2,6.74455E1,2.2161095E1,2.6818533E0,5.941614E0,0E0,2.7332214E1,6.7482824E0,2.2235498E2,0E0,5.3956444E1,8.700203E0,5.3554764E0,0E0,0E0,0E0,7.4743485E0,0E0,0E0,1.7259827E1,5.435215E0,0E0,1.0805315E2,8.7478516E1,1.6080215E1,2.5255348E1,0E0,5.482643E0,2.5902328E0,0E0,3.3031123E0,0E0,0E0,0E0,0E0,0E0,0E0,0E0,0E0,0E0,0E0,0E0,0E0,0E0,0E0,0E0,0E0,0E0,0E0,0E0],"parents":[2147483647,0,0,1,1,2,2,3,3,4,4,5,5,6,6,7,7,9,9,10,10,11,11,12,12,13,13,15,15,16,16,17,17,19,19,20,20,21,21,25,25,28,28,29,29,31,31,32,32,33,33,34,34,36,36,37,37,39,39],"right_children":[2,4,6,8,10,12,14,16,-1,18,20,22,24,26,-1,28,30,32,-1,34,36,38,-1,-1,-1,40,-1,-1,42,44,-1,46,48,50,52,-1,54,56,-1,58,-1,-1,-1,-1,-1,-1,-1,-1,-1,-1,-1,-1,-1,-1,-1,-1,-1,-1,-1],"split_conditions":[9.9996E0,3E0,6.545454E-1,1E0,2.6E1,5E1,7E-1,2E0,6.492575E-2,2E0,3.8E1,2E0,2E1,5.7E1,-2.601445E-2,1.9999E0,4E0,4.1428572E-1,-2.5808778E-2,3E0,4E0,1.16998E1,-1.9580742E-2,-2.2914635E-2,4.136574E-4,2E0,-2.4437306E-2,-2.4886955E-2,3E0,2.105E-1,-1.4051808E-3,1E0,1E0,1.2E1,2E0,-2.385135E-2,4.4E1,6E0,4.558534E-3,1.26E1,-2.4397038E-2,-5.626934E-3,-2.0082125E-2,5.606008E-2,1.6382549E-2,-1.4559929E-3,6.404493E-2,2.9930545E-2,5.6382146E-2,-2.0333886E-2,6.210478E-3,4.3719806E-2,-1.9836692E-2,2.0969057E-2,-1.4211824E-2,2.6257426E-2,5.3207554E-2,2.2381165E-3,-2.0333178E-2],"split_indices":[19,19,18,12,20,20,18,20,0,12,20,12,3,20,0,19,6,18,0,6,6,19,0,0,0,12,0,0,6,7,0,12,20,3,12,0,20,2,0,19,0,0,0,0,0,0,0,0,0,0,0,0,0,0,0,0,0,0,0],"split_type":[0,0,0,0,0,0,0,0,0,0,0,0,0,0,0,0,0,0,0,0,0,0,0,0,0,0,0,0,0,0,0,0,0,0,0,0,0,0,0,0,0,0,0,0,0,0,0,0,0,0,0,0,0,0,0,0,0,0,0],"sum_hessian":[1.2249338E4,7.0081094E3,5.2412285E3,2.8670867E3,4.1410225E3,1.1564838E2,5.1255806E3,2.7267034E3,1.4038344E2,3.6795876E3,4.6143472E2,8.028785E1,3.5360527E1,1.9060364E2,4.9349766E3,2.6835437E3,4.3159557E1,3.5722534E3,1.0733435E2,2.4119383E2,2.2024088E2,7.065991E1,9.627936E0,2.7826044E1,7.5344825E0,1.0787068E2,8.273295E1,2.0668567E3,6.1668713E2,3.255196E1,1.0607598E1,2.366471E2,3.3356062E3,1.5417021E2,8.702363E1,1.9380962E2,2.6431265E1,6.239351E1,8.266404E0,7.4033066E1,3.3837624E1,2.271595E2,3.8952765E2,1.0888205E1,2.1663755E1,1.843725E2,5.22746E1,2.3668365E2,3.0989226E3,6.068207E1,9.348814E1,7.681953E1,1.0204101E1,1.1197075E1,1.5234191E1,2.118219E1,4.121132E1,6.3068207E1,1.0964855E1],"tree_param":{"num_deleted":"0","num_feature":"23","num_nodes":"59","size_leaf_vector":"1"}},{"base_weights":[3.5528068E-3,-5.87947E-1,4.5918968E-1,-6.077517E-1,6.299219E-2,1.0102956E0,-4.454401E-1,-6.1778706E-1,3.9728594E-1,-9.673418E-2,1.1596671E0,1.3398767E0,-5.3382194E-1,-2.5921775E-2,-4.017116E-1,6.737179E-2,-4.488729E-1,-2.4651915E-1,6.2868394E-2,1.2746053E0,-2.737035E-1,1.4462391E0,-6.6151847E-3,4.2971432E-1,-5.767393E-1,-4.547734E-1,2.747199E-1,-2.3565045E-2,1.04061866E-4,-3.666644E-1,5.8744807E-2,1.3456961E0,7.424738E-1,2.769135E-1,-5.7563204E-1,6.4111724E-2,6.5722084E-1,7.597435E-1,-2.108599E-2,-3.8026848E-1,-2.5305862E-2,-2.1545555E-2,-4.4184607E-3,-0E0,4.589345E-2,-2.1138107E-2,-7.3667257E-3,3.4789953E-2,5.8697037E-2,5.5372763E-2,1.3113777E-2,4.248129E-2,-4.9363384E-3,-6.652028E-3,-2.6050674E-2,-0E0,3.8510498E-2,4.276096E-2,-6.149525E-3,1.539707E-4,-1.919188E-2],"categories":[],"categories_nodes":[],"categories_segments":[],"categories_sizes":[],"default_left":[0,0,0,0,0,0,0,0,0,0,0,0,0,0,0,0,0,0,0,0,0,0,0,0,0,0,0,0,0,0,0,0,0,0,0,0,0,0,0,0,0,0,0,0,0,0,0,0,0,0,0,0,0,0,0,0,0,0,0,0,0],"id":14,"left_children":[1,3,5,7,-1,9,11,13,15,17,19,21,23,-1,25,-1,27,29,-1,31,33,35,-1,37,39,41,43,-1,-1,45,-1,47,49,51,53,-1,55,57,-1,59,-1,-1,-1,-1,-1,-1,-1,-1,-1,-1,-1,-1,-1,-1,-1,-1,-1,-1,-1,-1,-1],"loss_changes":[3.2994172E3,2.2559619E2,3.4493928E3,5.3862427E1,0E0,7.1196094E2,4.138824E2,1.7617676E1,5.7893005E1,1.2509505E2,6.256372E2,2.121196E1,1.0383002E2,0E0,1.41694145E1,0E0,2.3384604E0,9.542736E1,0E0,1.2922803E2,4.744494E1,7.6204376E0,0E0,3.4210266E1,1.884143E1,8.40004E0,7.248914E0,0E0,0E0,1.1672428E1,0E0,1.3514209E2,1.0605528E2,3.1381172E1,3.8700256E0,0E0,3.3690062E0,2.2034077E1,0E0,1.5349075E1,0E0,0E0,0E0,0E0,0E0,0E0,0E0,0E0,0E0,0E0,0E0,0E0,0E0,0E0,0E0,0E0,0E0,0E0,0E0,0E0,0E0],"parents":[2147483647,0,0,1,1,2,2,3,3,5,5,6,6,7,7,8,8,9,9,10,10,11,11,12,12,14,14,16,16,17,17,19,19,20,20,21,21,23,23,24,24,25,25,26,26,29,29,31,31,32,32,33,33,34,34,36,36,37,37,39,39],"right_children":[2,4,6,8,-1,10,12,14,16,18,20,22,24,-1,26,-1,28,30,-1,32,34,36,-1,38,40,42,44,-1,-1,46,-1,48,50,52,54,-1,56,58,-1,60,-1,-1,-1,-1,-1,-1,-1,-1,-1,-1,-1,-1,-1,-1,-1,-1,-1,-1,-1,-1,-1],"split_conditions":[7.3997E0,2E0,1.60002E1,6E0,6.299219E-2,6.4E-1,1.6428E0,6.813E-1,1.3E1,2E0,2.6625E0,1.7E1,7.059E-1,-2.5921775E-2,4E0,6.737179E-2,7E0,9E0,6.2868394E-2,7.6E-1,2.8749E0,1.6E0,-6.6151847E-3,2.5092E0,7.917E-1,6.5002E0,7.462E-1,-2.3565045E-2,1.04061866E-4,6E-1,5.8744807E-2,9.2004E0,1.27007E1,1.35008E1,2.9118E0,6.4111724E-2,3E0,1.79004E1,-2.108599E-2,1.66991E1,-2.5305862E-2,-2.1545555E-2,-4.4184607E-3,-0E0,4.589345E-2,-2.1138107E-2,-7.3667257E-3,3.4789953E-2,5.8697037E-2,5.5372763E-2,1.3113777E-2,4.248129E-2,-4.9363384E-3,-6.652028E-3,-2.6050674E-2,-0E0,3.8510498E-2,4.276096E-2,-6.149525E-3,1.539707E-4,-1.919188E-2],"split_indices":[19,12,19,11,0,10,22,10,3,12,22,11,7,0,11,0,11,11,0,7,22,22,0,22,7,19,10,0,0,10,0,19,19,19,22,0,14,19,0,19,0,0,0,0,0,0,0,0,0,0,0,0,0,0,0,0,0,0,0,0,0],"split_type":[0,0,0,0,0,0,0,0,0,0,0,0,0,0,0,0,0,0,0,0,0,0,0,0,0,0,0,0,0,0,0,0,0,0,0,0,0,0,0,0,0,0,0,0,0,0,0,0,0,0,0,0,0,0,0,0,0,0,0,0,0],"sum_hessian":[1.2239125E4,5.3245625E3,6.9145625E3,5.2771562E3,4.740603E1,4.297308E3,2.6172544E3,5.2264707E3,5.0685436E1,5.1032654E2,3.7869817E3,1.2182371E2,2.4954307E3,4.843814E3,3.826569E2,2.0144596E1,3.0540838E1,4.6936465E2,4.0961857E1,3.5065667E3,2.80415E2,1.14335106E2,7.4886E0,1.0491243E2,2.3905183E3,3.5648474E2,2.6172165E1,2.4814075E1,5.7267623E0,4.3987653E2,2.9488136E1,3.0895444E3,4.170222E2,9.840545E1,1.8200957E2,9.647422E1,1.7860888E1,7.8675514E1,2.6236914E1,4.335077E2,1.9570105E3,2.920068E2,6.447792E1,2.0547588E1,5.624575E0,2.389648E2,2.0091173E2,4.8541766E2,2.6041267E3,1.675016E2,2.4952058E2,3.3431976E1,6.497347E1,2.6350788E1,1.5565878E2,6.3090963E0,1.1551791E1,6.0293015E1,1.83825E1,8.055671E1,3.5295096E2],"tree_param":{"num_deleted":"0","num_feature":"23","num_nodes":"61","size_leaf_vector":"1"}},{"base_weights":[-6.0206186E-3,-6.0495967E-1,1.3906758E0,-6.192057E-1,6.0857E-2,-4.5354873E-1,1.4687229E0,-6.34519E-1,-2.114946E-1,-2.5857847E-2,2.0793496E-1,1.0085677E0,1.5583864E0,-6.360946E-1,1.2282331E-1,-2.4263684E-2,2.6482154E-2,-2.9169784E-3,4.4610057E-2,8.0680656E-1,6.327488E-2,1.1523661E-2,1.5602771E0,-2.6340045E-2,-5.031171E-1,3.541393E-2,-1.3707067E-2,4.5275977E-1,-1.975702E-1,2.4267857E-1,1.0534158E0,1.4668704E0,6.5222815E-2,-2.4984853E-2,-1.5532073E-2,4.8939865E-3,3.1138165E-2,-1.3764749E-2,1.0432928E-2,4.212337E-3,4.9096096E-2,5.1746376E-2,3.2574594E-2,5.6215998E-2,6.473851E-2],"categories":[],"categories_nodes":[],"categories_segments":[],"categories_sizes":[],"default_left":[0,0,0,0,0,0,0,0,0,0,0,0,0,0,0,0,0,0,0,0,0,0,0,0,0,0,0,0,0,0,0,0,0,0,0,0,0,0,0,0,0,0,0,0,0],"id":15,"left_children":[1,3,5,7,-1,9,11,13,15,-1,17,19,21,23,25,-1,27,-1,-1,29,-1,-1,31,-1,33,-1,-1,35,37,39,41,43,-1,-1,-1,-1,-1,-1,-1,-1,-1,-1,-1,-1,-1],"loss_changes":[1.0239004E4,2.565962E2,5.3073926E2,5.2208008E1,0E0,1.8394827E1,1.4053076E2,1.0343262E1,2.8951653E1,0E0,8.973321E0,5.922467E1,4.8168945E0,7.9277344E0,6.906054E0,0E0,1.8817076E1,0E0,0E0,5.8052307E1,0E0,0E0,3.2768555E0,0E0,5.6458435E0,0E0,0E0,6.160015E0,8.213507E0,1.6594887E1,1.2692474E1,2.7851562E0,0E0,0E0,0E0,0E0,0E0,0E0,0E0,0E0,0E0,0E0,0E0,0E0,0E0],"parents":[2147483647,0,0,1,1,2,2,3,3,5,5,6,6,7,7,8,8,10,10,11,11,12,12,13,13,14,14,16,16,19,19,22,22,24,24,27,27,28,28,29,29,30,30,31,31],"right_children":[2,4,6,8,-1,10,12,14,16,-1,18,20,22,24,26,-1,28,-1,-1,30,-1,-1,32,-1,34,-1,-1,36,38,40,42,44,-1,-1,-1,-1,-1,-1,-1,-1,-1,-1,-1,-1,-1],"split_conditions":[1.3E1,2.8749E0,1.6266E0,1.2E1,6.0857E-2,1.55E0,1.5E1,1.52E2,1.5818E0,-2.5857847E-2,1.96E2,2.8044E0,1.6428E0,6.8E-1,1.9E1,-2.4263684E-2,5E0,-2.9169784E-3,4.4610057E-2,8.455E-1,6.327488E-2,1.1523661E-2,1.7E1,-2.6340045E-2,1.11E1,3.541393E-2,-1.3707067E-2,3.571E-1,1.33E2,1.98E2,2.941E-1,2.775E0,6.5222815E-2,-2.4984853E-2,-1.5532073E-2,4.8939865E-3,3.1138165E-2,-1.3764749E-2,1.0432928E-2,4.212337E-3,4.9096096E-2,5.1746376E-2,3.2574594E-2,5.6215998E-2,6.473851E-2],"split_indices":[4,22,22,4,0,22,4,20,22,0,20,22,22,7,3,0,2,0,0,10,0,0,4,0,19,0,0,8,20,20,9,22,0,0,0,0,0,0,0,0,0,0,0,0,0],"split_type":[0,0,0,0,0,0,0,0,0,0,0,0,0,0,0,0,0,0,0,0,0,0,0,0,0,0,0,0,0,0,0,0,0,0,0,0,0,0,0,0,0,0,0,0,0],"sum_hessian":[1.2236938E4,8.565452E3,3.6714856E3,8.509231E3,5.6221424E1,1.4829402E2,3.5231914E3,8.198313E3,3.1091724E2,1.1768306E2,3.061097E1,5.79616E2,2.9435754E3,8.1826533E3,1.5660686E1,1.1954395E2,1.9137329E2,2.3811892E1,6.7990775E0,4.26378E2,1.5323802E2,5.389729E0,2.9381858E3,7.669151E3,5.135023E2,6.0389137E0,9.621772E0,6.6555336E1,1.24817955E2,1.3178154E2,2.9459647E2,8.4931134E2,2.0888745E3,2.6545572E2,2.4804662E2,3.452613E1,3.20292E1,9.7175224E1,2.7642729E1,1.1751526E2,1.4266273E1,1.5512357E2,1.3947289E2,4.965124E2,3.5279892E2],"tree_param":{"num_deleted":"0","num_feature":"23","num_nodes":"45","size_leaf_vector":"1"}},{"base_weights":[-1.7574319E-3,1.2748921E0,-5.998641E-1,1.4019377E0,1.154235E-1,3.4841165E-1,-6.287944E-1,1.4403406E0,3.184866E-1,-2.567984E-2,8.064709E-1,7.788138E-1,-4.117666E-1,-3.585001E-1,-2.6084088E-2,1.4570469E0,1.0430912E0,4.7118746E-2,3.566437E-2,1.056947E0,-2.4097944E-2,1.0356882E0,6.0122043E-2,-2.2466967E-2,1.2037364E-1,3.7144676E-2,-2.558972E-2,6.0506985E-2,1.3421137E0,1.1749272E0,4.4847424E-3,6.693339E-1,-1.9154535E-1,1.2185596E0,-7.4929944E-3,-0E0,1.1348547E0,1.8195627E-2,-9.473158E-3,3.2382447E-2,-1.893949E-2,5.5683243E-1,-2.3057131E-2,-1.8347401E-2,5.5697285E-2,5.144915E-2,1.7945113E-2,3.758568E-2,-2.2886202E-3,7.626026E-3,-1.2990524E-2,5.584481E-2,3.1219278E-2,5.1509667E-2,9.898552E-3,3.1320646E-2,-0E0],"categories":[],"categories_nodes":[],"categories_segments":[],"categories_sizes":[],"default_left":[0,0,0,0,0,0,0,0,0,0,0,0,0,0,0,0,0,0,0,0,0,0,0,0,0,0,0,0,0,0,0,0,0,0,0,0,0,0,0,0,0,0,0,0,0,0,0,0,0,0,0,0,0,0,0,0,0],"id":16,"left_children":[1,3,5,7,9,11,13,15,17,-1,19,21,23,25,-1,27,29,-1,31,33,-1,35,37,-1,39,41,-1,-1,43,45,-1,47,49,51,-1,-1,53,-1,-1,-1,-1,55,-1,-1,-1,-1,-1,-1,-1,-1,-1,-1,-1,-1,-1,-1,-1],"loss_changes":[9.311376E3,5.715249E2,2.284585E2,1.4359033E2,1.9990703E2,8.142199E1,1.9939209E1,1.769873E1,2.80059E1,0E0,7.210208E1,2.825547E1,7.049529E0,3.0899746E1,0E0,3.1118164E0,1.6544281E1,0E0,1.4220143E1,3.5783417E1,0E0,1.2253639E1,5.362254E0,0E0,8.269461E0,3.6875423E1,0E0,0E0,2.4209595E1,5.453781E0,0E0,5.575405E0,3.5602074E0,6.728836E0,0E0,0E0,1.0149338E1,0E0,0E0,0E0,0E0,7.8053417E0,0E0,0E0,0E0,0E0,0E0,0E0,0E0,0E0,0E0,0E0,0E0,0E0,0E0,0E0,0E0],"parents":[2147483647,0,0,1,1,2,2,3,3,4,4,5,5,6,6,7,7,8,8,10,10,11,11,12,12,13,13,15,15,16,16,18,18,19,19,21,21,22,22,24,24,25,25,28,28,29,29,31,31,32,32,33,33,36,36,41,41],"right_children":[2,4,6,8,10,12,14,16,18,-1,20,22,24,26,-1,28,30,-1,32,34,-1,36,38,-1,40,42,-1,-1,44,46,-1,48,50,52,-1,-1,54,-1,-1,-1,-1,56,-1,-1,-1,-1,-1,-1,-1,-1,-1,-1,-1,-1,-1,-1,-1],"split_conditions":[2E0,6.111E-1,4.8E-1,5E0,6.25E-1,3E0,4.1E0,4E0,1E0,-2.567984E-2,1.02E0,4E0,7E0,2E0,-2.6084088E-2,1E0,5.286E-1,4.7118746E-2,4E-1,3.9998E0,-2.4097944E-2,4E0,4.5E0,-2.2466967E-2,4E0,6.833E-1,-2.558972E-2,6.0506985E-2,4E0,2E0,4.4847424E-3,3E0,2E0,4E0,-7.4929944E-3,-0E0,4.727E-1,1.8195627E-2,-9.473158E-3,3.2382447E-2,-1.893949E-2,3E0,-2.3057131E-2,-1.8347401E-2,5.5697285E-2,5.144915E-2,1.7945113E-2,3.758568E-2,-2.2886202E-3,7.626026E-3,-1.2990524E-2,5.584481E-2,3.1219278E-2,5.1509667E-2,9.898552E-3,3.1320646E-2,-0E0],"split_indices":[20,22,22,5,10,11,19,5,11,0,22,5,6,11,0,11,10,0,10,19,0,6,19,0,11,22,0,0,3,11,0,11,1,3,0,0,10,0,0,0,0,5,0,0,0,0,0,0,0,0,0,0,0,0,0,0,0],"split_type":[0,0,0,0,0,0,0,0,0,0,0,0,0,0,0,0,0,0,0,0,0,0,0,0,0,0,0,0,0,0,0,0,0,0,0,0,0,0,0,0,0,0,0,0,0,0,0,0,0,0,0,0,0,0,0,0,0],"sum_hessian":[1.2191623E4,3.8884329E3,8.303189E3,3.503472E3,3.8496106E2,2.4439676E2,8.058793E3,3.3822458E3,1.2122585E2,1.8488359E2,2.0007747E2,1.567023E2,8.769445E1,2.8480438E2,7.773989E3,3.239192E3,1.4305405E2,2.8549316E1,9.267654E1,1.7051068E2,2.9566795E1,1.14023865E2,4.267844E1,7.0783394E1,1.6911055E1,1.14383255E2,1.7042114E2,2.6544143E3,5.847777E2,1.2417637E2,1.8877672E1,2.4486595E1,6.818993E1,1.514643E2,1.9046381E1,9.8416395E0,1.0418223E2,1.919816E1,2.348028E1,8.212233E0,8.698823E0,6.2165787E1,5.221747E1,5.995926E0,5.787818E2,1.0924673E2,1.4929646E1,1.867452E1,5.812076E0,1.5256644E1,5.2933292E1,1.1009865E2,4.136565E1,8.9842865E1,1.4339363E1,4.5223434E1,1.694235E1],"tree_param":{"num_deleted":"0","num_feature":"23","num_nodes":"57","size_leaf_vector":"1"}},{"base_weights":[-3.2377578E-3,4.677205E-1,-5.931746E-1,-4.3069226E-1,1.1055573E0,-1.7326516E-1,-6.260076E-1,-5.2908444E-1,6.0859505E-2,1.1715349E0,-2.582621E-2,-0E0,-2.5750166E-2,-5.014357E-1,-2.600528E-2,-5.6798285E-1,-5.9715502E-2,3.0389673E-1,1.2272166E0,-1.968168E-1,4.4792613E-1,-4.203462E-1,-2.471692E-2,-5.843673E-1,-6.243172E-2,4.2505974E-1,-3.9669073E-1,-1.9815974E-2,6.0039382E-2,1.2738605E0,2.7573863E-2,-0E0,-2.107653E-2,6.916941E-1,-1.6042389E-2,-3.3324662E-1,-2.519952E-2,-2.4484456E-2,-1.7150419E-2,-1.0246606E-2,3.1443495E-2,2.4998972E-2,-1.436347E-3,-2.0292126E-2,1.2725252E-2,-9.349551E-3,4.1845158E-2,2.2201505E-2,5.3873036E-2,-1.170877E-2,3.903539E-2,4.778707E-3,-9.037889E-3,9.328113E-3,4.182548E-2,-1.9644441E-2,-5.805796E-3],"categories":[],"categories_nodes":[],"categories_segments":[],"categories_sizes":[],"default_left":[0,0,0,0,0,0,0,0,0,0,0,0,0,0,0,0,0,0,0,0,0,0,0,0,0,0,0,0,0,0,0,0,0,0,0,0,0,0,0,0,0,0,0,0,0,0,0,0,0,0,0,0,0,0,0,0,0],"id":17,"left_children":[1,3,5,7,9,11,13,15,-1,17,-1,19,-1,21,-1,23,25,27,29,31,33,35,-1,37,39,41,43,45,-1,47,49,51,-1,53,-1,55,-1,-1,-1,-1,-1,-1,-1,-1,-1,-1,-1,-1,-1,-1,-1,-1,-1,-1,-1,-1,-1],"loss_changes":[3.3914856E3,3.89059E3,7.387256E1,5.332324E2,4.5694775E2,3.1339954E1,5.116333E0,4.841278E1,0E0,1.8292188E2,0E0,2.5691967E1,0E0,2.1316452E0,0E0,1.9915283E1,3.44104E1,8.953799E1,1.9996777E2,1.2647223E1,1.8932644E1,2.945156E0,0E0,4.626404E0,1.2666221E1,7.866783E0,9.296223E0,4.001274E1,0E0,1.105874E2,4.097497E1,3.3783283E0,0E0,9.373707E0,0E0,4.229948E0,0E0,0E0,0E0,0E0,0E0,0E0,0E0,0E0,0E0,0E0,0E0,0E0,0E0,0E0,0E0,0E0,0E0,0E0,0E0,0E0,0E0],"parents":[2147483647,0,0,1,1,2,2,3,3,4,4,5,5,6,6,7,7,9,9,11,11,13,13,15,15,16,16,17,17,18,18,19,19,20,20,21,21,23,23,24,24,25,25,26,26,27,27,29,29,30,30,31,31,33,33,35,35],"right_children":[2,4,6,8,10,12,14,16,-1,18,-1,20,-1,22,-1,24,26,28,30,32,34,36,-1,38,40,42,44,46,-1,48,50,52,-1,54,-1,56,-1,-1,-1,-1,-1,-1,-1,-1,-1,-1,-1,-1,-1,-1,-1,-1,-1,-1,-1,-1,-1],"split_conditions":[7E0,3E0,8E0,1E0,2E0,2E0,9E0,1E0,6.0859505E-2,4.1428572E-1,-2.582621E-2,3E0,-2.5750166E-2,7E0,-2.600528E-2,4E0,3E0,1E0,3.3E1,6E0,8E0,2E0,-2.471692E-2,3E0,2E0,3E0,2E0,3E0,6.0039382E-2,1E0,4E0,3.5E-1,-2.107653E-2,3.158E-1,-1.6042389E-2,2E0,-2.519952E-2,-2.4484456E-2,-1.7150419E-2,-1.0246606E-2,3.1443495E-2,2.4998972E-2,-1.436347E-3,-2.0292126E-2,1.2725252E-2,-9.349551E-3,4.1845158E-2,2.2201505E-2,5.3873036E-2,-1.170877E-2,3.903539E-2,4.778707E-3,-9.037889E-3,9.328113E-3,4.182548E-2,-1.9644441E-2,-5.805796E-3],"split_indices":[4,19,4,12,12,12,4,20,0,18,0,6,0,11,0,5,6,12,20,11,11,12,0,5,11,0,11,11,0,11,6,8,0,9,0,6,0,0,0,0,0,0,0,0,0,0,0,0,0,0,0,0,0,0,0,0,0],"split_type":[0,0,0,0,0,0,0,0,0,0,0,0,0,0,0,0,0,0,0,0,0,0,0,0,0,0,0,0,0,0,0,0,0,0,0,0,0,0,0,0,0,0,0,0,0,0,0,0,0,0,0,0,0,0,0,0,0],"sum_hessian":[1.2202858E4,6.7851377E3,5.41772E3,2.8168384E3,3.9682993E3,3.955102E2,5.02221E3,2.681193E3,1.3564519E2,3.8241594E3,1.4414003E2,2.8840366E2,1.0710654E2,4.0563428E2,4.6165757E3,2.4740469E3,2.0714627E2,2.3219981E2,3.5919595E3,2.0136697E2,8.703667E1,2.3703598E2,1.685983E2,2.3945505E3,7.9496346E1,8.3760704E1,1.23385574E2,1.8256718E2,4.9632626E1,3.4567654E3,1.3519423E2,1.2607965E2,7.528733E1,6.846867E1,1.856799E1,1.7045874E2,6.657723E1,2.185833E3,2.0871736E2,6.6639946E1,1.2856396E1,6.040988E1,2.3350819E1,1.0959087E2,1.3794697E1,1.5392796E2,2.8639221E1,2.0254752E2,3.2542178E3,1.01267044E2,3.392718E1,8.238071E1,4.369894E1,3.0874311E1,3.7594364E1,9.223638E1,7.822236E1],"tree_param":{"num_deleted":"0","num_feature":"23","num_nodes":"57","size_leaf_vector":"1"}},{"base_weights":[-2.2259275E-3,-5.9714705E-1,4.491228E-1,-6.1268854E-1,5.886581E-2,1.0655528E0,-4.5845175E-1,-6.208426E-1,2.3629484E-1,4.4200636E-2,1.195645E0,1.415987E0,-5.212398E-1,-2.6114138E-2,-2.267685E-2,5.7419594E-2,-1.7466195E-1,-1.2555751E-1,5.9549235E-2,1.2413559E0,-5.392116E-1,1.4827353E-2,6.0851492E-2,-2.1258165E-1,-6.128877E-1,-1.5127257E-2,2.6278699E-2,-2.0396857E-1,1.1539073E0,7.627917E-1,1.3076824E0,2.3620322E-3,-2.5380595E-2,-6.1425553E-3,-2.3396635E-2,-2.1014951E-2,-2.58795E-2,4.2938297E-3,-1.4466104E-2,5.7877913E-2,4.557769E-3,2.228764E-2,6.110457E-2,5.5499442E-2,3.26164E-2,1.6686697E-2,-8.203338E-3],"categories":[],"categories_nodes":[],"categories_segments":[],"categories_sizes":[],"default_left":[0,0,0,0,0,0,0,0,0,0,0,0,0,0,0,0,0,0,0,0,0,0,0,0,0,0,0,0,0,0,0,0,0,0,0,0,0,0,0,0,0,0,0,0,0,0,0],"id":18,"left_children":[1,3,5,7,-1,9,11,13,15,17,19,21,23,-1,-1,-1,25,27,-1,29,31,-1,-1,33,35,-1,-1,37,39,41,43,-1,-1,45,-1,-1,-1,-1,-1,-1,-1,-1,-1,-1,-1,-1,-1],"loss_changes":[3.28216E3,1.67948E2,3.8891846E3,3.681848E1,0E0,5.4891016E2,3.314925E2,4.665283E0,2.5541206E1,1.1425234E2,2.928921E2,4.587555E0,7.609808E1,0E0,0E0,0E0,6.314597E0,4.1880806E1,0E0,1.1009033E2,5.18038E0,0E0,0E0,4.6212067E1,2.7346191E0,0E0,0E0,1.8775522E1,5.041313E0,6.7135895E1,7.761279E1,0E0,0E0,3.245833E1,0E0,0E0,0E0,0E0,0E0,0E0,0E0,0E0,0E0,0E0,0E0,0E0,0E0],"parents":[2147483647,0,0,1,1,2,2,3,3,5,5,6,6,7,7,8,8,9,9,10,10,11,11,12,12,16,16,17,17,19,19,20,20,23,23,24,24,27,27,28,28,29,29,30,30,33,33],"right_children":[2,4,6,8,-1,10,12,14,16,18,20,22,24,-1,-1,-1,26,28,-1,30,32,-1,-1,34,36,-1,-1,38,40,42,44,-1,-1,46,-1,-1,-1,-1,-1,-1,-1,-1,-1,-1,-1,-1,-1],"split_conditions":[5E0,2E0,1.4E1,2.1E1,5.886581E-2,6E0,1.6E0,3E0,1.3E1,2E0,2.8749E0,7.81E-1,1.6E1,-2.6114138E-2,-2.267685E-2,5.7419594E-2,3E1,3.6E1,5.9549235E-2,7E0,2.9118E0,1.4827353E-2,6.0851492E-2,2.7429E0,1.7E1,-1.5127257E-2,2.6278699E-2,2E0,1.7E1,2E0,1.3E1,2.3620322E-3,-2.5380595E-2,8.562E-1,-2.3396635E-2,-2.1014951E-2,-2.58795E-2,4.2938297E-3,-1.4466104E-2,5.7877913E-2,4.557769E-3,2.228764E-2,6.110457E-2,5.5499442E-2,3.26164E-2,1.6686697E-2,-8.203338E-3],"split_indices":[4,12,4,20,0,4,22,4,3,12,22,10,4,0,0,0,20,20,0,4,22,0,0,22,4,0,0,6,3,12,4,0,0,10,0,0,0,0,0,0,0,0,0,0,0,0,0],"split_type":[0,0,0,0,0,0,0,0,0,0,0,0,0,0,0,0,0,0,0,0,0,0,0,0,0,0,0,0,0,0,0,0,0,0,0,0,0,0,0,0,0,0,0,0,0,0,0],"sum_hessian":[1.221926E4,5.271777E3,6.9474834E3,5.2335215E3,3.8255226E1,4.1377114E3,2.809772E3,5.185162E3,4.835925E1,4.684646E2,3.6692468E3,8.939642E1,2.7203755E3,4.029364E3,1.1557982E3,1.196468E1,3.6394573E1,4.191777E2,4.9286907E1,3.5760034E3,9.324334E1,7.256364E0,8.214005E1,6.2621204E2,2.0941633E3,3.0965027E1,5.429545E0,3.9699112E2,2.2186579E1,4.395082E2,3.136495E3,1.0133031E1,8.3110306E1,4.0064148E2,2.2557057E2,3.7737302E2,1.7167904E3,1.2819902E2,2.687921E2,1.657982E1,5.6067576E0,3.4230316E2,9.720503E1,2.847444E3,2.8905118E2,1.26039345E2,2.7460214E2],"tree_param":{"num_deleted":"0","num_feature":"23","num_nodes":"47","size_leaf_vector":"1"}},{"base_weights":[-1.9444291E-3,-5.988082E-1,1.3146181E0,-6.114949E-1,5.60836E-2,-4.6434206E-1,1.3887806E0,-6.278018E-1,-1.795176E-1,-2.5681522E-2,1.4454107E-1,9.897535E-1,1.4639503E0,-2.6177991E-2,-5.046514E-1,-2.5719035E-2,8.759045E-2,-8.479736E-2,3.7815444E-2,7.565963E-1,5.6962598E-2,1.3038849E0,6.0752485E-2,-2.4902409E-2,-4.0566412E-1,7.2396827E-1,-1.0766239E-1,1.0619281E-2,-1.4347055E-2,2.4110496E-1,1.0128651E0,3.7326463E-3,1.3167161E0,-1.8031223E-2,4.352363E-3,-0E0,3.4398735E-2,-1.085921E-2,9.389533E-3,3.563445E-5,2.2809338E-2,4.8279215E-2,2.7618201E-2,4.832031E-2,5.958792E-2],"categories":[],"categories_nodes":[],"categories_segments":[],"categories_sizes":[],"default_left":[0,0,0,0,0,0,0,0,0,0,0,0,0,0,0,0,0,0,0,0,0,0,0,0,0,0,0,0,0,0,0,0,0,0,0,0,0,0,0,0,0,0,0,0,0],"id":19,"left_children":[1,3,5,7,-1,9,11,13,15,-1,17,19,21,-1,23,-1,25,27,-1,29,-1,31,-1,-1,33,35,37,-1,-1,39,41,-1,43,-1,-1,-1,-1,-1,-1,-1,-1,-1,-1,-1,-1],"loss_changes":[9.555349E3,2.1019312E2,5.0231396E2,5.7718994E1,0E0,1.5833885E1,1.0464502E2,1.1316406E1,3.742499E1,0E0,6.7110863E0,5.1506653E1,5.61084E0,0E0,6.826309E0,0E0,2.4621122E1,2.6468787E0,0E0,4.822029E1,0E0,4.956848E0,0E0,0E0,7.8667755E0,4.473665E0,8.052504E0,0E0,0E0,9.319924E0,1.1256317E1,0E0,2.3798218E0,0E0,0E0,0E0,0E0,0E0,0E0,0E0,0E0,0E0,0E0,0E0,0E0],"parents":[2147483647,0,0,1,1,2,2,3,3,5,5,6,6,7,7,8,8,10,10,11,11,12,12,14,14,16,16,17,17,19,19,21,21,24,24,25,25,26,26,29,29,30,30,32,32],"right_children":[2,4,6,8,-1,10,12,14,16,-1,18,20,22,-1,24,-1,26,28,-1,30,-1,32,-1,-1,34,36,38,-1,-1,40,42,-1,44,-1,-1,-1,-1,-1,-1,-1,-1,-1,-1,-1,-1],"split_conditions":[1.3E1,2.8749E0,1.6266E0,1.2E1,5.60836E-2,1.55E0,1.5E1,1E1,1.5818E0,-2.5681522E-2,1.96E2,2.6715E0,1.6E1,-2.6177991E-2,1.5818E0,-2.5719035E-2,2.353E-1,2E0,3.7815444E-2,8.454546E-1,5.6962598E-2,1.6428E0,6.0752485E-2,-2.4902409E-2,1.3E1,3E0,8.5625E-1,1.0619281E-2,-1.4347055E-2,1.32E2,6E0,3.7326463E-3,2.7144E0,-1.8031223E-2,4.352363E-3,-0E0,3.4398735E-2,-1.085921E-2,9.389533E-3,3.563445E-5,2.2809338E-2,4.8279215E-2,2.7618201E-2,4.832031E-2,5.958792E-2],"split_indices":[4,22,22,4,0,22,4,4,22,0,20,22,4,0,22,0,9,17,0,18,0,22,0,0,11,11,18,0,0,20,2,0,22,0,0,0,0,0,0,0,0,0,0,0,0],"split_type":[0,0,0,0,0,0,0,0,0,0,0,0,0,0,0,0,0,0,0,0,0,0,0,0,0,0,0,0,0,0,0,0,0,0,0,0,0,0,0,0,0,0,0,0,0],"sum_hessian":[1.2157052E4,8.365945E3,3.7911064E3,8.314097E3,5.1847946E1,1.5090414E2,3.6402024E3,8.0090615E3,3.0503525E2,1.1984389E2,3.1060255E1,5.827866E2,3.0574158E3,7.2313286E3,7.77733E2,1.1384195E2,1.9119328E2,2.4438686E1,6.6215687E0,3.7427292E2,2.0851372E2,4.044251E2,2.6529905E3,3.6905264E2,4.0868033E2,4.4730087E1,1.464632E2,9.338325E0,1.5100363E1,1.2649057E2,2.4778235E2,5.0524077E0,3.9937268E2,3.8375784E2,2.4922482E1,5.822277E0,3.890781E1,1.0163264E2,4.4830563E1,7.44659E1,5.2024673E1,1.6040437E2,8.7377975E1,2.1705917E2,1.823135E2],"tree_param":{"num_deleted":"0","num_feature":"23","num_nodes":"45","size_leaf_vector":"1"}},{"base_weights":[-3.5725397E-4,1.2087579E0,-5.951872E-1,1.3016089E0,-2.1405275E-1,3.0722845E-1,-6.217465E-1,1.3590112E0,6.118123E-1,-5.738626E-1,4.98973E-2,7.2430795E-1,-4.003179E-1,-3.3829278E-1,-6.320032E-1,1.3773364E0,8.6776716E-1,8.968896E-1,9.687208E-2,-2.6014306E-2,3.3040714E-2,9.911481E-1,1.9572452E-2,-2.2131741E-2,1.316444E-1,2.7956607E-2,-2.4897361E-2,-5.0516796E-1,-2.5958495E-2,5.7242632E-2,1.2627988E0,-2.1116415E-2,1.0312567E0,1.1216189E0,1.1732845E-1,5.761921E-1,-2.3808387E-1,2.2015493E-2,-1.3256423E-2,-0E0,1.0900776E0,1.3286729E-2,-6.374301E-3,3.3395458E-2,-1.87752E-2,5.439125E-1,-2.2417903E-2,-1.431922E-1,-2.335338E-2,-1.9023642E-2,5.2465055E-2,4.5910433E-2,-0E0,5.022743E-2,1.7024307E-2,2.8664237E-2,-2.0216247E-2,3.5289593E-2,-0E0,-1.3907128E-2,7.4862167E-3,4.8403066E-2,1.0395836E-2,2.8525839E-2,6.636679E-4,3.5045517E-3,-2.1151533E-2],"categories":[],"categories_nodes":[],"categories_segments":[],"categories_sizes":[],"default_left":[0,0,0,0,0,0,0,0,0,0,0,0,0,0,0,0,0,0,0,0,0,0,0,0,0,0,0,0,0,0,0,0,0,0,0,0,0,0,0,0,0,0,0,0,0,0,0,0,0,0,0,0,0,0,0,0,0,0,0,0,0,0,0,0,0,0,0],"id":20,"left_children":[1,3,5,7,9,11,13,15,17,19,-1,21,23,25,27,29,31,33,35,-1,37,39,41,-1,43,45,-1,47,-1,-1,49,-1,51,53,55,57,59,-1,-1,-1,61,-1,-1,-1,-1,63,-1,65,-1,-1,-1,-1,-1,-1,-1,-1,-1,-1,-1,-1,-1,-1,-1,-1,-1,-1,-1],"loss_changes":[8.703997E3,5.2853955E2,1.9503369E2,1.4525488E2,1.27502426E2,6.932274E1,2.1741455E1,2.7143066E1,4.1925354E1,8.089897E0,0E0,2.6876022E1,6.975109E0,2.8498707E1,1.8022461E0,3.7651367E0,3.0969704E1,3.1484848E1,1.7722868E1,0E0,3.93959E0,1.0522018E1,2.5462048E0,0E0,8.430842E0,3.634183E1,0E0,4.44886E0,0E0,0E0,2.3955933E1,0E0,1.2099373E1,8.691528E0,1.6751844E1,6.9715967E0,2.9709759E0,0E0,0E0,0E0,5.93454E0,0E0,0E0,0E0,0E0,4.705364E0,0E0,3.6632676E0,0E0,0E0,0E0,0E0,0E0,0E0,0E0,0E0,0E0,0E0,0E0,0E0,0E0,0E0,0E0,0E0,0E0,0E0,0E0],"parents":[2147483647,0,0,1,1,2,2,3,3,4,4,5,5,6,6,7,7,8,8,9,9,11,11,12,12,13,13,14,14,15,15,16,16,17,17,18,18,20,20,21,21,22,22,24,24,25,25,27,27,30,30,32,32,33,33,34,34,35,35,36,36,40,40,45,45,47,47],"right_children":[2,4,6,8,10,12,14,16,18,20,-1,22,24,26,28,30,32,34,36,-1,38,40,42,-1,44,46,-1,48,-1,-1,50,-1,52,54,56,58,60,-1,-1,-1,62,-1,-1,-1,-1,64,-1,66,-1,-1,-1,-1,-1,-1,-1,-1,-1,-1,-1,-1,-1,-1,-1,-1,-1,-1,-1],"split_conditions":[2E0,7.6E-1,4.8E-1,4E0,8.947E-1,3E0,4.1E0,6.111E-1,4.556E-1,6.316E-1,4.98973E-2,4E0,7E0,2E0,5.4E-1,1E0,2.105E-1,2E0,1E0,-2.6014306E-2,4E0,4E0,4.333E-1,-2.2131741E-2,4E0,6.833E-1,-2.4897361E-2,4E0,-2.5958495E-2,5.7242632E-2,4E0,-2.1116415E-2,3.9998E0,1E0,3.833E-1,2.105E-1,6E0,2.2015493E-2,-1.3256423E-2,-0E0,4.75E-1,1.3286729E-2,-6.374301E-3,3.3395458E-2,-1.87752E-2,3E0,-2.2417903E-2,3E0,-2.335338E-2,-1.9023642E-2,5.2465055E-2,4.5910433E-2,-0E0,5.022743E-2,1.7024307E-2,2.8664237E-2,-2.0216247E-2,3.5289593E-2,-0E0,-1.3907128E-2,7.4862167E-3,4.8403066E-2,1.0395836E-2,2.8525839E-2,6.636679E-4,3.5045517E-3,-2.1151533E-2],"split_indices":[20,22,22,5,7,11,19,22,22,7,0,5,6,11,22,11,7,11,11,0,3,6,22,0,11,22,0,5,0,0,3,0,19,20,22,7,14,0,0,0,22,0,0,0,0,5,0,11,0,0,0,0,0,0,0,0,0,0,0,0,0,0,0,0,0,0,0],"split_type":[0,0,0,0,0,0,0,0,0,0,0,0,0,0,0,0,0,0,0,0,0,0,0,0,0,0,0,0,0,0,0,0,0,0,0,0,0,0,0,0,0,0,0,0,0,0,0,0,0,0,0,0,0,0,0,0,0,0,0,0,0,0,0,0,0,0,0],"sum_hessian":[1.2099143E4,3.9884905E3,8.1106523E3,3.7448323E3,2.4365831E2,2.3046408E2,7.8801885E3,3.454447E3,2.9038535E2,1.9613823E2,4.752008E1,1.4569199E2,8.4772095E1,2.800854E2,7.600103E3,3.3255037E3,1.2894337E2,1.8503584E2,1.0534951E2,1.7884637E2,1.7291859E1,1.0431126E2,4.138073E1,6.815089E1,1.6621212E1,1.1855707E2,1.615283E2,2.1333972E2,7.386763E3,2.728962E3,5.9654175E2,1.2681389E1,1.16261986E2,1.422089E2,4.2826942E1,4.380615E1,6.154336E1,7.7282176E0,9.563641E0,9.529768E0,9.478149E1,1.623532E1,2.5145412E1,8.015826E0,8.605385E0,6.3374672E1,5.5182396E1,3.5887077E1,1.7745265E2,6.402799E0,5.901389E2,1.07193695E2,9.0682955E0,1.21173004E2,2.1035889E1,2.2459242E1,2.0367702E1,2.783734E1,1.5968808E1,5.134866E1,1.0194705E1,8.357827E1,1.1203214E1,4.7387928E1,1.5986744E1,2.177879E1,1.4108287E1],"tree_param":{"num_deleted":"0","num_feature":"23","num_nodes":"67","size_leaf_vector":"1"}},{"base_weights":[2.8490934E-3,4.581882E-1,-5.860135E-1,-4.1654864E-1,1.0549709E0,-1.7683849E-1,-6.198206E-1,-5.261988E-1,6.797797E-1,1.1135507E0,-4.9948382E-1,1.814429E-2,-2.5230315E-2,-4.948127E-1,-2.575293E-2,-5.4911363E-1,3.9277062E-1,1.3701227E0,-1.2599894E-1,2.4216242E-1,1.1979747E0,-2.5571028E-2,6.818845E-1,2.1681975E-1,-4.3921673E-1,-4.3900213E-3,-2.1170983E-2,-5.9454364E-1,-3.4172592E-1,-1.6010266E-2,5.173281E-2,1.8968068E-2,5.778372E-2,-3.4403163E-1,4.891861E-2,-4.2426627E-2,1.2286162E0,1.2630895E0,2.6931345E-1,4.3240458E-2,-0E0,-0E0,6.62595E-1,-1.00617506E-1,-2.3761028E-2,-2.5331318E-2,-2.1094685E-2,5.0041936E-3,-2.1321382E-2,-1.7900458E-2,2.373208E-2,-1.4006945E-2,1.6208658E-2,-0E0,5.459623E-2,5.2986503E-2,3.0487264E-2,-0E0,4.1225847E-2,3.4707687E-3,-1.1240872E-2,5.178834E-4,3.548993E-2,8.256678E-3,-1.8820701E-2],"categories":[],"categories_nodes":[],"categories_segments":[],"categories_sizes":[],"default_left":[0,0,0,0,0,0,0,0,0,0,0,0,0,0,0,0,0,0,0,0,0,0,0,0,0,0,0,0,0,0,0,0,0,0,0,0,0,0,0,0,0,0,0,0,0,0,0,0,0,0,0,0,0,0,0,0,0,0,0,0,0,0,0,0,0],"id":21,"left_children":[1,3,5,7,9,11,13,15,17,19,21,23,-1,25,-1,27,29,31,33,35,37,-1,39,41,43,-1,-1,45,47,-1,-1,-1,-1,49,-1,51,53,55,57,-1,-1,59,61,63,-1,-1,-1,-1,-1,-1,-1,-1,-1,-1,-1,-1,-1,-1,-1,-1,-1,-1,-1,-1,-1],"loss_changes":[3.260977E3,3.5821475E3,7.250708E1,3.3502277E2,3.7289648E2,3.566209E1,4.9990234E0,5.38183E1,1.4211826E2,2.875376E2,2.2957798E1,2.5799387E1,0E0,2.986969E0,0E0,2.2156982E1,4.393923E1,2.7970276E0,3.4059387E1,9.941871E1,2.1480518E2,0E0,3.4474244E0,1.9524502E1,3.4561062E0,0E0,0E0,2.5358276E0,3.8210365E1,0E0,0E0,0E0,0E0,9.320926E0,0E0,3.6224155E1,1.0676743E1,5.5334473E1,4.675954E1,0E0,0E0,3.2715025E0,8.096476E0,3.5538182E0,0E0,0E0,0E0,0E0,0E0,0E0,0E0,0E0,0E0,0E0,0E0,0E0,0E0,0E0,0E0,0E0,0E0,0E0,0E0,0E0,0E0],"parents":[2147483647,0,0,1,1,2,2,3,3,4,4,5,5,6,6,7,7,8,8,9,9,10,10,11,11,13,13,15,15,16,16,17,17,18,18,19,19,20,20,22,22,23,23,24,24,27,27,28,28,33,33,35,35,36,36,37,37,38,38,41,41,42,42,43,43],"right_children":[2,4,6,8,10,12,14,16,18,20,22,24,-1,26,-1,28,30,32,34,36,38,-1,40,42,44,-1,-1,46,48,-1,-1,-1,-1,50,-1,52,54,56,58,-1,-1,60,62,64,-1,-1,-1,-1,-1,-1,-1,-1,-1,-1,-1,-1,-1,-1,-1,-1,-1,-1,-1,-1,-1],"split_conditions":[7E0,3E0,8E0,6.111E-1,1.6876E0,1.6E0,9E0,2E0,6.272727E-1,4.556E-1,8.4375E-1,7E0,-2.5230315E-2,7E-1,-2.575293E-2,1E0,3.7E-1,6.333E-1,1.02E0,3E0,2.6E1,-2.5571028E-2,9E0,3E0,6.75E-1,-4.3900213E-3,-2.1170983E-2,4.182E-1,3E0,-1.6010266E-2,5.173281E-2,1.8968068E-2,5.778372E-2,1E0,4.891861E-2,4E0,3.5E-1,6E0,4E0,4.3240458E-2,-0E0,4E-1,2.667E-1,9E0,-2.3761028E-2,-2.5331318E-2,-2.1094685E-2,5.0041936E-3,-2.1321382E-2,-1.7900458E-2,2.373208E-2,-1.4006945E-2,1.6208658E-2,-0E0,5.459623E-2,5.2986503E-2,3.0487264E-2,-0E0,4.1225847E-2,3.4707687E-3,-1.1240872E-2,5.178834E-4,3.548993E-2,8.256678E-3,-1.8820701E-2],"split_indices":[4,19,4,22,22,22,4,11,18,22,18,11,0,22,0,11,22,22,22,11,20,0,20,6,18,0,0,22,6,0,0,0,0,11,0,5,18,4,6,0,0,8,9,11,0,0,0,0,0,0,0,0,0,0,0,0,0,0,0,0,0,0,0,0,0],"split_type":[0,0,0,0,0,0,0,0,0,0,0,0,0,0,0,0,0,0,0,0,0,0,0,0,0,0,0,0,0,0,0,0,0,0,0,0,0,0,0,0,0,0,0,0,0,0,0,0,0,0,0,0,0,0,0,0,0,0,0,0,0,0,0,0,0],"sum_hessian":[1.215863E4,6.85769E3,5.30094E3,2.7808386E3,4.076851E3,4.0724384E2,4.8936963E3,2.5295215E3,2.5131728E2,3.929789E3,1.4706204E2,2.8225256E2,1.2499127E2,3.9455032E2,4.499146E3,2.46955E3,5.9971313E1,1.3522307E2,1.1609421E2,3.48571E2,3.581218E3,1.3422542E2,1.2836625E1,1.9867369E2,8.357887E1,2.5056782E1,3.6949353E2,2.0198186E3,4.497314E2,3.1622112E1,2.83492E1,8.128911E0,1.2709416E2,1.01340485E2,1.4753718E1,2.7121454E2,7.735649E1,3.345144E3,2.3607394E2,7.3565016E0,5.4801235E0,1.3452786E2,6.414582E1,2.7345919E1,5.6232952E1,1.5052477E3,5.14571E2,1.2465209E2,3.250793E2,9.363356E1,7.706928E0,1.6238083E2,1.0883371E2,6.279377E0,7.107711E1,3.1348843E3,2.102598E2,1.7501009E2,6.1063854E1,1.0311181E2,3.1416058E1,1.6857214E1,4.7288605E1,1.4053579E1,1.3292339E1],"tree_param":{"num_deleted":"0","num_feature":"23","num_nodes":"65","size_leaf_vector":"1"}},{"base_weights":[-3.1418358E-3,-5.898974E-1,4.330418E-1,-6.069577E-1,5.6013722E-2,1.0172591E0,-4.5178443E-1,-6.12534E-1,6.403591E-1,6.627894E-2,1.1327423E0,1.2960812E0,-5.160519E-1,-6.206204E-1,-3.859346E-1,5.3102117E-2,-3.5098157E-4,-9.9570595E-2,5.630485E-2,1.174052E0,-5.214174E-1,5.736306E-2,1.7457357E-2,-2.2479846E-1,-6.0306114E-1,-2.5650047E-2,-2.1235436E-2,1.4460284E-1,-4.6396568E-1,-2.5686476E-1,6.328561E-1,7.2697914E-1,1.2349025E0,4.6783932E-3,-2.5142336E-2,-1.5753591E-2,-2.3414006E-2,-4.9834317E-1,-2.5541283E-2,2.4838492E-2,-7.4736057E-3,-5.6390953E-3,-2.1311011E-2,-0E0,-1.5521592E-2,-3.920547E-3,4.532521E-2,2.1664182E-2,5.7616875E-2,5.248711E-2,3.0090136E-2,-1.6497532E-2,6.78225E-3,-1.7382016E-2,-2.557244E-2],"categories":[],"categories_nodes":[],"categories_segments":[],"categories_sizes":[],"default_left":[0,0,0,0,0,0,0,0,0,0,0,0,0,0,0,0,0,0,0,0,0,0,0,0,0,0,0,0,0,0,0,0,0,0,0,0,0,0,0,0,0,0,0,0,0,0,0,0,0,0,0,0,0,0,0],"id":22,"left_children":[1,3,5,7,-1,9,11,13,15,17,19,21,23,25,27,-1,-1,29,-1,31,33,-1,-1,35,37,-1,-1,39,41,43,45,47,49,-1,-1,51,-1,53,-1,-1,-1,-1,-1,-1,-1,-1,-1,-1,-1,-1,-1,-1,-1,-1,-1],"loss_changes":[3.1129717E3,1.7440454E2,3.6072488E3,3.6458374E1,0E0,4.6043604E2,3.1226123E2,8.137207E0,1.0967481E1,1.0089344E2,2.5765186E2,6.6797028E0,6.695148E1,2.0957031E0,8.027397E0,0E0,0E0,4.6932125E1,0E0,9.6265625E1,6.0391045E0,0E0,0E0,4.472881E1,3.30365E0,0E0,0E0,4.1447587E0,2.3950233E0,1.0401432E1,2.590568E1,5.6755753E1,7.6615234E1,0E0,0E0,2.7927345E1,0E0,2.151451E0,0E0,0E0,0E0,0E0,0E0,0E0,0E0,0E0,0E0,0E0,0E0,0E0,0E0,0E0,0E0,0E0,0E0],"parents":[2147483647,0,0,1,1,2,2,3,3,5,5,6,6,7,7,8,8,9,9,10,10,11,11,12,12,13,13,14,14,17,17,19,19,20,20,23,23,24,24,27,27,28,28,29,29,30,30,31,31,32,32,35,35,37,37],"right_children":[2,4,6,8,-1,10,12,14,16,18,20,22,24,26,28,-1,-1,30,-1,32,34,-1,-1,36,38,-1,-1,40,42,44,46,48,50,-1,-1,52,-1,54,-1,-1,-1,-1,-1,-1,-1,-1,-1,-1,-1,-1,-1,-1,-1,-1,-1],"split_conditions":[5E0,2E0,1.4E1,2.5E1,5.6013722E-2,6E0,1.6118E0,1.6E1,1.5E1,2E0,2.8749E0,1.5334E0,1.6E1,4E0,6.2997E0,5.3102117E-2,-3.5098157E-4,6E0,5.630485E-2,7E0,3E0,5.736306E-2,1.7457357E-2,2.7429E0,1.7E1,-2.5650047E-2,-2.1235436E-2,3E0,2E0,2E0,6.077E-1,2E0,1.3E1,4.6783932E-3,-2.5142336E-2,2.632E-1,-2.3414006E-2,3E0,-2.5541283E-2,2.4838492E-2,-7.4736057E-3,-5.6390953E-3,-2.1311011E-2,-0E0,-1.5521592E-2,-3.920547E-3,4.532521E-2,2.1664182E-2,5.7616875E-2,5.248711E-2,3.0090136E-2,-1.6497532E-2,6.78225E-3,-1.7382016E-2,-2.557244E-2],"split_indices":[4,12,4,20,0,4,22,20,3,12,22,22,4,4,19,0,0,11,0,4,12,0,0,22,4,0,0,6,6,6,10,12,4,0,0,9,0,12,0,0,0,0,0,0,0,0,0,0,0,0,0,0,0,0,0],"split_type":[0,0,0,0,0,0,0,0,0,0,0,0,0,0,0,0,0,0,0,0,0,0,0,0,0,0,0,0,0,0,0,0,0,0,0,0,0,0,0,0,0,0,0,0,0,0,0,0,0,0,0,0,0,0,0],"sum_hessian":[1.2159142E4,5.185214E3,6.973928E3,5.142132E3,4.3081955E1,4.200891E3,2.7730369E3,5.1208037E3,2.13284E1,4.5596725E2,3.7449238E3,9.667857E1,2.6763584E3,4.9378794E3,1.8292441E2,1.0309802E1,1.1018598E1,4.05715E2,5.0252266E1,3.6546677E3,9.0256256E1,8.416396E1,1.2514609E1,6.1925616E2,2.0571023E3,4.5897793E3,3.4809995E2,2.191957E1,1.6100484E2,3.358619E2,6.985307E1,4.4222202E2,3.2124456E3,1.0460254E1,7.9796E1,3.8964243E2,2.2961374E2,3.7304077E2,1.6840614E3,9.472366E0,1.2447206E1,2.725532E1,1.3374951E2,1.11280365E2,2.2458156E2,2.7509808E1,4.234326E1,3.4679767E2,9.5424324E1,2.9158933E3,2.9655237E2,1.25020676E2,2.6462177E2,2.464965E2,1.2654424E2],"tree_param":{"num_deleted":"0","num_feature":"23","num_nodes":"55","size_leaf_vector":"1"}},{"base_weights":[1.2927084E-3,-5.9231055E-1,1.2438575E0,-6.078495E-1,1.1166729E0,-4.259431E-1,1.309785E0,-6.2381464E-1,-1.8205322E-1,3.6234692E-1,5.645858E-2,-2.5484707E-2,2.6369703E-1,9.2224336E-1,1.38213E0,-2.5971308E-2,-5.09055E-1,-2.3559703E-2,3.2529987E-2,-0E0,3.7763923E-2,-0E0,3.1106053E-2,6.757659E-1,1.2748777E0,1.2966099E0,5.784743E-2,-2.5534559E-2,-4.188058E-1,6.3067216E-1,-1.4543183E-1,-1.8736642E-2,2.108168E-2,2.3215954E-1,9.404695E-1,1.0401187E0,5.7872348E-2,1.2016939E0,5.6915604E-2,-1.813613E-2,1.6971847E-2,-0E0,3.8581334E-2,-1.0415701E-2,8.8607725E-3,1.904036E-2,-3.9589494E-3,3.052476E-2,5.0000954E-2,4.6263114E-2,8.208328E-3,3.109215E-2,5.038991E-2],"categories":[],"categories_nodes":[],"categories_segments":[],"categories_sizes":[],"default_left":[0,0,0,0,0,0,0,0,0,0,0,0,0,0,0,0,0,0,0,0,0,0,0,0,0,0,0,0,0,0,0,0,0,0,0,0,0,0,0,0,0,0,0,0,0,0,0,0,0,0,0,0,0],"id":23,"left_children":[1,3,5,7,9,11,13,15,17,19,-1,-1,21,23,25,-1,27,-1,29,31,-1,-1,-1,33,35,37,-1,-1,39,41,43,-1,-1,45,47,49,-1,51,-1,-1,-1,-1,-1,-1,-1,-1,-1,-1,-1,-1,-1,-1,-1],"loss_changes":[8.980409E3,2.1957642E2,4.350498E2,5.464966E1,1.2572266E1,2.1112953E1,1.020332E2,9.260986E0,2.5839407E1,5.151309E0,0E0,0E0,4.383328E0,4.9277588E1,3.7402344E0,0E0,6.59935E0,0E0,2.124851E1,3.911571E0,0E0,0E0,0E0,4.0937057E1,3.5020447E0,3.4394531E0,0E0,0E0,9.4748535E0,8.359856E0,6.090965E0,0E0,0E0,1.1012472E1,9.016006E0,6.335594E0,0E0,3.5250244E0,0E0,0E0,0E0,0E0,0E0,0E0,0E0,0E0,0E0,0E0,0E0,0E0,0E0,0E0,0E0],"parents":[2147483647,0,0,1,1,2,2,3,3,4,4,5,5,6,6,7,7,8,8,9,9,12,12,13,13,14,14,16,16,18,18,19,19,23,23,24,24,25,25,28,28,29,29,30,30,33,33,34,34,35,35,37,37],"right_children":[2,4,6,8,10,12,14,16,18,20,-1,-1,22,24,26,-1,28,-1,30,32,-1,-1,-1,34,36,38,-1,-1,40,42,44,-1,-1,46,48,50,-1,52,-1,-1,-1,-1,-1,-1,-1,-1,-1,-1,-1,-1,-1,-1,-1],"split_conditions":[1.3E1,2.7546E0,1.6266E0,1.2E1,2.9118E0,1.55E0,1.5E1,1E1,1.5818E0,1.7E1,5.645858E-2,-2.5484707E-2,1.3E1,2.6625E0,1.7E1,-2.5971308E-2,1.5334E0,-2.3559703E-2,2.353E-1,7E0,3.7763923E-2,-0E0,3.1106053E-2,8.5E-1,2.9118E0,2.7144E0,5.784743E-2,-2.5534559E-2,1.4E1,3.529E-1,8.571E-1,-1.8736642E-2,2.108168E-2,7E0,1.1E1,3.81E-1,5.7872348E-2,8.333E-1,5.6915604E-2,-1.813613E-2,1.6971847E-2,-0E0,3.8581334E-2,-1.0415701E-2,8.8607725E-3,1.904036E-2,-3.9589494E-3,3.052476E-2,5.0000954E-2,4.6263114E-2,8.208328E-3,3.109215E-2,5.038991E-2],"split_indices":[4,22,22,4,22,22,4,4,22,13,0,0,11,22,4,0,22,0,9,11,0,0,0,10,22,22,0,0,11,8,10,0,0,2,11,9,0,10,0,0,0,0,0,0,0,0,0,0,0,0,0,0,0],"split_type":[0,0,0,0,0,0,0,0,0,0,0,0,0,0,0,0,0,0,0,0,0,0,0,0,0,0,0,0,0,0,0,0,0,0,0,0,0,0,0,0,0,0,0,0,0,0,0,0,0,0,0,0,0],"sum_hessian":[1.2171031E4,8.236525E3,3.9345056E3,8.1639263E3,7.25995E1,1.4860173E2,3.785904E3,7.8662363E3,2.976901E2,2.0795315E1,5.1804188E1,1.16519264E2,3.2082466E1,6.0120825E2,3.1846956E3,7.1115986E3,7.546376E2,1.05123184E2,1.925669E2,1.3088208E1,7.707107E0,2.2250977E1,9.831488E0,3.583035E2,2.4290477E2,9.309306E2,2.2537651E3,3.2161276E2,4.3302478E2,4.416107E1,1.4840582E2,7.64678E0,5.4414287E0,1.3630934E2,2.2199416E2,9.924443E1,1.4366034E2,4.8599323E2,4.4493738E2,4.2211694E2,1.0907821E1,1.6087866E1,2.8073204E1,1.1609176E2,3.231406E1,8.068421E1,5.5625137E1,1.3758722E2,8.440692E1,8.796711E1,1.1277324E1,3.7437996E1,4.485552E2],"tree_param":{"num_deleted":"0","num_feature":"23","num_nodes":"53","size_leaf_vector":"1"}},{"base_weights":[3.6146116E-4,1.1474252E0,-5.907091E-1,1.2443179E0,-2.5925685E-2,2.9320836E-1,-6.1782724E-1,1.2767329E0,2.719E-1,7.1257E-1,-4.3803653E-1,-6.6686265E-2,-6.221898E-1,1.2861326E0,5.142304E-1,9.234603E-1,1.6629806E-2,9.641452E-1,8.540176E-2,-2.2470925E-2,-0E0,3.5233745E-1,-2.2462457E-2,-4.5349964E-1,-2.5672492E-2,5.3802393E-2,1.0880243E0,4.329877E-2,-2.6127042E-3,4.697621E-2,-0E0,6.057859E-1,-2.0951648E-1,-0E0,1.0466812E0,1.6593084E-2,-3.5830645E-3,2.7505431E-2,-1.9370174E-2,3.199114E-2,-1.969236E-2,-1.9684912E-1,-2.4588602E-2,4.6905264E-2,2.1064911E-2,3.2940943E-2,-1.588253E-3,5.740504E-3,-1.3764027E-2,4.590638E-2,1.307439E-2,8.374331E-3,-1.9411499E-2],"categories":[],"categories_nodes":[],"categories_segments":[],"categories_sizes":[],"default_left":[0,0,0,0,0,0,0,0,0,0,0,0,0,0,0,0,0,0,0,0,0,0,0,0,0,0,0,0,0,0,0,0,0,0,0,0,0,0,0,0,0,0,0,0,0,0,0,0,0,0,0,0,0],"id":24,"left_children":[1,3,5,7,-1,9,11,13,15,17,19,21,23,25,27,29,31,33,35,-1,37,39,-1,41,-1,-1,43,-1,-1,-1,-1,45,47,-1,49,-1,-1,-1,-1,-1,-1,51,-1,-1,-1,-1,-1,-1,-1,-1,-1,-1,-1],"loss_changes":[8.1769106E3,7.101128E2,1.9134961E2,1.2076514E2,0E0,7.352405E1,1.793335E1,2.4327148E1,2.059703E1,2.300225E1,4.55398E0,1.3490357E1,6.67334E0,1.821045E1,1.6669811E1,8.226915E0,1.322481E1,8.75193E0,2.902719E0,0E0,6.5886955E0,1.3332377E1,0E0,9.969921E0,0E0,0E0,1.5319702E1,0E0,0E0,0E0,0E0,4.2821646E0,3.3254392E0,0E0,3.7326126E0,0E0,0E0,0E0,0E0,0E0,0E0,1.2572212E1,0E0,0E0,0E0,0E0,0E0,0E0,0E0,0E0,0E0,0E0,0E0],"parents":[2147483647,0,0,1,1,2,2,3,3,5,5,6,6,7,7,8,8,9,9,10,10,11,11,12,12,13,13,14,14,15,15,16,16,17,17,18,18,20,20,21,21,23,23,26,26,31,31,32,32,34,34,41,41],"right_children":[2,4,6,8,-1,10,12,14,16,18,20,22,24,26,28,30,32,34,36,-1,38,40,-1,42,-1,-1,44,-1,-1,-1,-1,46,48,-1,50,-1,-1,-1,-1,-1,-1,52,-1,-1,-1,-1,-1,-1,-1,-1,-1,-1,-1],"split_conditions":[2E0,1E0,4.8E-1,5E0,-2.5925685E-2,3E0,3.1003E0,3.9998E0,1E0,4E0,7E0,6.833E-1,4.3002E0,3E0,5.4E-1,5.25E-1,4E-1,4E0,4.333E-1,-2.2470925E-2,4E0,2E0,-2.2462457E-2,6.545E-1,-2.5672492E-2,5.3802393E-2,5.083E-1,4.329877E-2,-2.6127042E-3,4.697621E-2,-0E0,3E0,2E0,-0E0,4.727E-1,1.6593084E-2,-3.5830645E-3,2.7505431E-2,-1.9370174E-2,3.199114E-2,-1.969236E-2,2E0,-2.4588602E-2,4.6905264E-2,2.1064911E-2,3.2940943E-2,-1.588253E-3,5.740504E-3,-1.3764027E-2,4.590638E-2,1.307439E-2,8.374331E-3,-1.9411499E-2],"split_indices":[20,12,22,5,0,11,19,19,11,5,6,22,19,5,10,10,10,6,10,0,11,11,0,22,0,0,10,0,0,0,0,11,1,0,10,0,0,0,0,0,0,11,0,0,0,0,0,0,0,0,0,0,0],"split_type":[0,0,0,0,0,0,0,0,0,0,0,0,0,0,0,0,0,0,0,0,0,0,0,0,0,0,0,0,0,0,0,0,0,0,0,0,0,0,0,0,0,0,0,0,0,0,0,0,0,0,0,0,0],"sum_hessian":[1.2056168E4,4.09972E3,7.956448E3,3.8892542E3,2.1046619E2,2.354164E2,7.7210317E3,3.7624368E3,1.2681732E2,1.5035153E2,8.506485E1,6.2332096E1,7.6586997E3,3.7143494E3,4.808735E1,3.348008E1,9.333724E1,1.0569308E2,4.465846E1,6.834051E1,1.6724344E1,3.2738323E1,2.9593775E1,2.8264072E2,7.376059E3,3.2010693E3,5.1327997E2,2.4696648E1,2.3390703E1,2.7177204E1,6.302874E0,2.605511E1,6.7282135E1,8.294309E0,9.739877E1,1.6457876E1,2.8200583E1,7.0624633E0,9.661881E0,2.2308128E1,1.0430193E1,1.0709101E2,1.7554971E2,4.615435E2,5.173646E1,2.0493923E1,5.5611863E0,1.6198584E1,5.108355E1,8.616174E1,1.1237026E1,4.2816242E1,6.427477E1],"tree_param":{"num_deleted":"0","num_feature":"23","num_nodes":"53","size_leaf_vector":"1"}},{"base_weights":[5.750193E-4,4.383087E-1,-5.7922757E-1,-4.3317366E-1,9.865333E-1,-1.3678281E-1,-6.153176E-1,-5.2747077E-1,5.4509554E-2,1.0401566E0,-2.5381928E-2,4.2185955E-2,-2.5349949E-2,-4.983443E-1,-2.5546806E-2,-5.4671586E-1,4.254046E-1,2.4569358E-1,1.1007233E0,2.4022236E-1,-4.4836572E-1,-2.1461528E-2,-8.120042E-3,-5.8412594E-1,-3.6233196E-1,5.6381337E-2,-1.7267703E-1,-7.7437066E-2,5.685652E-2,1.1383024E0,4.561638E-2,1.5928686E-2,7.4031746E-1,-1.2783854E-1,-2.3522997E-2,-2.5141293E-2,-2.0525908E-2,5.579998E-3,-2.1944666E-2,3.3231648E-3,-1.780695E-2,-1.8427845E-2,1.7989976E-2,1.6603772E-2,4.823674E-2,-2.5940835E-2,2.8297607E-2,-1.262005E-2,5.233458E-3,8.3039445E-4,3.718443E-2,6.84107E-3,-1.8581076E-2],"categories":[],"categories_nodes":[],"categories_segments":[],"categories_sizes":[],"default_left":[0,0,0,0,0,0,0,0,0,0,0,0,0,0,0,0,0,0,0,0,0,0,0,0,0,0,0,0,0,0,0,0,0,0,0,0,0,0,0,0,0,0,0,0,0,0,0,0,0,0,0,0,0],"id":25,"left_children":[1,3,5,7,9,11,13,15,-1,17,-1,19,-1,21,-1,23,25,27,29,31,33,-1,-1,35,37,-1,39,41,-1,43,45,47,49,51,-1,-1,-1,-1,-1,-1,-1,-1,-1,-1,-1,-1,-1,-1,-1,-1,-1,-1,-1],"loss_changes":[3.0602778E3,3.284323E3,8.2054565E1,4.4298334E2,3.6528223E2,3.473041E1,4.1538086E0,4.6755432E1,0E0,1.9494727E2,0E0,2.8088957E1,0E0,2.4109116E0,0E0,1.5909302E1,3.0011658E1,1.0961499E2,1.4935449E2,2.2711687E1,2.6660118E0,0E0,0E0,3.7748413E0,3.7580963E1,0E0,2.4829419E0,4.47435E1,0E0,1.1169043E2,5.9443417E1,5.268261E0,6.950966E0,3.0359108E0,0E0,0E0,0E0,0E0,0E0,0E0,0E0,0E0,0E0,0E0,0E0,0E0,0E0,0E0,0E0,0E0,0E0,0E0,0E0],"parents":[2147483647,0,0,1,1,2,2,3,3,4,4,5,5,6,6,7,7,9,9,11,11,13,13,15,15,16,16,17,17,18,18,19,19,20,20,23,23,24,24,26,26,27,27,29,29,30,30,31,31,32,32,33,33],"right_children":[2,4,6,8,10,12,14,16,-1,18,-1,20,-1,22,-1,24,26,28,30,32,34,-1,-1,36,38,-1,40,42,-1,44,46,48,50,52,-1,-1,-1,-1,-1,-1,-1,-1,-1,-1,-1,-1,-1,-1,-1,-1,-1,-1,-1],"split_conditions":[7E0,2.8998E0,8E0,1E0,2E0,2E0,9E0,2E0,5.4509554E-2,1E0,-2.5381928E-2,7E0,-2.5349949E-2,4E0,-2.5546806E-2,1E0,4E0,1E0,7E0,3E0,6.75E-1,-2.1461528E-2,-8.120042E-3,4.143E-1,3E0,5.6381337E-2,6E0,5.25E-1,5.685652E-2,4.143E-1,1.5E1,1E0,4E0,9E0,-2.3522997E-2,-2.5141293E-2,-2.0525908E-2,5.579998E-3,-2.1944666E-2,3.3231648E-3,-1.780695E-2,-1.8427845E-2,1.7989976E-2,1.6603772E-2,4.823674E-2,-2.5940835E-2,2.8297607E-2,-1.262005E-2,5.233458E-3,8.3039445E-4,3.718443E-2,6.84107E-3,-1.8581076E-2],"split_indices":[4,19,4,12,12,12,4,11,0,11,0,11,0,6,0,11,6,12,11,6,10,0,0,10,6,0,6,10,0,10,3,6,2,11,0,0,0,0,0,0,0,0,0,0,0,0,0,0,0,0,0,0,0],"split_type":[0,0,0,0,0,0,0,0,0,0,0,0,0,0,0,0,0,0,0,0,0,0,0,0,0,0,0,0,0,0,0,0,0,0,0,0,0,0,0,0,0,0,0,0,0,0,0,0,0,0,0,0,0],"sum_hessian":[1.2054743E4,6.8699663E3,5.184777E3,2.6524316E3,4.2175347E3,3.9337457E2,4.7914023E3,2.5197212E3,1.3271051E2,4.0825186E3,1.3501616E2,2.8710718E2,1.0626739E2,3.9224442E2,4.399158E3,2.471425E3,4.829621E1,2.907834E2,3.791735E3,2.0637056E2,8.073662E1,3.5607242E2,3.6172016E1,2.0476655E3,4.2375943E2,1.822429E1,3.0071918E1,2.2757846E2,6.320493E1,3.6604495E3,1.312857E2,1.4487283E2,6.1497726E1,2.580959E1,5.492703E1,1.4646511E3,5.830145E2,1.0885993E2,3.148995E2,1.4357375E1,1.5714543E1,1.3323796E2,9.434049E1,2.0287825E2,3.4575713E3,6.338696E1,6.789875E1,3.4515587E1,1.1035724E2,1.3040748E1,4.845698E1,1.2711879E1,1.3097711E1],"tree_param":{"num_deleted":"0","num_feature":"23","num_nodes":"53","size_leaf_vector":"1"}},{"base_weights":[1.2520697E-3,-5.844406E-1,4.2316926E-1,-6.001533E-1,1.1115993E0,9.770396E-1,-4.453063E-1,-6.07346E-1,4.210423E-1,5.285397E-2,-4.5491406E-3,8.194114E-2,1.0804535E0,1.248801E0,-5.1194084E-1,-6.2156254E-1,-4.7701034E-1,-1.2865069E-2,5.1076073E-2,-6.443104E-2,5.1140234E-2,1.1199548E0,-5.187794E-1,5.4441363E-2,2.1274107E-2,-2.2775489E-1,-5.981901E-1,-2.5430538E-2,-0E0,-4.9279785E-1,-1.3963681E-1,-1.39608355E-2,1.4816631E-2,-1.7908601E-1,8.92969E-1,7.1652704E-1,1.1743575E0,4.4894507E-3,-2.4955744E-2,-3.6929455E-2,-2.294193E-2,-4.9431488E-1,-2.5340712E-2,-2.1344274E-2,-1.1967846E-2,-1.7435357E-2,2.694858E-2,4.566611E-3,-1.3170355E-2,-0E0,5.168834E-2,2.2005271E-2,5.443032E-2,4.977028E-2,2.9940419E-2,-1.3203953E-2,8.283497E-3,-2.2426823E-2,-1.4148654E-2],"categories":[],"categories_nodes":[],"categories_segments":[],"categories_sizes":[],"default_left":[0,0,0,0,0,0,0,0,0,0,0,0,0,0,0,0,0,0,0,0,0,0,0,0,0,0,0,0,0,0,0,0,0,0,0,0,0,0,0,0,0,0,0,0,0,0,0,0,0,0,0,0,0,0,0,0,0,0,0],"id":26,"left_children":[1,3,5,7,9,11,13,15,17,-1,-1,19,21,23,25,27,29,31,-1,33,-1,35,37,-1,-1,39,41,-1,-1,43,45,-1,-1,47,49,51,53,-1,-1,55,-1,57,-1,-1,-1,-1,-1,-1,-1,-1,-1,-1,-1,-1,-1,-1,-1,-1,-1],"loss_changes":[2.97984E3,1.3532349E2,3.3733716E3,3.736499E1,1.1582157E1,3.952268E2,3.0878546E2,7.7834473E0,1.3725758E1,0E0,0E0,7.751965E1,2.4393652E2,3.5587158E0,6.3520447E1,3.0091553E0,2.0361023E0,3.2036548E0,0E0,4.335629E1,0E0,7.91626E1,5.926674E0,0E0,0E0,3.8793182E1,3.1689453E0,0E0,0E0,1.8891907E0,6.5707417E0,0E0,0E0,1.513353E1,1.4820831E1,4.6644302E1,6.0773926E1,0E0,0E0,2.740299E1,0E0,1.9129333E0,0E0,0E0,0E0,0E0,0E0,0E0,0E0,0E0,0E0,0E0,0E0,0E0,0E0,0E0,0E0,0E0,0E0],"parents":[2147483647,0,0,1,1,2,2,3,3,4,4,5,5,6,6,7,7,8,8,11,11,12,12,13,13,14,14,15,15,16,16,17,17,19,19,21,21,22,22,25,25,26,26,29,29,30,30,33,33,34,34,35,35,36,36,39,39,41,41],"right_children":[2,4,6,8,10,12,14,16,18,-1,-1,20,22,24,26,28,30,32,-1,34,-1,36,38,-1,-1,40,42,-1,-1,44,46,-1,-1,48,50,52,54,-1,-1,56,-1,58,-1,-1,-1,-1,-1,-1,-1,-1,-1,-1,-1,-1,-1,-1,-1,-1,-1],"split_conditions":[5E0,1.6706E0,1.4E1,7E0,6.8E-1,6E0,1.6118E0,4E0,2.727E-1,5.285397E-2,-4.5491406E-3,1.6428E0,2.8749E0,1.5334E0,1.6E1,1.5112E0,6E0,3.182E-1,5.1076073E-2,7E0,5.1140234E-2,7E0,2.9118E0,5.4441363E-2,2.1274107E-2,2.7429E0,1.7E1,-2.5430538E-2,-0E0,1.323E0,6.077E-1,-1.39608355E-2,1.4816631E-2,2E0,6E-1,1.7566E0,1.3E1,4.4894507E-3,-2.4955744E-2,6E0,-2.294193E-2,5E0,-2.5340712E-2,-2.1344274E-2,-1.1967846E-2,-1.7435357E-2,2.694858E-2,4.566611E-3,-1.3170355E-2,-0E0,5.168834E-2,2.2005271E-2,5.443032E-2,4.977028E-2,2.9940419E-2,-1.3203953E-2,8.283497E-3,-2.2426823E-2,-1.4148654E-2],"split_indices":[4,22,4,11,7,4,22,4,7,0,0,22,22,22,4,22,11,8,0,11,0,4,22,0,0,22,4,0,0,22,10,0,0,6,10,22,4,0,0,2,0,14,0,0,0,0,0,0,0,0,0,0,0,0,0,0,0,0,0],"split_type":[0,0,0,0,0,0,0,0,0,0,0,0,0,0,0,0,0,